,posFT21454,posFT22500,posFT23044,posFT23164,posFT23296,posFT23406,posFT24809,posFT25059,posFT26655,posFT26925,posFT27375,posFT28338,posFT29055,posFT29177,posFT24819,posFT23865,posFT24815,posFT33758,posFT33759,posFT34814,posFT28397,posFT25685,posFT26590,posFT27481,posFT27602,posFT28244,posFT29344,posFT30032,posFT30149,posFT31040,posFT32828,posFT33004,posFT33957,posFT34160,posFT35046,posFT35207,posFT36035,posFT36971,posFT17441,posFT18386,posFT20327,posFT21089,posFT22056,posFT22057,posFT22065,posFT22276,posFT23053,posFT23987,posFT23988,posFT24731,posFT28868,posFT28987,posFT33889,posFT34973,posFT35873,posFT36762,posFT36901,posFT17562,posFT17680,posFT17683,posFT18528,posFT18662,posFT19324,posFT19484,posFT19799,posFT20166,posFT20169,posFT21905,posFT22912,posFT23757,posFT23851,posFT24715,posFT25173,posFT29931,posFT30865,posFT32637,posFT32638,posFT32767,posFT33883,posFT34962,posFT35989,posFT25790,posFT31177,posFT10285,posFT10407,posFT25174,posFT25062,posFT26775,posFT26656,posFT28398,posFT28199,posFT36736,posFT36595,posFT37288,posFT38932,posFT39062,posFT39171,posFT40373,posFT40496,posFT40598,posFT41894,posFT42144,posFT42258,posFT43153,posFT43257,posFT43360,posFT43471,posFT43581,posFT44400,posFT44509,posFT44613,posFT09286,negFT07035,negFT07036,negFT07491,negFT07490,negFT07537,negFT07589,negFT08039,negFT08093,negFT08631,negFT08691,negFT08742,negFT12114,negFT13295,negFT13217,negFT13116,negFT14183,negFT14095,negFT14094,negFT13958,negFT15128,negFT15132,negFT14958,negFT16013,negFT16014,negFT16097,negFT05797,negFT06195,negFT06234,negFT06235,negFT06677,negFT06777,negFT14216,negFT14215,negFT17187,negFT11542,negFT12620,negFT12362,negFT13549,negFT13548,negFT13466,negFT14635,negFT14633,negFT13647,negFT14531,negFT14532,negFT07002,negFT08198,negFT12359,negFT13546,negFT13462,negFT14629,negFT14527,negFT14406,negFT14410,negFT15038,negFT15739,negFT15628,negFT15512,negFT15440,negFT15441,negFT16244,negFT16170,negFT16100,negFT16819,negFT16717,negFT16623,negFT16625,negFT17228,negFT17982,negFT17983,negFT17882,negFT17779,negFT17682,negFT17603,negFT17521,negFT17444,negFT18954,negFT18886,negFT18738,negFT18739,negFT18740,negFT18658,negFT18561,negFT20153,negFT20080,negFT20014,negFT21253,negFT21177,negFT21653,negFT22111,negFT22047,negFT21912,negFT19499,negFT19575,negFT19754,negFT06275,negFT06308,negFT07340,negFT11069,negFT12045,negFT11968,negFT12694,negFT12617,negFT12930,negFT12837,negFT13638,negFT14327,negFT14252,negFT13896,negFT14734,negFT15306,negFT15223,negFT15036,negFT16315,negFT16241,negFT15932,negFT16168,negFT13336,negFT15166,negFT16269,negFT16197,negFT17263,negFT10483,negFT10999,negFT11463,negFT12048,negFT11972,negFT12539,negFT12449,negFT12273,negFT13227,negFT13120,negFT13027,negFT12933,negFT13789,negFT13720,negFT13722,negFT14188,negFT14039,negFT14805,negFT14742,negFT14743,negFT14741,negFT15742,negFT15517,negFT14322,negFT14245,negFT15039,negFT14904,negFT15630,negFT15631,negFT15445,negFT12840,negFT13901,negFT14965,negFT14905,negFT16175,negFT16174,negFT16102,negFT16022,negFT17241,negFT17160,negFT17083,negFT17007,negFT16929,negFT05262,negFT05841,negFT06826,negFT12932,negFT14038,negFT13960,negFT14960,negFT15369,negFT16320,negFT16019,negFT16528,negFT16462,negFT17377,negFT17309,negFT17157,negFT17079,negFT18153,negFT19110,negFT19023,negFT18812,negFT19658,negFT13023,negFT13024,negFT14037,negFT14525,negFT14900,negFT11609,negFT13641,negFT13646,negFT13642,negFT15515,negFT13467,negFT14737,negFT15516,negFT15444,negFT13966,negFT16721,negFT17313,negFT17161,negFT18395,negFT12935,negFT14041,negFT15137,negFT15042,negFT14966,negFT15518,negFT16247,negFT17381,negFT17082,negFT17008,negFT18309,negFT18231,negFT18157,negFT18071,negFT17810,negFT18982,negFT18910,negFT18845,negFT19959,negFT18073,negFT18671,negFT18741,negFT19102,negFT19203,negFT19278,negFT19664,negFT19757,negFT19762,negFT19851,negFT20221,negFT20289,negFT20803,negFT00874,negFT01243,negFT01222,negFT01515,negFT01490,negFT01655,negFT01625,negFT01599,negFT01920,negFT01882,negFT02294,negFT02166,negFT02136,negFT02077,negFT02016,negFT01981,negFT02481,negFT03062,negFT03015,negFT02980,negFT02874,negFT02842,negFT02798,negFT02757,negFT02685,negFT03483,negFT03357,negFT03333,negFT03309,negFT04068
170426_BM_pos_1-30_MS1_HA_259.mzXML,-0.3218584516004359,-0.18667006757092963,-0.8315457422310306,-0.48131219459388497,-0.31781738853445063,-0.2737853506623473,-0.6574524673645818,-0.5746927518804004,-0.4812735407055797,-1.2389300465208972,-0.29581509403564255,-0.05215345882657729,0.1800610702400185,0.18564121751607132,0.29113634270148125,0.011173355964309906,0.06069408449213043,0.055706183585376934,0.25775355055664306,0.13377947757806652,-0.40305536458246927,-0.08467218523061604,-0.3861285487008246,-0.2007378046402799,-0.5526441766748249,-0.07320705172669051,0.25055246612103943,0.2727164437957299,0.30907142113183994,0.8272778407269499,-0.08847655722614611,0.20209629009256247,0.02442219419420333,0.49072559582214303,0.10880287202840222,0.30268495975083454,0.3861421628086319,0.2897939317269831,-0.11645126086191482,0.09479085759914518,0.346510617913383,-0.03260081832766204,-0.20461595578863268,0.13075510319202976,0.12893343440781457,-0.013515505610573797,0.3743902710945708,-0.2840646194741776,-0.14848137538091066,0.34393795496183976,0.0383295162515207,-0.04515255283270747,0.1392126356302228,0.19928018625360977,0.19126980917999958,0.22323776624113734,-0.4580948378891634,0.1400632593044282,-0.11033267461648677,0.6046278369516731,-0.009051769033444401,-0.0886398083129567,0.2756360851722768,-0.04428964838729499,-0.30292553974737224,0.27563166463795774,-0.016320881301160384,-0.49682151463000856,0.3640359996761724,-0.1970014357252836,-1.6111502821530639,-0.6576559784198004,-0.29412491277153663,-0.6186573784202434,0.3055129007254678,-0.010273131170210448,0.5477155204935631,0.3555837431899729,-0.019210579534171046,0.0006273562413880995,0.2784396033833314,-0.8708493416743615,1.6937016064902224,-0.6130833375762776,-0.4982070040458506,-0.1483752235066973,-0.3658473285323822,-1.7149374432652298,-0.3279240043641316,-0.7459472062294275,-0.6064351093106826,0.23646855538217793,0.12302208684922356,-0.12587776886505964,0.09049883829846728,0.1541789739828907,0.011183777230883152,-0.3719074137990859,-0.13699273489223174,-0.013770000838739804,-0.10998912672256544,-0.12379899704725261,-0.22835045831165246,-0.35629839486300874,0.19000486487332147,0.12782865795525744,-0.325712104628602,-0.13037902190678174,0.09359033338519396,0.11563684114652695,-0.14706918410669267,0.12301312006530196,0.4605201231095215,0.5447731787096295,0.3781662553636185,0.3160115397551042,0.15327735425129418,0.28889677792700397,0.3592561275733548,0.15704983644904935,0.1875328245015897,-0.07086084923907876,0.1979167834639206,0.23959311090462165,0.3939772184487822,0.05070514837632345,0.13996788288294226,0.7015516763319738,0.4219955932420518,0.5385044894551179,0.46855676190842743,0.5405295434843644,0.629649698591745,0.2666496024902436,0.2995343858850852,0.31364870831671254,0.17122939388157832,-0.19792351468188585,0.049261960474822786,0.04743692230745289,0.0710282067667869,0.28707719173219814,0.1547468344002887,0.3561217123705305,0.31204548668236853,0.3275766905951496,0.1365681808748782,0.20614723794395573,-0.12355355408287494,0.14602474691054823,0.4053806790681769,-0.08123992397366209,0.3137455093634358,0.27556775691703095,-0.11630942746925044,0.3318942560788898,0.1935702296886852,0.5324853205683979,0.24214700683324075,0.40816977196641346,0.5282512701470665,0.42857474097978,0.5804806104612616,0.3040026567941361,0.3461986989409951,0.06605002010220495,0.2586039708414738,0.7785599190145192,0.28795201269696946,0.25462226480846084,0.3572542361494193,0.6134338469260001,0.19950997125156533,0.09813619106022031,0.3319078874150314,0.20687141425727873,0.10516462984755393,0.21519433282206535,0.2857047778811115,-0.23768391271789469,0.11578837201036052,0.1513974118890964,-0.058223605921035926,0.10975919415539437,0.3737926263246898,0.6070703375417494,0.2482081017383031,0.22576613303618487,-0.008897642760205215,0.3285138068278073,0.18486013312778482,0.25440612285886743,0.2500616934327944,0.03523106843549684,0.17257994489303208,-0.03106039446843667,-0.0004485444696875618,0.16197345480223824,-0.2681293298782368,-0.0019829234192414447,0.09812854812360783,-0.12593252799537247,0.019039603946669814,-0.02332934876781856,-0.03004192214259227,0.06316931647861779,-0.4232339077578917,0.09340261671573025,0.3978251590625348,0.15604535999678149,0.09929709327374425,0.14580345148071672,0.6031280710879585,0.2821926658424374,0.2818552149624516,0.07326306942907834,0.4844215940480723,0.2174680582288211,0.24665882469065714,0.14494463849914396,0.4640622842957871,0.3204451897604983,0.19726229500574277,0.6538841556186661,0.5187580411553228,0.47395315462766874,0.5865856103223202,0.21799224612275125,0.18493372431445998,0.3941778119584569,0.08676719388984111,-0.05034575158887833,0.03698007286984151,0.30809073588298475,0.3005802246528191,0.19307599987983615,0.21102399549837791,0.065748487162816,0.31505459148630344,0.3012226843090069,0.0475459921089012,-0.2647725805431449,-0.07050536789835782,0.16038499724720268,0.0524239877871544,0.0383446097510074,0.0030182331586718902,0.1493833700830649,0.3390944819634605,0.3726186248696486,0.20764544983996203,0.029829163081522836,-0.02862259074455764,0.26903288985593754,0.4307387428884457,0.16645374234492571,-0.022456525796890503,0.20625675294114743,0.39896217690014346,-0.03049413460730399,1.0280422329142418,0.2600745513408391,0.045581583877611465,0.08124819769935954,-0.1294876082819858,0.15952254990163794,-0.08173212786697448,-0.11167783221927685,0.22222598500500368,-0.026745709610139556,0.29434978609175744,-0.14988544915390278,0.027465809938908237,0.061500503365126136,0.3031006502085667,-0.04761404755344323,-1.7049430746269412,0.46205063354595133,0.6281619531309239,0.9704836064819435,0.48157435508696267,0.5976985454561436,0.39926452753364217,0.4299174446153735,0.3087112111440291,0.2508883541763769,0.18375340292186415,0.27797744353421905,0.2230752838729373,0.6367492742022414,0.15951501127411127,0.39878498586640987,0.29177278146778285,0.26705497116914323,0.2427892789083934,0.02681611549821561,0.18603882403248306,0.07986695732263627,0.1858064008097351,0.21538911061290378,0.029632993837470423,0.44837769721377896,0.22853927598088575,0.8661301356241378,0.3254035494961194,0.29015170131779655,-0.03873273031870994,0.434735241614721,0.28291078929190405,0.1953139444816614,0.3949126680641335,0.3294034303783082,0.36368513986302453,0.943351686133969,0.7481644754146615,0.05633668986613216,0.5803971529479277,0.13035834570950655,0.3258620499303255,0.6385578574934598,0.023032571666281143,0.3847343933030878,0.9025132931938504,-0.3026520261571175,0.13025533739977035,0.07003281210795365,0.062308940926707024,0.2249203403207254,-0.18741979989325053,-0.012731339895497129,0.08068387709590041,0.20910275447874227,0.5071223078179372,-0.024533792650643704,0.007099085801513638,0.3042748152149848,-0.16746743766594108,0.13602176537794541,1.278649536695072,-0.013476545302317788,-0.38489447697756773,0.07561448334134191,0.34552963922050495,0.26869878518596124,-1.2598866225701713,0.9794876948792322,0.2605586083254181,-0.031032086389055635,0.6932541998410322,0.05584283431282522,-0.29006667366126493,-0.10569573552335498,-0.3144982522860058,-0.03005093498725131,-0.1449131958270904,-0.034763610460192496,-0.32503589559432733,-0.13580259717349996,-0.13346025913840798,0.19966780727914646,-0.34444787054205506,-0.31423760231785636,-0.35194192703280436,0.07027738135903405,-0.24805695131697192,-0.31351709349697643,0.5942442046831271,-0.7335410013175725,-0.5349960955405564,-0.14408479045281375,0.10796749906415926,-0.19323991221240533,0.0798253291387141,-1.4556713944159334,-0.08595530375287908,-0.4156110525973471,-0.6894547493937857,-0.30889451480283014,0.3242241222903406
170426_BM_pos_1-30_MS2_HA_502.mzXML,-0.2690510774875232,-0.3248464486312752,-0.691366948246527,-0.3096550276674126,-0.2636932832536196,-0.4675482753234448,-0.870316805444709,-0.5578540123290239,-1.0595510372174246,-1.1125759611247226,-0.16218567042896126,-0.3716663956809825,0.009280256749576665,-0.519389514976428,0.3266607286721346,-0.2587292208756793,-0.205084304850768,0.10080545087240189,0.08953410167870857,0.11171311541054507,-0.4041125537207879,-0.2258654775113378,-0.3032368873814022,-0.38477565356808086,-0.3129325901661524,0.0369225257877801,-0.5164383593033648,0.18101539547673084,-0.22810804905768478,0.038523361671302325,-0.05614179474363645,-0.37603108824164977,-0.06559375474244256,-0.4177704858760283,-0.02780128056150133,-0.33477272837074423,0.07547997923122907,-0.03735163285731247,-0.7455956695701893,-0.03672326842057494,-0.4162468961989969,0.011376420923504327,-0.4451588234802948,-0.28621202369533094,0.20678666991482864,-0.8009827316522795,-0.4103039372656685,-0.5188569666663003,-0.41734692126298256,0.22791403319626546,0.20171907352663432,-0.18100764234506528,-0.36266194568452903,-0.4220244747686088,0.10225597478032,-0.0820720470140266,-0.7603788301922236,-0.019550866116263776,-0.14985591148116661,-0.2543733073609289,-0.7037085926384243,-0.7551259908891996,-0.4109790228364787,-0.11344637076917508,-0.5812721906299974,0.006793848371708933,-0.39139828321740566,-1.036093361947625,-0.5961446624985527,0.19365025871945285,-0.4598785645525538,-0.7823522181078424,-0.49234746574516564,0.4065154980736896,-0.2756596167253029,-0.06975960885230315,0.5703499818525568,-0.46652799576534143,0.16295007804402672,0.5932721218117933,-0.38263640455689973,-0.0451210294879143,0.9079693831842768,0.038768772630994874,-0.19275892398850125,-0.26676438898871524,0.39117823196783164,-0.9910052866455299,-0.22940826067067732,-0.3358061115675355,0.05144673901308394,-0.38677820070322966,0.06157617503608925,0.13672375547030668,0.08372614328065531,-0.018459598133876653,-0.06977360975474411,0.22554636224343838,-0.030657750818480878,0.06021126836015256,-0.043767807901188505,-0.06466884199647538,-0.40788941017147806,-0.15240151518989187,-0.30957064523044586,0.015587981030067866,-0.08524332916823418,0.00041887652912997453,-0.4990095090124065,-0.02439135960680794,-0.26561702687524935,0.05084862922820932,0.12769110337951872,0.12337633637751111,0.5351593212445938,0.6558145758414025,-0.06969170271555214,-0.21713453892015266,0.05408411274822278,0.05128742512467177,0.27317360463260876,0.5554656530382562,0.06594764824026456,0.1518553542790393,0.14850649288723616,0.060271788570595675,0.17881126271861802,0.3897204893459758,0.18606824072957195,0.28814706807644797,0.5652764881508965,0.6343062430116362,-0.1620447170554158,0.40374151555940685,0.1778670611966895,0.23629904179494687,0.09699848813695056,-0.1809262094340056,-0.10383470694725361,-0.3758434013788108,-0.5489252415925048,0.4273130371140894,-0.053095240719919445,0.500591445651807,0.3084465164269048,0.3287104832700738,-0.01532200184032817,0.10927068262563466,0.07521044024526091,-0.06213594724326299,0.1662421838919279,0.7499882224186614,0.07059663269371441,0.13584357476955589,0.11670995794376182,0.33046424120336937,0.22634339883656907,0.25547127366212763,-0.7643564748530505,0.010541389094601783,0.07791793271334058,0.1452817949465306,0.13043935942206986,0.06616463784115822,0.22962824373649582,-0.20410359238348086,0.10053314854224382,0.2034593082616496,0.07780100644672316,0.11961400900822383,0.27174456867863483,0.49133276327590636,0.08449962565815028,0.027773756783361137,0.15100468891147045,0.047677287309433325,-0.01123084113124051,-0.025570940290997157,-0.01808731570040578,-0.24182624551534104,0.08688145231149846,0.1282365589671599,-0.11191615686380274,-0.08022242119224643,-0.4722218447153317,0.4733046760435897,0.313556944104171,0.3638210428266575,0.14145736875375725,0.15267658396310324,0.2792544659021061,-0.2150567848649345,-0.02317183248369048,0.06666034445363067,0.36524970980771165,-0.03555348031899541,0.152057332536927,0.08949515152617771,0.09208391232057345,0.11184647944883608,0.16497882426484978,0.12900491817903337,0.4163134099613224,-0.04192558465672214,0.059115868625438495,0.08021868045743474,0.03231468483630273,0.3853062757849486,0.3733109561101884,0.016766801855343516,0.14771771636196362,0.15018474844717744,0.7126397906943609,0.3266140926174934,0.22107573715105744,0.17555733247584726,0.6129343692996905,0.2588097042415356,0.08812294732560311,0.08927107442325166,0.5552506329178275,0.3124278340386617,0.25693113775638565,0.39716027858353087,0.5044817898481249,0.21283408623732214,0.6704743685455625,0.3024594450898874,0.26882118243142195,0.29418982976383035,0.24814334809980565,0.02170218763542664,0.2838941073596999,0.03928224702339023,0.21400830111277713,0.09023767495226487,0.14218701801134337,0.030843994108805006,0.20989148859557183,0.18929669558156093,0.042168833593873245,0.5004582559549711,0.06537846431691285,0.10864758571806732,0.00433311437577899,-0.013027268402865388,0.1350214614157519,0.1033590321726976,0.10885099560812606,0.31963436237886356,0.07671535993576484,0.20950193525225203,0.3376056346668257,0.1233482114748714,-0.017072171367273015,0.0347626895285007,0.22927973247344724,0.3650318801811707,0.5132533307564184,0.11325333344660571,0.962766032777921,0.09542889786431275,0.17999924480783314,0.5056442859860439,-0.24839927897827607,0.09112778211902395,-0.25554739524970316,0.42223673083307567,-0.01577510421368089,-0.2322233556323532,-0.018444725405796447,-0.03405930172433003,0.15928588945406652,-0.371637078915958,0.13209230967317254,-0.10959448765648538,-2.6841823697584335,0.26515092969821374,0.2189645203268924,0.05885828092321965,0.061898296391316165,0.2298800902019842,0.12357168008094277,0.3639054549664955,0.07160881231174443,0.3594934613352212,0.15781982823392404,0.20130513534751415,0.06424417315507824,0.6509727582559925,-0.10733365117736504,0.2343250107287247,0.11569421423467752,0.47836670097991707,0.12770329170907857,0.051468136891960725,0.010853117446831817,-0.10059665871909473,0.20874950166120954,0.34841977428231274,0.15489350285421466,0.6091526722556253,0.41748617465671956,0.24359939481535697,-0.15586600241510595,-1.0907574033676788,-0.3032894405101523,0.6439065612503541,-0.06114354348398621,0.0022840116889284445,0.15424762589661967,0.5223427459388983,0.15769214869169623,0.45749364608795773,0.618345656924685,-0.024932777759488545,0.9443214332135774,-0.03974588807219703,-0.14802168813498895,0.10597975485673317,-0.15178495479925047,-0.10678778493866758,0.5604584976633102,-0.028231964088005768,0.05636387760962691,-0.03725866245899567,0.07317996432265694,-0.16418181425756373,0.004661423003431864,-0.02087815273633531,-0.0006623380467551954,0.0716593082880621,-0.07209782522432562,-0.0006356951102794994,0.31136374574230885,0.10561412307887608,-0.8278548760737827,-0.04006242918695868,0.935436159484814,0.32496088270109524,-0.5573201107655983,0.001497000445654706,0.5673914630782839,0.7748770108475433,-1.5045348591457426,0.7485872688461086,0.33816636182736204,0.2157261453771273,0.8627702683022171,0.2958350360126385,0.028197737937865952,0.044319677092339305,0.221193301321426,-0.042489981718496495,-0.10076729529091466,-0.021695569402371717,0.2551589070945841,-0.46672614820899305,-0.4262635150988725,-0.052528279790164945,-0.24632592596571357,-0.22666772920607414,-0.5720573399846636,-0.17471048893026975,-0.2345127476148825,0.6634343505451259,-0.041548428778552804,0.8155396563917279,-0.4874595426027373,-0.5732137953097567,-0.1767877814687111,0.20161375373531598,0.26055309505707314,0.04821131554554903,-0.15977483712340046,-0.7678759286182686,-0.6316430717771908,-0.27729797514484034,-0.04969642708809907
170426_BM_pos_1-30_MS3_HA_16.mzXML,-1.1559697358914516,-1.6594372918403142,-1.220120915395798,-1.5354954743356384,-1.0005761336804468,-1.353223623905734,-1.4361054883510214,-2.2451293972634243,-1.3566595321439578,-1.5649270973318608,-0.13003169740730058,0.04153531349310313,-0.09770254459467509,0.3620204980395947,-0.7694350677999111,-1.5868635627844583,-1.1888124272752627,-0.8957840774870913,-1.1333328939788565,-1.2159910924226907,-2.118999709151618,-0.09036441365393344,0.14553057002547476,0.06290041473121022,0.46593227529549,-0.08479406171386117,0.34307568790230647,0.19607677929100475,0.5750244208575559,1.0947608026745534,-0.802165156819294,0.2437712497755662,-0.7750073004153624,-0.48903363095481645,-0.7927463269322637,-0.19893049118592643,-0.588850481637536,-0.4662913433162039,-0.4267409622371048,-0.2400452663888739,0.38984938940664016,-0.4797938739046437,-1.6816551423880064,-0.5041390783748092,-0.5173176493790557,-0.3081505096035322,-1.017818542656423,-0.4191451412244884,-1.623636275551057,-1.088610855285852,-1.0768727025718032,-0.892036509373952,-0.9923327115308567,-1.2310033392384412,-0.87183539992456,-0.9824603380498296,-1.4506235901388038,0.04196434257375081,-0.3197736846618646,-0.22272223668603885,-0.3709724476857872,-0.19553504549352674,0.38957303510765584,-0.13292649562275116,0.14592894422710678,0.0888282192597476,-0.3579809419279538,-0.921894456394659,-1.143265031267907,-1.206317562492016,-1.4908178173704183,-1.0799002078591222,-1.0949901465943963,-1.199313089461457,-0.3430349677112119,-0.6384691935089233,-0.7598456061061345,-1.0327179871142196,-1.00411554331653,-1.0952748724271437,-1.5076420738979959,0.05601705479783625,1.8621434339308323,-0.2242979535946823,-0.3273931344321621,-0.8284307363063412,0.06447491016500706,-0.35030603951602046,-0.45091114987449643,-1.0850128592878168,-0.4572271758678017,0.1739520041692657,0.123872188765068,-0.24193822209682736,-0.16543142651113207,0.07858617749422336,-0.3168453878783666,-0.1151690037754527,-0.36269378664015406,-0.12274618689585637,-0.2812030930767211,-0.4015410787589282,-0.5015784047053664,-0.2347283379682441,-0.30286827638026104,-0.42579113337194663,-0.29893516515871177,-0.1485181280380541,-0.3983909649556061,-0.5560126042907552,-0.23346443693008645,-0.5216101425046524,0.09085845666694325,-0.33712099679212315,0.4428661750953484,0.296276733686172,-0.06188621153155438,-0.023431560001085927,0.0682160255072386,0.1140684488745034,0.2521130436184382,1.0935113792654203,0.008482287630876328,-0.18750436056554065,-0.21003214560479933,-0.5699762258422076,-0.37499614533359704,0.40545540212094267,-0.1915335402629168,0.18586698824577752,0.35988353279844176,0.5964054789943631,-0.9043994297144202,0.06608925209627259,0.03830236372289697,0.09184237280921792,-0.07744443003638324,-0.8944491568055497,-0.3057643109002086,-0.5483900016110628,-1.0072987167821221,0.2556146710997993,-0.6182633501970116,0.07672845847686105,0.47123434226180194,0.4633753962052314,-1.1688571628826523,-0.7214486490613297,-0.30197929603087914,-0.6826131922940135,0.14312463921330476,-0.8926646913407943,-0.13240838853638692,-0.3976551920484823,-0.40635975041628924,0.5350777268634239,-0.5205671653535298,0.24090007713238748,-0.6355017191131562,-0.12313815154610452,0.19547507795393315,-0.14713031511698205,0.27318581681509,-0.21381195600472935,0.06891008502840279,-0.6845567945867241,-0.28449402706682037,0.5948763361385829,-0.2267859627663178,-0.1170639657535304,0.1289133748894571,0.48411841365037844,-0.2209808083646152,-0.7647096367362956,-0.31504179354969253,-0.27824214276600046,-0.5339634801473423,-0.1337627632639169,-0.30889496076270007,-0.8686316980200175,-0.26464959108611197,-0.7019598709998078,-0.6371772994408644,-0.16092865919445032,-0.21110117096542425,0.2852116572306329,0.11768999736347752,0.24984406403476456,-0.5678245430501985,-0.08791287578086937,0.0681717250165832,-0.26212550187170436,-0.3382062579657834,-0.16257215220308652,0.29079051844136394,-1.2563537813291248,-1.1229549200638012,-0.29175375692877203,-1.1527105424931126,-1.2082434145102887,-0.9880280775078134,-0.975713099061517,-0.5057322144397318,-1.0407601352197364,0.0016138845422073445,0.025862287209985624,-0.3781232303480362,-2.1957547881820414,-1.684781245102318,-1.2445343786224754,-0.12117151929661318,-0.18334715330217222,0.13490103673655796,-0.12321623253449943,-0.7655727626556867,0.08032707536517592,0.5386844148445249,-0.03329021102594609,-0.550783430397642,-0.779896655414575,0.4863808104419487,-0.045025941069990694,-0.768984549757139,0.252609867271925,0.21728404132094425,0.4772310528079373,0.4208339371457299,0.25116044170678364,-0.10615381686955239,-0.553642249303028,0.2119176849815787,-0.026287240838499315,0.36766507611025645,0.08928566707512431,-1.2168814824812095,-1.420198339147861,-1.1024719370071256,-0.9459008341925337,-1.2050126600350222,-1.1767583989465251,-0.8854658874330106,-0.42512061177901117,-1.0993109504666183,-1.332758585258933,-1.5002667183697493,-0.17047043169866782,-0.8481020350858568,-1.1802603944767824,-0.8057285307897857,-1.3741722173019788,-0.4700036898826525,-1.2958162568171296,-1.2350356246830394,-1.0150049112303474,-1.0376110302540713,-0.6195622715721161,-1.5914636293411561,-0.27845231927421565,0.11860687751541299,-0.9538592662142502,0.47202476500564927,-1.0951261088186115,-0.39071395752105254,-1.0019692562687457,-0.5894209559594241,-1.2430249348539348,-1.176144202206899,-0.6210324022057154,-1.1822522902832127,-0.8644981910541318,-1.305645624525262,-0.6561460740930407,-1.3900821090617832,-0.6492295095494125,0.05300540053441338,-1.3360088143517164,-2.1917616081813573,1.1172748117204723,0.5540782931011385,-3.1839476407182783,0.20823520663246953,0.4771889983699147,-0.2725263328799663,-0.1990950494274344,-0.17151023155919276,0.6629061286149476,0.26492790567359314,0.05316431668248356,-0.08551539358079197,-0.08336944732026197,-0.8713240181987931,0.00912766269481935,-0.48294775998616934,0.22916083573897872,-0.38202817209810647,-0.7923960984960008,-0.5208210885483311,-0.3381510872914504,0.18589118042718766,-0.03828917385311925,-0.3091510234623698,0.2945324510524543,0.29055224488378073,0.4175184958967524,-0.6394206749367086,-1.428645110571786,-0.5641206424554035,0.4659963536294569,0.00759531709832828,0.08449404785660519,-0.05680008165813888,0.29708439423498056,-1.1302269775944236,-0.9490845244420196,-0.8465454234793626,-0.15614137977046383,-0.8581742851185368,-0.23019361673199512,0.23621223518817658,0.9392373131213922,-0.7222537435915193,-0.6129080973738468,-0.2644932662523356,-0.7841150134388979,-0.5766950560906317,-0.6268312146642181,-0.14761578990224145,-0.01187830947027635,-0.7208069599523377,-0.7985529679663887,-0.8750570800986956,-0.2363337313606202,-0.7265927941334347,-0.47547946691571497,0.14983467793341632,-0.6010820159845274,-2.156155345832108,-1.267181719370802,-0.2716381777718251,-1.4084467470765603,-1.4447280522897934,-1.7870412294256166,-0.6589593429881511,-0.5993349555671053,-1.0999449172414444,-0.2459574340498314,-0.6743245148463828,-1.0518473704513323,-0.13994799723677076,-0.09392692990179974,-0.16125051561956738,0.09663942335249587,0.14962014727637118,0.26258183077257513,-0.12936972955894888,0.41888614617024444,0.8478986777870663,-0.5370470653716826,-0.4723732068833666,-0.21918141553056536,-0.4905109475828944,-0.37072394600878766,-0.4331458884817181,0.03491064369794117,-0.41808272175291705,-0.30973787694667365,-0.0764935998183045,0.6166540819040449,-0.8887020081696715,-0.9231159832690903,-0.09628944372640547,0.22610457341289347,0.3344368099930435,-0.7849046157148365,-0.8868968636416348,-0.8426758333501123,-0.7425994989266513,-0.14709402934560245,-1.3073620819683764
170426_BM_pos_1-30_MS4_HA_556.mzXML,0.16332599235846068,0.4328671194692024,0.5551813838188178,0.31115129610527426,-0.06450669522104135,0.25872343469483283,0.45830520314014933,0.47494165177479175,0.4994301917900863,0.20437996503960854,0.9618748223724154,0.07251558666449043,0.7632467194528729,0.14507610790530023,-0.686877320230483,0.9082129611499568,1.0518216897792634,0.5376231091879529,0.8338251965817882,0.6662766421582091,1.3498114054673582,0.1231681464536365,0.5113232893252295,0.5723633107887132,0.029123786435338417,0.5716051774131188,-0.8219632028237527,0.0404291989281127,-0.546835319768892,-1.0315195995625928,0.2459919354726896,-0.741996855875378,0.1299676444374871,-0.2777790316485049,0.013469201503536254,-0.5264780621807361,0.09472892013851819,0.12740676541260854,0.40008594882382553,0.8143840924689858,-0.4508250292483762,-0.42723952633173923,1.0142893115955687,-0.023997488089660735,-0.4779187513768779,0.0026706975775958597,0.7117083938582649,0.7423059363048967,0.9334368665441843,-0.6097180670544606,1.1646040654171568,0.8368060677147326,0.1016243574692659,0.0008431268837512107,0.3940262689146259,0.6198444828276948,-1.576268344076201,0.1306370772069112,0.32280574009268825,-0.43484492131624286,0.4686650596761268,-0.2677317887680015,-0.48543398895625955,-0.44706335819033427,-0.3186109326351847,0.04161322325224326,-0.42173124330447287,-0.7989806629917258,0.048829039400974494,-0.11732479533413809,0.8989270304722687,0.259631903811659,0.03565877922222782,-0.25630508605157765,-0.09945518748811821,0.9799634819737673,0.7442183112431291,0.19203377079423056,0.006334422971914222,-0.5267945225801824,0.08926065056579979,-0.48115666468573615,-1.3120662942394432,0.11229116614006429,0.06938145890435443,3.446605622491248,1.7390746385534328,3.9694610984158363,1.995228120106745,3.1142488595018527,1.5244659235932794,0.12875316661819625,-0.58340115465416,0.06328115196144068,0.34278845605501296,0.3290032066229962,0.4511910891061355,0.3267859834824449,0.5749578833560314,0.7717745364790396,0.7002228760626164,0.7744646005394991,0.749638318747273,0.9076379267431154,1.0962887642123196,0.708827581017589,1.3432223121679367,1.7739339043969071,0.8644864901269749,0.8940304876437875,0.49842281751102213,-0.056076786573211024,-0.061939355852867806,0.33420293350383545,0.298852207556239,-0.5335711261774794,0.15179840350051066,0.1821120353440051,0.3492230192814052,-0.004676874847843848,-0.2792069776289683,-0.1511736475473313,0.3678189887584722,-0.14691399203312017,-0.28244948346167575,-0.1780282611407742,-0.2121496637563851,0.09415400796398288,0.19099891274920822,0.3297985546019859,0.027034485439443756,0.2531034860288415,0.09926117717921201,-0.08701234754336085,0.944706789271585,0.24769822238964778,0.19468385668810484,0.5623490151398585,0.5351240683268585,0.6058184363677785,0.6650873772027008,0.04609133857917769,0.7378713561239074,0.3065679772340246,0.2727220629108622,0.16141348237928277,0.37766483018890895,-0.1237219686953992,0.3015536941235162,0.5496860399956596,-0.035574855656268056,0.16992139602763245,-0.0016912878508499318,0.7299517836544211,-0.1388217761840167,0.3279076211850587,0.10638788851398218,-0.07567885903491245,-0.02014410991197657,-0.11274249744383269,-0.16724321842765733,0.03024233031932866,0.02125387622406194,0.05290592711419251,0.01441242963869982,-0.46524149970198003,-0.18821748064781474,-0.09705621419708166,0.02633550273828078,-0.20419038664807942,-0.18116859322745782,0.09620677107898246,-0.17502945340096687,-0.07410417618667964,-0.07514259525061107,-0.057603438471936386,-0.034530373195181596,0.38044334802312463,-0.06480630007897759,-0.016605547141477217,-0.6225840028287486,-0.018496183130970678,-0.13004470971378979,-0.04166279007209894,0.5135730528614069,0.08063346048877662,-0.21325491926076268,-0.17646991545452906,-0.09610684533447333,0.1702994609778692,-0.4865716096185757,0.3036901860293675,0.15892532499952594,-0.1842811408961147,-0.0637210407690123,0.9512417773881019,0.7431468252742945,0.7543554105014909,1.3230369876840289,1.1041719809720298,1.1482175414062148,1.1161880126812758,1.1879893152553294,1.5018044707228189,0.3200493425216333,0.27386294393801336,-0.5651661454907728,1.2595594621615014,0.9598343264437652,1.694503075048626,-0.06794559106670306,0.0666565012671434,0.059664990039777877,-0.24855057418373505,0.11152154492435429,0.37560500968118404,-0.20820782139891847,0.17926563138422935,-1.0304281091833811,-0.30800533484205417,0.11108164217008998,0.12589135334270196,0.14329449188286958,0.22328919016075588,-0.05858477249721972,0.9085129366506948,0.02836438322604451,0.2073073867386448,-0.5346908024247714,0.6291625590544143,0.6957754849527014,0.5643379120261116,0.3562051040652747,0.36714152140370615,0.5771915568267545,0.47752916146948543,0.30072623545800603,-0.11290246260754877,0.2525874375041237,0.28026541180512865,0.6432795098132047,0.4380655031558973,-0.7456622584529224,0.1816142771826641,0.8754840874204959,-0.08594683040365325,-0.7413487984237523,-0.22670062333228458,-0.30889928805465416,0.013304203167479045,0.009523108360660615,-0.20089593915831117,0.1738647522880079,0.15254912678041244,-0.19923120111023174,0.3305492072672873,1.4332116320348796,0.0036868044701137137,0.014996007276087298,0.2630587999343543,0.3873323302067604,0.7168186729818089,0.32805290351524796,0.36216454361221295,0.5074371254774377,0.4947137747995072,0.3689074127253029,-0.2583523564422787,0.028688867962770814,-0.02651494679048838,0.25599656580191876,0.4288111836022104,0.24919458538312078,0.1352305353158325,-0.021560651362882766,0.3196664729804919,-0.05588428259438416,0.3271817582918555,-0.017273570117222192,1.808312116963295,-0.40039629788749664,-0.27175034620931626,-0.10132672019499367,-0.14204885919722798,0.1613791907154294,-0.38440545927268666,0.0295428878532622,0.006781098455149959,0.4124131265262534,-0.8410803946477472,-0.0038590182107380855,0.07761433440439802,0.25402757434126677,-0.6877855767888885,-0.0011994905729082461,0.12383967341280844,-0.005543046337614044,0.3398538278285379,0.18805572457891273,0.06470079388833483,0.1745208640397813,-0.25929418018039385,-0.003705804750794073,0.01152980254743774,0.6179306843860921,0.6070346914308686,0.8298071213123777,0.04250595649105193,0.23447182292364843,-0.04265973355942165,0.006263659570773683,0.0600117500435875,0.4344083094349269,1.255801842573888,1.0115561835246183,0.33650618508971775,1.0956727158067494,0.22563054641848623,0.1870801102091484,-0.18964125620415473,-0.08152596134319268,-0.48025586387635144,0.5553623977313666,-0.2542854947907802,0.479831785034996,0.37076620248560843,0.155107931482247,0.545522174274609,1.128123634377113,-0.1487018479817639,0.0021039466097079185,0.15147948158353586,-0.23584767284547326,0.05229066186727138,-0.017310323193012067,-0.05621144341029094,-0.19998473507181203,0.397853027552868,0.25441973745995305,0.5512218923147927,0.28776710336436295,-0.7066988972396349,0.4339752398167178,0.006556771395960226,-0.6716725074385224,0.2916713614328721,0.9004352707799974,-0.7189656369503421,0.2149069467784841,0.599417779249281,-0.14934338074731812,0.04793330845463828,0.01330435871661173,-0.2976749555071798,0.08443023173920494,-0.3758004634330554,0.343260708085241,0.17692036827248536,-0.3166307391435108,0.309923315230181,-0.15748974841981678,-0.12005512331190005,0.2181914795817157,0.3679785502198385,0.9610342062323198,1.1081420434597415,0.5722022218345213,-0.11870915561498308,0.5487761797006865,0.537205381771992,0.3617466926275945,0.389370326350825,-0.12101689576708097,-2.072700248591275,0.4328712362823772,0.8751400263614268,0.7032139537682589,-0.013924964787527472,1.0883525973626558
170426_BM_pos_1-30_MS5_HA_98.mzXML,-1.429401900641567,-1.0373565042197601,-1.5725879729840653,-0.7743263140033374,-1.0812569586096537,-1.344703783731326,-1.6088341985707082,-1.989633470184124,-1.5622799264220504,-1.552815411073741,-0.04599309974722843,-0.36034947648553484,-0.66458036775688,-0.25859267625161664,-1.5336018740490047,-1.8890125814732848,-1.946109056561081,-2.0450243459990194,-1.5991723550919126,-1.9910014522283674,-2.1076922071277853,-0.27447562260201863,0.24413525466903252,0.112489378105888,0.6789545208762888,-0.585813010389959,0.06437069648073646,-0.4948877129636422,-0.08991653135905509,0.34971805305579906,-1.3413794761560087,0.42563005193571257,-1.2712588526795745,-0.9101472152271288,-1.3365219160446955,-0.11461485756449719,-1.4328420650227578,-1.1326966523523367,-0.5693546563148963,-0.5243453196731078,0.12957055226954317,-0.5920443899763512,-1.185557296104367,0.5615478917328964,-1.5065726785383422,-0.2942243332404004,-1.6483584416766863,-0.22515783382716315,-0.8375905715303844,-1.8629920588352231,-2.281924041827123,-1.857348396411048,-1.534182159837453,-1.5400154068081946,-1.6134372534352543,-1.5679614089932556,-0.4656813337590613,-0.6192266240451669,-0.242917929916862,-0.43825374410555185,-0.592849742513021,-0.6954356078352095,0.014262611176054207,-0.6997429858986344,-0.3991865074785448,-0.5997196496877972,-1.144302445368485,-2.0522077370558947,-1.504195139409692,-2.3677580070312008,-1.7610243206919662,-1.812080334111954,-1.0031685131988333,-4.37555597095328,-1.1446234525123842,-2.621404517498844,-2.0319414756106635,-1.5631789915312861,-1.7554470989671316,-1.1260127107576174,-1.5990513642584663,-0.011139638289703768,1.112220816616425,-0.3662770960419195,-0.08005573073932659,0.13628892073360177,0.4999854114033795,0.2867438757306022,-0.24233743360372273,-0.11361261972118086,-0.4118282794720045,-0.2828077490663432,-0.05686723649824721,-0.11940276861838939,-0.10185982770278734,0.0730795823324435,0.01378972589351335,-0.01635601972882128,-0.4139334394426264,-0.06395376256695684,-0.21444486714350752,-0.28495187772182007,-0.024559262956696415,0.0035633638236038934,-0.5261080929860515,-0.525177281603062,-0.4202885337737019,-0.6312912516126215,0.118278518636874,-0.5546914132870082,-0.3696293807887674,-0.826562655013209,-0.31907382544851615,-0.8155406021080864,-0.1948290439528133,-0.3755106855631194,-0.6561507268056808,-0.5782995737431449,-0.45086637201199586,-0.40710537766445576,-0.19846753864071154,0.6511679785725537,-0.4607509189384267,-0.07024661988886649,-0.28977072188400044,-0.6347895599123028,-0.28813390247263726,0.4762741787031395,-0.13011713339663444,0.02875291174154171,0.285082415452262,0.45682664673004325,-1.0074569889444298,-0.14534712344263312,-0.639255606495496,-0.14343346737758011,-0.5391270007402476,-0.8393964036667434,-0.24033666015981936,-0.5286490975733802,-1.945353836432803,0.11671933156286585,-0.6426290979228817,-0.7013326915460993,0.055189064557794154,-0.24518408478160048,-1.2622365908615194,-1.093364362109508,0.4517456108685032,-0.7593721728190346,0.13898446269848108,-0.8750954389031804,-0.4035127190472032,-1.499509686069814,-1.4884418290668933,0.06646739894548048,-0.7702942631962664,-0.6607819917439848,-0.7226359371833464,-0.6924514091378065,-0.2675793748046651,-1.2521069849028628,0.05898320773265553,-0.7318874071829846,-0.5084480307804178,-1.3155014579179518,-0.9405626437507415,0.33462745765558566,-0.48805586756305885,-0.4051949804305188,-0.2807868593328955,-0.13680896134221143,-0.8176224687425524,-1.4258277297242543,-1.055474367381244,-0.5884937874620064,-0.9289499299845545,-0.5358790660316082,-0.7896935383829238,-0.8690678454633982,-0.6012035695121973,-0.9157469213091005,-1.116742440406906,-0.4929303944431247,-0.6680756965411625,-1.0017169773012462,-0.20638493995351226,-0.339273742948464,-1.1359907335659027,-0.3889866330909193,-0.2847591870926749,-0.8497587738008541,-0.5686757378465437,-0.5694133292928356,-0.27131136675871126,-2.155720136499486,-3.0736801762951487,-0.9747086061707986,-2.1224367654294287,-2.3695875921937315,-2.115304091898956,-1.984398203533848,-1.8254477353394236,-2.2868202379299003,-0.4643329049638236,-0.5719675608251258,-0.9572003045651325,-1.0313630601899426,-1.9746854958214328,-1.1897521278997871,-0.21160556614986703,-0.1942518885422544,0.018226200500645717,-0.2408033072377549,-0.9988671116191448,-0.09197776880141362,0.28778812492257444,0.01371957746484398,-0.7536480382186941,-1.4491694842023648,0.1689690831310653,-0.17392112954140515,-0.9258611882966612,0.22805759746160703,0.29809794872223705,-0.4937692140647947,0.5101998928191804,-0.26942995647052115,-0.031105241875801326,-1.8560856609859542,-0.2000530145530206,-0.2279703579524508,0.06551493141870779,-0.28650601864760006,-1.497525085303831,-1.2568688987017982,-1.0558426056601586,-1.5357208805162,-1.8214852549103586,-1.6203245408879674,-1.0360113239812385,0.5669496025561536,-1.6131693423938156,-1.8214221934902355,-1.4492704965076193,-0.21487620079627945,-1.5001634814224776,-1.9607815205693804,-1.8302557366980423,-2.672396523994884,-0.5251600863237691,-2.744410788384677,-1.8911456684268053,-1.4271053116748842,-2.020207683160139,-1.4225478039314385,-2.071854241776137,-0.4224476437531912,-0.01617986023421203,-1.3034892952731685,0.16265253668562352,-1.810479144931108,-0.641519039249749,-1.531346382983461,-0.3964590231157601,-0.49540473756711023,-1.026923545137798,0.7096317532087273,-1.589537395726321,-1.4092073415014283,-1.809572798860355,-0.4828780929649277,-2.9609902925466454,-1.1761411852375918,0.18309585287823182,-0.8294418021848049,2.0604118316074427,0.3137224571450954,0.39001413080873704,-2.051369567817149,-0.504516084031156,0.10997393641740771,-1.021486553684909,-0.6804091652727955,-0.7634981426691922,0.19495680861806441,-0.33657652098571056,-0.1271925064308057,-0.4297977301007663,-0.8549133717238675,-1.7268516541468184,-0.5596901214880887,-1.042978274770677,-0.14033507960243163,-0.22345592169642003,-1.28642218714897,-0.5980323537364143,-0.7540286152745814,0.08757920591520474,-0.020872739923824213,-0.4311130680418849,0.2729409722974303,-0.17014021129382328,0.30076910539593804,-0.9741976492125843,-2.3370252169135632,-0.6708476879664858,0.20829867489300824,-0.037256833667846934,-0.26554752560807415,-0.30477964613523056,-0.028486076673873484,-1.8410298056178132,-3.0560434029061305,-2.1235312690395958,-0.308350638239137,-1.7257290876339653,-0.9292255356578707,-0.06431513457658866,0.3308590908513942,-1.2304794380343083,-1.325613774177583,-2.6170965181474433,-1.3793143528246876,-2.124692447739424,-0.7395357340408211,-0.49386873844768253,-1.0412088452849986,-2.1578855163368456,-1.0422382213299013,-0.6828803936361432,0.3753258335621368,0.1974168264883609,-0.05707486516763893,0.6464480695782484,0.01090532062465499,-2.435590023486945,-1.7027527619277851,-0.7170708905244165,-1.5023617335182884,-2.085809380178471,-1.7034374897415159,-1.3008085426792917,-0.9622649350483066,-1.7555130866357764,-1.0950591924147162,-1.296966885601865,-1.4734884943959852,-0.9252102842965897,-0.24094995641616812,-0.0885236140506116,-0.6507434537036438,-0.08679715242871744,-2.522611053445459,-0.9729991658854367,-0.48910501706986054,-0.8807382759348759,-0.49481804210127756,-1.3798866123795417,-0.17508927936946073,-1.157448456626934,-0.8401154900509056,-0.9108762344269046,-1.0217236430109864,0.3081060601775505,-3.524245102071842,0.01566986404179893,-0.9502106534524586,-1.458920801465199,-1.8322701992230872,-1.0925634181895454,-0.6486667672757491,-0.33617573104008613,-0.13934907316023093,-1.3474013824294886,-1.402256066140131,-0.7786218963964977,-0.7093769370227463,-2.455448804773008
170426_BM_pos_1-30_MS6_HA_5.mzXML,0.5221940420437914,1.0522963485407484,0.5781751974055087,0.5082142525959714,0.40939866516600887,0.6003685993536756,0.9582397613559444,1.1253283867757773,0.8692053049649857,0.9208150446027048,0.5956963938460724,0.09729182602553976,0.32353338047702707,-0.5943920295587866,0.8186586158917315,1.881279738733891,1.3450565118197453,1.3760885285436597,0.8915968702481862,1.3583343410233937,1.4854725787574825,0.08393476650945075,0.6933151761395422,0.27202269003316815,0.05033946774134179,0.6763198465047076,-0.7519435876173048,0.3551579529898454,-0.6575515737182265,-1.0842667722215822,1.325238193155089,-0.34680897977702685,1.2431036444634334,0.18542750466251512,1.1575115505805016,0.04009800823973819,0.6362614757523097,0.40634785227443615,-0.23376473224922734,0.1152554021458112,-1.1767675152714485,0.7766858974982824,1.9542041352938355,0.6742353381701633,0.6011397519296562,0.24449776403963952,1.638293436449091,0.6734830075442826,1.5807319162649627,1.0857073221583402,1.1989337298468339,0.8080411993746459,0.28834309656300405,0.13801050166253503,0.5944986985988763,0.4846336894465999,-0.9094217545975702,0.502867566189769,-0.137846969377593,0.6122197739116828,-0.20746044787773954,-0.1685990485206137,-1.2256968513536037,0.47160230432136174,0.10639868019270615,0.4522841027689193,1.2584578641723851,0.9430437761759691,0.8707711308934556,0.9658008617204832,1.535498666860132,0.793994098738132,0.5591206823271975,0.2978255016238567,-0.10643005011123918,1.5376880761174885,1.151889926915155,0.554309618368011,0.9064154625373995,0.49917569433316444,-0.0237512314559023,0.5706107028713792,-8.347611430454293,-0.10551880442847406,-0.24715634660596386,0.7979031880274619,0.20201877478635666,1.972467926823759,0.4664762367766251,1.3194040184492302,0.6373950425703612,-0.3813565518165092,0.04380993902607422,-0.2283884422198561,-0.19273278143316297,-0.10635482390446427,-0.14121108670325455,-0.6908398346857219,-0.21683933675090472,-0.2401857744809952,-0.23347706629738418,0.09003035147648575,0.8053102935689935,-0.29443280957684514,0.06998684548562828,-0.26122722976374924,-0.3926624762908606,0.001888070121312424,-0.46606668347229174,-0.10714657764936497,-0.1896413874472973,0.4336086915884927,0.08941717820975725,0.08949282989793872,0.005496220357377624,0.27854376918994994,0.6286943370851681,0.4747473315220283,0.42832561432553184,0.6239463266284329,-0.14689335952712135,-0.11833374936277785,0.5977294063757945,-0.6190705255099438,-0.4010445700544025,0.013631421269352018,-0.18677210500271357,-0.2223096848334123,0.015293215566195784,0.22623815107320056,-0.33103053452912334,-0.3628114596344041,0.33647212645708535,-0.18932132513723232,0.24211710093132055,-0.012243963047840367,0.12079778809476593,0.9809632662073433,0.7595747528337213,0.5550484413419507,1.349417998925686,-0.16646943702544448,1.0238946911839548,-0.09562410205951011,0.281396187896771,0.5163874410119131,0.877158926992113,-0.11399873407608041,0.2848991669534513,1.1190687076285535,0.04067386839451359,0.44898552192903907,0.30247526690760296,1.2760225328566506,0.638067515812029,-0.37487066373335765,0.31311492589158973,0.24154078401162948,0.9035014627449325,0.5986974986130029,-0.04803077201603401,0.5680670684678333,-0.25233634464678545,0.441347766604288,0.2904476655253809,0.6546390728950957,0.7865667000907877,-0.6065391877568125,0.2744058547790509,0.16808747225636722,0.22951570806437616,0.11099920402861585,0.6769380632501019,1.211186609187287,0.5131340742314592,0.30414148292843635,0.5051496259393424,0.24490372030215113,0.2575440505645048,0.7634651744981333,0.4131717585412922,0.6925776073250987,0.7960091982493296,0.4246589257772655,0.9569243911103307,0.45278181567637077,0.02159508920387765,0.09389595777572524,0.9697671786074462,0.6790522955496776,0.014213290587843375,0.6445725158217321,0.450655555484083,0.4014797710635776,0.5156948038596649,1.9164497043480289,1.7798610423767975,1.052043489694876,1.8440822149201583,1.7793914439548146,1.6480514257599488,1.4731233160784551,1.0688112657873496,1.6927005145299052,0.6734057035354812,0.3198963319912984,0.26532871097054844,2.144979155970514,1.8161059726851434,1.9759783313908628,-0.3063648077422414,-0.3235076333304292,-0.3902430639688923,-0.4628828113732233,0.7405558321103882,0.1729069253629021,-0.4379687596442139,0.07905622518400435,-0.2784361809839293,0.388134248559318,-0.03852689380241081,0.31660079903790717,0.9676998178974046,-0.03981527450772404,-0.38772536241099687,-0.15668110553819403,-0.560588935080176,0.2787377691933308,-0.45880517991942504,0.958997672257027,0.09158072930422634,0.43233306280338013,-0.1340758910210873,0.3276150029124665,0.9990718587104439,1.425522181197623,0.31697127016234994,1.0041673195137992,1.3799647188067556,0.9190139153077617,0.668504510909429,0.34784228692335617,1.1033673292794095,1.643993878958124,1.4350856646692876,0.5381395121276782,0.6468533894848729,1.0132586923406528,0.7259898310703825,1.7075744282782814,0.6691947672085874,1.014584160726109,0.5633575305488954,0.7282468058590847,0.6809643486526316,0.8037200246167426,1.5804664337979197,0.15483256310008997,-0.2035605387621633,1.1594168670254437,0.14237447435953854,1.2401186216079836,0.9684609959494335,0.6905079109858221,1.5144354168924004,2.0959895729898257,1.97608746420919,1.3672915650481503,1.8298471003512233,1.5200371340795584,1.9759057954074422,1.2639384854993203,2.1688384895799384,1.348125616717402,1.0621806413310253,1.599176043676545,2.992121705869984,-0.21159101613652886,-0.1223674368794967,2.843277225602579,0.31218856330162836,-0.3212776036519962,0.85076727013697,0.7683271148640358,0.42952596810147625,0.14987232871131262,0.635634382337221,0.2646501699849324,0.6995610106392576,0.20480794970478655,1.5234800403563273,0.8691028440787889,1.055456520256742,-0.08346925610475431,0.47161639383146436,1.0496543364823498,0.6667633672568947,0.34580481067732904,0.08760616965792067,-0.2032059912849995,0.3078366594786637,-0.26495894553628574,-0.036436700488692964,-1.3701017568866316,1.2501674387813324,1.0768649956874192,0.6472907161652657,-0.7086142700507452,-0.018618312545058302,0.09321623486545505,0.2200394978087914,-0.37301440928434637,1.9502707440589493,1.8051545643540052,1.3736082249231352,0.9703560585120492,0.824333728226808,1.1834720246890136,0.18822243572352804,-0.6469828043165116,1.4059985416515808,1.4370241947916256,2.7448225518839084,2.0249485042393207,2.0731826306924006,1.1195557558544706,0.5040002439597213,0.5697814045431109,2.213229606626536,0.6960434276520449,0.9547029835137124,-1.3579216379759416,-1.639659248950764,-0.7562869485839059,-0.8752602774806135,-0.3834526279603203,-0.3673922649960346,0.5765976653416214,-0.2139732680637163,1.0928848111890765,0.6081421245513638,-1.147900662743334,0.7845181787361497,-0.2777810787579966,-0.7385567366657959,-0.10579295868168259,0.9707270501144656,-1.602717228962069,-0.41538167198256204,0.14109643919517545,0.16831168462669766,0.08022948955245823,0.2590901588945709,0.697932269996766,0.3497468720536361,0.2524987454633738,0.742356723025102,0.43227894412448187,0.8288300187498496,0.017178379884219552,0.6755459066382237,0.23350836078397919,0.37402284604155867,0.5201660794058398,1.014542833065665,1.1652305912101983,0.1610279689091687,0.6631722312579846,0.8849328651704749,0.9359048178513216,0.6735452741263579,-0.1144939435600385,-0.005147368555686427,0.3583867848007305,1.4947329420448021,0.9477091141669884,0.6097785223726326,0.5123433582659942,1.737782411037104
170426_BM_pos_1-30_MS7_HA_37.mzXML,-0.07457882097296142,-0.43071467889646264,-0.12645553371346985,-0.09209327154615643,-0.10518929701900603,0.018074857838140446,-0.3304481349303927,-0.1317712571234395,-0.3476429771271867,0.25047617918207266,-0.2637797220808338,-0.2530708200575731,0.16174392940077809,-0.22607445384961977,0.042744371829179784,-0.7269214665234252,-0.780252160600849,-0.3273578033714042,-0.05636465635661381,-0.35086022820144436,-0.22465755040650315,-0.4383627223150235,-0.617118505399624,-0.5048166341041203,-0.3583307204964612,-0.015702393060134767,-0.24580522243927305,0.23304073891907606,-0.08791297388437869,0.1363055359782912,-0.4046036818133789,-0.6822021994001943,-0.3034328471681764,-0.6398379492202135,-0.33644520207297646,-0.8220418714583353,-0.2332295884186415,-0.30895722502435774,-0.6980800394930498,-0.0642905576394508,-0.26883962512394,-0.34596489681797493,-0.6073969142604696,-0.5206276817570128,-0.5965709629121125,-0.7876039594880702,-0.9133022191239402,-1.07907335508534,-0.7040476176304331,-0.15184160552564485,-0.056851008611991105,-0.4565970524303502,-0.7237751197503997,-0.9555006263770807,-0.3017898656926761,-0.574761912314699,-1.088872560457915,-0.36643593818485876,-0.6971172287819432,-0.09837715148611892,-0.7617450442854974,-0.660081094967433,-0.4006271154439176,-0.1602181331825996,-0.7246973090751023,0.0401746912862766,-0.245574418082807,-0.4012063703309252,-0.6039073890842026,-0.22945665447121932,-0.06225180608205605,-0.3916326000705155,-0.8538579743735362,-0.26937557015654967,-0.303117358040474,0.007396714361350476,0.1460960809656786,-0.7519679681181035,-0.1966558708105559,-0.4715188848743992,-1.039859525249815,-0.12291419634629541,0.8648708916556771,0.295072127571828,0.06393278060727248,-0.6552560232308835,-0.5259114468211159,-2.7249864734489098,-0.20167114826797317,-0.4478005601623245,0.24728123408387503,-0.2874631940998924,0.23239278218546922,0.11888153583539207,-0.1511128190606872,-0.3423009307024927,-0.2950211601749828,0.1599882084902795,-0.0521658636465645,-0.05155855406151488,0.1727268012347043,-0.16401248046945227,-0.1014315713808216,0.37002523060605874,0.6333830783409642,0.15818010234487723,-0.18466571321558156,0.08277023980778431,0.38165528645349056,0.49118205026907624,0.36736957046637464,-0.19777365224597432,0.7579779532046445,0.12327898876379706,0.5261256082883694,0.49593028671075423,0.44796487897956183,0.14704759938852874,0.5163349383570779,0.6625038382934338,0.8752622649046717,0.9108076275142114,0.49451889571062324,-0.14169958715446285,-0.10972035738160102,-0.10630922595377612,0.10504147894446447,0.35752157368821,-0.053222529816217445,0.2137185813264466,0.5395843960618656,0.45027019342451524,-0.04331490578322672,0.39974064582269975,-0.18495476272997635,0.38079090575292796,0.24514109993234712,1.4369074085622522,1.471717446137582,1.3228479923144096,1.6064453083385022,1.6979988323764843,1.851536115410827,0.6643517391442586,0.7008278884442234,0.28193798498358724,-0.3800945753647511,-0.20391113522425286,-0.6057789118993568,-0.12884577766489258,-0.05714406611277667,-0.3355839682892032,-0.07513345560345996,0.13920291635801618,-0.025053470681037027,0.15169671726167167,0.04192246243132658,0.9742435499304278,-0.021961270874369276,0.011868550582924797,0.17469775592596548,0.1993673900478221,0.2869813363968312,0.07990285210725645,0.344136267631761,-0.4773485051710953,0.11332118498274113,0.401351217572703,0.04192903357064992,0.1621575000425004,0.44386338225669064,0.36658467376027914,0.0758836702068244,-0.05918821957336462,0.023161574675775398,-0.004047628636435263,-0.04281768249173723,0.14415956373823136,-0.2178232549958956,-0.10766619709881553,0.019972575207251708,-0.06232038686399832,-0.08756630767432938,0.07842736423206986,0.16115473691136017,-0.043220175978326836,0.5166810107739472,0.5550526416634476,-0.03860398900724782,0.23181706803174507,0.38330614946244523,0.23685463069367074,0.197455145244529,0.304881514753216,0.5876481871718102,-0.13244405820136507,0.3872213503809263,0.17425227106704888,-0.13917989201218184,-0.03364467867948662,0.05442299353723001,0.051525424543688914,0.10214002078394202,0.11893373431769128,0.4635660339319134,0.3126867205567869,0.22385056337341958,2.6893069421459437,2.3964553366203454,2.1063727297647326,-0.12195622734924783,0.04111651848290521,0.29821282742236477,-0.18297284713031914,-0.25357236672423156,0.36442497987206934,0.8333777045266757,0.031052206433777485,-0.48011919648441825,-0.23007156934503215,0.7049041868905608,0.1385154383210434,-0.09364802631561986,0.2006370691862145,0.3519668157991518,0.4081986751455169,0.5798006145371595,0.7037198520565795,0.27706877131661933,0.43077643576790337,0.2951557769534183,0.1420650548551059,0.3535380863453277,0.006260985181508971,-0.1744595947176215,-0.15791392494629797,0.32407116671795855,-0.30677125707648933,-0.0687419284115176,-0.10945751951456018,-0.2775740569615941,-0.5292991602002388,-0.35092224663246263,-0.2175738925378745,-0.2547401259878228,-0.0189469539205831,-0.35246838030567496,-0.17009237449741477,-0.28226828663594716,0.001894469955992406,-0.15212805222632042,-0.2568846042269648,-0.13368464729456875,-0.3950027771022828,-0.5728557873943014,-0.23106259079393077,-0.20301754016762885,0.2237488224985391,0.3182070222602089,-0.21406478286335862,0.674804789354031,-0.1083556054856416,0.0690356566694259,0.24631291379882825,-0.44474494069644166,-0.0604792477923084,-0.4119949342577378,-0.47841621538175083,-0.11682000832280792,-0.15701842202022576,-0.012258491544404393,-0.2023223064463906,-0.053855873699431456,-0.27350610707360623,0.15067501147391482,-0.2130308704226298,2.4882210419665824,0.6098486805350607,0.4740571347318081,2.8913902932367055,0.33752391397216996,0.36320808652688896,0.15077018743708948,0.23829219122794498,0.23897217631352063,0.4690245386526737,0.6314664895431559,0.21078707139296426,0.24870681544356188,-0.013270935572158749,-0.009342377333863894,0.36115603551654374,0.13146185887585382,0.4877408315952767,-0.40567973028915105,-0.2728498039680982,0.11059184663230681,-0.022943128354764752,0.26050197446621226,0.279533851403599,0.15366370411030417,0.5763786213809148,0.6033823701441285,-0.08665278703869994,-0.05623889569414686,0.02432128691758706,-0.09601677959308574,0.6971667492566453,0.29494597176589465,-0.0459145008935522,0.04412926384534899,0.45746011645226936,0.03726457323661769,0.08606307415488956,0.5007451852365001,0.022278961909602657,0.23920626609847062,-0.25321639302115884,-0.045536911782146916,0.3591953930722376,-0.10851766027043297,0.04082865588427964,0.48692080135477234,-0.08800571514903943,0.022633602713291623,-0.21796845085233585,0.347833673347127,0.034569896865562555,-0.10941981530572953,0.06711761191542287,0.2866087948363578,-0.6773287755557647,-1.2983444981586096,0.12698256346268977,-0.09478502287489832,-0.5954443590681073,-0.6637351474380253,-0.4713076530668534,0.07803956161922265,-0.10326924472157017,-0.5879047515420801,-1.0702589494781147,0.06998942918715656,0.051868717476779125,-0.0598777692556034,-0.06428002255722376,0.041380372320375614,-0.6690070349719033,0.22146028048205224,0.8302187790559028,0.0764243695886968,0.4237207121237141,0.6000198097818501,0.5566613690844626,0.5036479114655705,0.5280813842723404,0.5657940609876899,0.26140278535043926,0.29500547349038975,0.3088071034621027,0.26430341654158696,0.3428434296676208,0.08411585259003118,0.519260983855304,0.167817304850427,1.3600190333399294,0.6469234815718057,-0.09717225672006435,0.12015508201599623,0.029187267513895776,0.5273197065743425,0.4409725452495863,0.9736664015021361,0.17886649750313133,0.05324948946006813,0.004418224140190219,0.0311661955879039,0.23597579050108308,0.2565151817772051
170426_BM_pos_1-30_MS8_HA_692.mzXML,2.30147168400285,2.986286233006558,2.414960100545615,2.079404713197812,2.167597390365099,2.3464500981612026,1.8572599889598074,1.9308022372422116,1.772937749269225,2.8459903721906237,1.1885884197844554,1.0246401275424653,0.5412529865803464,0.39102068430572245,1.0618949467005976,1.8248028353047268,2.0725138770149663,1.9900271107822416,1.3420673490362134,1.0893915993432124,2.483690933685738,1.0314228355610027,1.4129610688350738,0.8716063185833534,-0.173874562618483,1.4757478227257472,0.4686937102551809,0.9105957283420345,0.41057471995567596,-1.8972342433928873,1.6158528593342485,0.29958255895349595,1.7626916180367171,1.2728034801923744,1.209938188726639,0.9495989160567682,1.7220351310750175,1.0959338017086644,0.8332649645454602,0.1205469021640635,-1.3709376247844869,0.5949397082586714,2.5659323350902596,0.35664287102615333,0.6736626970279875,0.7075361573555696,2.2519734785031016,1.3177627484330845,1.3441644679876283,1.3349065377531222,1.8190585508029447,1.975697627226527,1.4899011860896216,1.2671051351735763,1.4389097915794835,1.0608745870407859,0.951104078603155,-0.049939113648081346,0.8179257555229977,-0.1626178074020963,0.7883154187305941,0.45657281442640674,-1.363991517884589,0.23915128916362605,2.090864572167467,-0.3927554275431948,0.24272566200301604,1.2217952009177093,1.0191566250298756,1.0861032573628098,3.026842998788272,2.131037396108301,2.5748038800642554,3.237930207321744,1.0111636742931474,1.7354913571807256,1.291523404132926,1.1629923758482708,1.6139452154406335,1.1689170004488076,1.4867729965499255,0.17799020326838466,-9.259497790361479,0.643073022245062,0.2580180024174208,2.385902894372901,0.7021279145426185,3.1974493049307977,1.3459986857758217,1.3266843337119916,2.5876839687913247,0.723599529271663,0.3901097969877245,1.5818764710892737,1.3692377903798505,1.2643923564563515,1.6007990839706885,2.008928688270995,1.283078192049956,1.2433702623754996,2.05942755170952,1.307086625360082,1.1038219466737331,1.0650532579600789,1.0159478370764692,0.8631660801978267,1.8189715131628024,1.8608675947686546,2.64777591442688,1.198162650650696,0.955255891213115,1.5514178483394971,-1.0795412621043674,-0.01682133053604673,-0.27187341183925184,-1.0154691723180367,0.486732911402747,0.05972916108072113,-0.5808417748259114,-0.2679986042696765,-0.2066590042803913,-2.2288061566663746,-2.535244742096669,0.8925846392618588,0.3832927122175853,1.8545707045880242,0.7142360875473202,-1.5134567465193776,0.04811202536761883,-0.7220813968169004,-0.5927491588778295,-2.3579405890020944,1.3413968564963383,0.4695861875369829,-1.9782803622931748,-0.6745442266887665,-0.6937535457019379,2.8202546730695737,1.1069252732659898,2.009609933259517,2.143854257912311,-0.42018150948066335,1.0647285139954832,0.7490145626385214,-1.3256621374860522,-0.252078030303144,2.5471518739853316,2.59286358530926,1.6740714267433923,1.3709568394545641,0.5827474478466605,2.5404338601713725,0.028651460443818166,0.36593837841255805,1.6276798866826603,-1.6326891826288659,1.2170772705578017,-0.24764778637019447,1.0278728736740863,0.6753355108422525,-0.5732585042603233,1.045261844989934,-1.4422183861419455,1.1196836474342824,0.9577374852229674,2.248498336145415,1.6080518803002022,-1.4131661226766674,0.9225508035115766,0.93373416275168,-0.8364866590104114,0.8389867122343695,1.1222968175556858,2.5875718796399028,1.7411435948538774,0.806819854029726,1.5975685109906088,0.15479243371510876,0.9230784983008533,1.7504334492137978,1.2372359611832167,1.7524091286369483,2.019785903853112,0.7389064176227755,0.670179793435409,0.593846009622883,-0.16135399636291226,0.6935853458579011,1.4870594322425337,-0.6846977257645577,1.180970168135758,0.841223761720606,0.89895487894211,1.1714626798995411,0.048379828603311026,3.9179682354522605,2.946621791815815,0.4981634060173814,3.5824564052995154,3.6134109771854526,3.857461842188332,2.945181096811636,2.277950689114295,3.4164485052014246,0.4001150446077748,0.7622185556776344,3.0616957853206603,4.2064492368297834,4.157704108603841,2.57785873356881,1.0715576506953113,1.5701463393223385,0.6838999055152222,1.1557115502958233,3.1154047189021448,1.195012619087091,0.43926421400813,0.7756321352653295,1.4135586478958917,1.9958133011067538,1.0655139231411983,-0.9049575406560955,1.577004344903493,-1.819717834973705,-0.16701445910140222,-1.5235083402651206,-0.026233221480705282,-1.0210291965087848,0.9451009716148793,2.738325236914296,0.7453324246209974,1.5800266203238955,0.18062324126000107,0.8566749873804014,2.6891545040219604,3.1486121278404813,2.9528338311224243,2.8467520183675195,3.516291669249087,2.9890498370753598,2.334202149684078,3.000501582846205,3.2911055212625495,3.561901786779387,2.76535529073006,1.7095973153488728,2.5807709310345057,3.0454466951028145,2.6260447548528063,3.8619325143346046,1.4027899903055712,3.000392507162811,2.343805164772931,1.8586759087399027,1.5224362548143606,1.538721780129828,3.3295593146802,1.3499791281766989,0.9966888095951507,1.9151980724442534,-0.2291044969970919,1.902840125783161,1.1672127480960786,2.6544320026277965,1.9774273607767014,2.8609357687072183,2.11642732207811,2.5195982736716953,2.9399337464050923,2.2063728729692897,2.7558618005135074,1.6724430373119823,3.1366977954944186,0.8347585349593434,0.6973978583161191,2.183987495580004,1.4741851895059064,0.4365138428847519,-0.1868461821874874,3.4223207589746476,-0.3917653185960184,-1.0999823312376833,1.5015799419665932,2.00213963168013,0.7579248100035976,-1.6068373489567787,0.13615542555218418,0.4354402371211492,0.9416864001026859,1.2392051653609393,2.352602938409577,-0.30813112144550914,1.6783338419695273,0.2357184180878118,1.980016680647001,2.5155386618046283,1.4326921652251663,0.8803299419502331,0.2420362415421522,0.9178212563073842,1.223581194477397,-0.38630737810502325,0.14587584850695023,0.9224839018730773,1.0912005634501796,3.503052224673141,0.7315150396874088,0.520314524862858,-0.6570910755718913,-0.4204042487438251,0.17241153055986302,0.876794172619574,2.4882000311416395,2.137099288340334,2.053855780662598,0.2535800583144159,1.67917734074393,0.4009242541323026,-0.49952728517000367,-1.8298914843709646,1.8077954509437753,3.5167204027538155,4.302180496936886,1.8842099693161156,1.4098099156837662,1.8620023827383676,0.25217987100108097,-2.058745215768912,0.8494174536634294,0.8225867234398745,1.2491068032476456,0.25365092691585645,0.4029775096745709,0.1957103848316173,0.8631708743844584,1.9231888113709665,1.4892738112816346,1.904592619480768,3.3617321920833643,1.8607262201203554,1.5650222365086215,3.125497113829626,2.007649533788662,2.9859389640640366,0.871304451932037,2.9731438884323715,1.4055100889537435,3.0321893110762144,2.666145453314325,-0.17152492396897223,-0.20905945239733015,1.5770457823643156,0.16183899693882786,2.3826372710098624,1.5483644793288889,0.7675826840367108,1.5786783335480994,0.1702261664523892,1.9783243630231144,0.08293564505298257,1.4299495359473156,1.3136819002122664,1.5630896317495235,0.5994023700916955,2.7940417714994403,1.8467551986690172,-0.040334334819620565,1.6006985273144814,2.6807180674100746,1.7488267905050119,0.4798419755886094,-1.1806704965627084,0.06133880710239481,0.670558969752495,2.5604442714129725,1.1625156980320046,1.4631976054060871,1.5817532053374634,3.2557799936072502
170426_BM_pos_1-30_MS9_HA_381.mzXML,-0.6128908585587087,-0.691306172463376,-0.6721141964765511,-0.6930834358683899,-0.3970702852466701,-0.45695848744575684,-0.724313156768357,-0.5396102907951921,-0.5475403517529465,-1.1606447661891117,-0.6058203995107796,0.036552905996018126,-0.013211413172097508,0.22726294788713375,-0.9852212464150547,-1.7302955113664709,-1.3728995144675835,-1.3095389371130128,-1.7863980345250923,-1.2737785934468846,-0.8792695037602503,-0.26503646154823457,-0.6358135566839103,-0.31325571667434815,0.04725613475235946,-0.2520775695780628,0.40998262149952325,0.2458811457098875,0.46814340183319914,0.8781073177349761,-0.9413185567845996,-0.4403665112198354,-0.8859466629426276,-0.8584703232775635,-0.9130628894300941,-1.1372073223200374,-0.5712149853790756,-0.5199620707326353,0.05146348023707148,0.24829287818048762,0.8169683278087145,-0.3463632934848313,-1.7034035872313993,-0.9447417364670976,-0.450615762715481,-0.6627458466027001,-1.9024524289889673,-1.0845106949520673,-1.6799668711079825,-0.5983737026498819,-1.0644339111265442,-1.2219874621312172,-1.3817894145518146,-1.441170973651456,-0.9201230904063777,-0.9879518792721989,-0.42851349884714907,0.06038672558048397,-0.1646466383679961,-0.29513225895914985,0.09561454838106442,-0.1024838213341841,0.8062546390303282,0.04478061194266303,0.014298931322235475,-0.25500511059913755,0.11388920711474171,-0.3294519263083693,-1.3955666978256787,-0.6033198068616681,-1.0053999209511701,-0.7906418408936453,-0.4620896919434081,-0.6659873718104432,-0.46347244590918635,-1.1417202456544313,-0.891765414648459,-1.2673432447258772,-0.48598207531443194,-0.5499360955105068,-1.1964295707885082,0.06573921534675442,1.6950628770291623,-0.13426864344982192,0.01935315732948162,-0.7022397359972707,-0.8348729997818296,-0.34482018477344845,-0.1989868521061986,0.04112804555785843,0.28230540239893287,0.0524619875692629,0.46339490863004507,0.14916125120987545,-0.5338021873813314,-0.49444420028826386,-0.45315105034327985,-0.6279321692131923,-0.5077723231326914,-0.6826471745980633,-0.31338281355378506,-0.6207626483323345,-0.7003221933915675,-0.28031995654339603,-0.4141866638606242,-0.129351033662795,-0.3699896736446018,-0.8655307956282119,-0.1922683489386614,0.030033501807144702,0.30715592796055624,-0.22505947553950634,0.8243150353548394,0.1077293144511593,0.5274195021567483,0.9406551731918729,0.36290962171551655,0.24255417173386817,0.5618914875138454,0.6612243547723704,0.8489885584156749,0.42036944257394815,0.5558406770099076,0.30520289630646147,0.3034086899035451,-0.11582368694442735,0.1263758204974117,0.933166985156344,0.2113904927702741,0.4928444961225047,0.7250818994851933,0.8459340929833168,-0.24619668880248113,0.44428575123421155,-0.024961351998879167,0.5297024758809812,0.201116532414229,-0.05936456629217446,0.5361378636389134,0.10244348887996857,-0.04986309844361436,0.9504302631357255,0.35796703475252656,0.08585597327056504,0.7270016069246381,0.17136980936700574,-0.815854729069585,-0.3228965745005894,-0.4040190052602952,-0.41154316150748116,0.40021699410554845,-0.5445979690114626,0.14652486412334298,-0.18907994675971196,-0.5853711541727229,0.5789900293589128,-0.23574346022277126,0.7897447655791474,-0.03488795878176454,0.059836527887757285,0.48173687092357653,-0.05241997336439397,0.6165501572691241,-0.06265142639562171,0.2469984012216564,-0.8519856299832487,-0.21458748099572844,0.8927864774165073,-0.01953141115030732,0.1105570386725887,0.40887607551955796,0.4825576412624457,-0.10930007500212469,-0.6915075145797118,-0.1072517639133892,-0.05773019816432523,-0.32408240032000535,0.10996531484281036,-0.39473222298494903,-0.8549697342336202,0.04455829336356132,-0.20798331552256144,-0.41753041535283586,0.2534691185841993,-0.09519929481211875,0.46237856629614527,0.3855095070697665,0.44187587603025946,-0.6197724839693404,0.17938862585442195,0.24478839283327147,0.025633575028198408,-0.051183898664973526,0.08036294416854872,0.448135042567559,-0.9263210441453218,-0.9904735276117407,-0.6036680712209677,-0.5935939354495137,-0.9922785344531562,-0.7162458425220315,-0.7641825501144002,-0.40430584659946334,-1.3112888114550163,0.15227994497036157,0.41452139525378584,-0.2594660830360187,-0.12206712247098395,-0.7610741378448012,-0.26106337005439073,0.1647994158144499,0.20790782225166993,0.4753913472352096,0.3293131452590963,-0.4578179811998879,0.2307592662792608,0.9613591001611113,0.22408936265681234,0.002195779693858313,-0.41346896974908987,0.7570539453329435,0.37953416410033114,-0.7844626533700776,0.6894149810735613,0.6402272496061379,0.6197299588439869,1.0889308931488841,0.49334856467653054,0.3613195375722764,-0.49772807189918566,-0.029688985073455854,-0.4127978945378885,0.26608547346718225,0.022606425351654025,-0.949164184353279,-0.6479289991564219,-0.665970172585931,-0.6826857657340515,-0.9613844863610428,-0.8282971627275657,-0.6368058649841224,-0.5693146118996566,-0.6677820082039911,-0.9292234156705064,-1.3994611638370458,-0.06343662511792658,-0.44572361652548587,-0.9262619212057537,-0.702375668269962,-1.1766713231056762,-0.17866138452137648,-1.0762416820745386,-1.321812711016939,-0.7727352454824636,-0.891517394635299,-0.05854722502665943,-1.5974966662665544,0.026581682120696115,0.4559228253716636,-0.5824926060299891,-0.01633796950941857,-1.0574819460123983,-0.1495951710880039,-0.5311491911427595,-0.4677218700596981,-1.3170784998410667,-1.2845440696745491,-1.8754594957499489,-1.0599598379008128,-0.8809656610889292,-1.0691166720735836,-0.8066816129926622,-1.5215803014983518,-0.5291486175707103,0.21992755955128018,-0.9268260005578686,-3.74483130378624,0.7457083171639756,0.765782085574358,0.12031319888515846,0.43392218607266386,0.710226548614429,-0.2097541704439081,-0.07672656440496795,-0.1321207267142448,0.8487578956320245,0.2831131663575537,0.148054955661042,0.03995143623175679,0.39690457291862913,-0.6635369053930713,0.18651621826349896,-0.2039817165224047,0.3683856031337154,0.1416426907101922,-0.6487286708534068,-0.004015324202249815,-0.09208542387037255,0.3979704181168273,0.5865867979347108,-0.015396065177778695,0.6924661619553838,0.5962593575577415,0.7459846484209987,-0.3114936260835428,-0.7415001164618751,-0.29033014768872434,0.8994522781610819,0.3753892083143704,0.28829280509645017,0.45772605291778135,0.439025079443665,-1.0966909139330259,-1.1389328136818797,-0.9194955058294347,-0.5239483449095559,-0.8092159273016613,-0.3118355036360434,0.3614021912033394,0.9839012798441722,-0.623964281546332,-0.8204685329730133,-2.2414352165411398,-0.9611075105025808,-0.37450308679438393,-0.5525223152059588,-0.02314191230775542,-0.03856889392783458,-2.0933415701132656,-0.36092196639787666,-0.381394539597423,0.867255499245104,0.5577804171006306,0.46511195490302626,0.954007634823931,0.2543485615251697,-1.3572703304824394,-1.025870850837224,0.15793952102043285,-0.9063366295354953,-1.0865824597442746,-1.3082979908301713,-0.5564488677772665,-0.3013591625690353,-0.6559921665113535,-0.029534869769634042,-0.5574317325051226,-0.681639150475748,0.07262223797179956,0.2643943627562475,0.4781970700263152,0.32259675913002894,0.4377251320255571,-0.3773908074545993,0.23413691397147574,0.5361770097292258,0.6843449258181931,0.29332634001280233,-0.1271350871149135,0.3060884573707252,-0.002894559672025565,0.2663522251067896,0.22321507881265035,0.4101486535628389,0.6045815292411341,-0.24431243174395867,0.1810518827968135,-0.32403714542925144,-0.4272131809823474,-0.4340175501618422,0.2817488365362628,0.4669355773215038,0.8282786371301292,1.1708123159677495,-0.5033015746094911,-0.16197294600935486,0.42609743790910315,0.6142498192508974,-0.6287519523061444
170426_BM_pos_1-30_MS10_HA_384.mzXML,-0.19372630541036706,0.031930904987680364,-0.2617653551701462,-0.43742639690653995,-0.15465164995105596,0.027172911093828134,-0.4229449925622042,0.10917320220116267,-0.29315425457289024,-0.4254649562932755,-0.5098911220794697,-0.23269325776330518,0.0010952266471377925,-0.19230402325659668,0.014443254508485381,-1.3423706935048791,-1.0244077223626356,-0.5924619347684885,-0.23942242126777202,-0.4951554682154651,-0.22811640194669458,-0.384503482511402,-0.5799846755192455,-0.5267353766641918,-0.3069036268459513,-0.027849364265332355,-0.014416944607063442,0.06870102170094228,0.06683611036166326,0.3951201839497216,-0.548132671990766,-0.3935596129083727,-0.5335770569266156,-0.3928291031681237,-0.48408277831731183,-0.4897030257777182,-0.1752683081893771,-0.19865155591289252,-0.5949894532169004,-0.05145707409686118,0.010650101105925458,-0.10685274799932643,-0.9601716424793061,-0.6669278326874668,-0.37425128424329834,-1.0472857397353614,-1.4435567207385684,-1.08613757793343,-1.419681223508654,-0.1944663358912937,-0.25207868131407984,-0.43721973625351396,-0.3948746968669816,-0.46566885191614205,-0.25460191844530655,-0.3578326265579186,-0.7944191920277177,-0.13355653952963742,-0.37138798356620306,-0.46233839643205954,-0.5755952005339111,-0.550618849391677,-0.03205836799628159,-0.11639089620180343,-0.5109948074767043,-0.017032813119046253,-0.5575178364650419,-0.8854703063743763,-0.776704686580036,0.07156431337162594,-0.249806617201088,-0.4820170406257276,-0.6154567166657081,-0.3130595541956094,-0.1888230828539541,-0.7231669351864927,-0.07405746916186651,-0.43161108813394655,-0.658256126875802,-0.4739171624775409,-0.36452824328187994,0.060422093172084246,1.3883315353679038,0.5293913576456717,0.3240727489135917,-0.6823410300141397,-0.6515723890172218,-0.575745504232307,-0.14625923782798722,0.36296592369447467,0.11634207971628285,-0.32273476964610737,-0.4341918051916043,-0.240971257118197,-0.658478838144914,-0.4661968678507229,-0.5017597701013372,-0.65144301927171,-0.3206244156486555,-0.61805877583447,-0.03720576059296654,-0.3803803582185772,-0.6230301061450305,0.12106034707595192,0.34796860466226853,-0.15003561592276604,-0.36411051777109016,0.09328585001363088,0.15295618436511305,0.38996012403359437,0.1548097539570943,-0.15424211013077382,0.5635846727211451,0.4786834959502677,0.668276629522742,0.86325345467373,0.1677108137538461,-0.1050626359004525,0.3784292388601127,0.42885122799258646,0.7869525370796691,0.2383806520913705,0.22625924002623066,-0.3389093157196257,-0.34467209103836893,-0.5380549683979261,-0.4080110766641525,0.0730875664188062,-0.4205029154344082,-0.16249020227713373,0.09526196356915406,0.25617542477645117,-0.5371271871603405,-0.0575109667644611,-0.4991215493617531,-0.20725979870077182,-0.3135551210851908,-0.6255950122531928,-0.19987893593586037,-0.22362067097208005,-0.9663648457368605,0.4060752734162172,-0.47848159228038867,0.21341230659114174,0.3337675985930133,-0.08641357393163496,-0.7230229372843766,-0.40535058459897044,-0.9336469728671268,-0.7780281470108257,-0.3122333607779133,-0.6828803284459894,-0.4884900784612931,-0.8176681980000922,-0.46458580391840343,-0.19005956649063194,-0.4754959724382104,0.7752919458559369,0.14310217116103097,-0.48295594633534833,-0.2878084598253281,-0.49619616515538567,-0.08823513402032646,-0.44717346555004767,-0.26019936910107333,-0.9711277995209304,-0.35046786842039523,0.11638530118477775,-0.31349191549069033,-0.3141307801342812,-0.13428896574421856,-0.22593943443530762,-0.36897574618845397,-0.636112523130766,-0.43304119743255853,-0.33650573877863366,-0.49963094335861413,-0.32749797302671624,-0.4085297454887602,-0.659738934635179,-0.20809753408244802,-0.4638112965655665,-0.47506081868416317,-0.38651362456605654,-0.14998555272367398,-0.5395136423145459,0.09489511671374018,-0.015264666125023751,-0.9901034381656739,-0.16455529785222822,0.06296125730880675,-0.24927134896855918,-0.36187181083785447,-0.10674114014233993,0.01717527687730147,-0.8243048975946721,-0.5554581849322702,-0.3040484767853098,-0.7778518199099782,-0.7117560683271336,-0.5329031440731349,-0.4618585473752308,-0.33249613649340404,-0.5741951549065032,-0.10076573806019162,-0.13136962934925123,0.10001925167374814,-0.36301953076805304,-0.35069447904454165,-1.0211628156717332,-0.5960368299161587,-0.5148478219131718,-0.1776913202022392,-0.3334286595006901,-0.7136206251538297,-0.3887742706407131,0.10806401459506176,-0.3557362938753599,-0.3524747272994073,-0.6967921575749791,0.11198273336449382,-0.33024907121272307,-0.9580583631754891,-0.09067527825499866,0.09677378084653299,-0.5262295208341037,0.3310325283554647,-0.023564852918276813,-0.009387901304338087,0.130102991242115,-0.1157016487905338,-0.2207580266537299,0.1024391350498064,-0.21778290649184484,-0.6442652081150477,-0.7825674423886273,-0.663165743587049,-0.6289385713711813,-0.7126091731977073,-0.6110715411454457,-0.7483570868379736,-0.6312206372848799,-0.7111657667834574,-0.6896943887159779,-0.5386466530559169,-0.44790409084417604,-0.5627520977504421,-0.7148035699024575,-0.6472972277867122,-0.527674416164686,-0.5219061251690214,-0.8541255950820563,-0.702388904099525,-0.8872359482802512,-0.7142926999766228,-0.9203700567654192,-0.521853446156598,-0.20239795433118601,-0.12626342956116865,-0.7527240161954918,0.35480752349892697,-0.8421964667989137,-0.5604809247392897,-0.47230226727629443,-1.2364642669681345,-1.0401822188457324,-1.010714450227269,-1.0662425595309042,-0.6970263322985275,-0.7964988316103536,-0.6082451153470352,-0.7846757808107618,-0.8244470734516813,-0.864358698584903,-0.3018716699898185,-0.6709106270314198,-2.5236234507554114,0.2511959008115472,0.10262675986013292,-0.35161794085220954,-0.3038701507481214,-0.05505867308970025,-0.4605717132662761,-0.46890994530829744,-0.3522025923014702,0.09195884785157027,-0.00971358375071496,-0.3680353620302661,-0.3912411178344648,-0.34450579627304023,-0.32516442899459896,-0.13620839319541744,-0.589427192909616,0.21616737257033414,-0.32699392285155326,-0.6150214415821349,-0.25210010178374276,-0.20611226386242976,-0.25204183717738005,-0.6051004556783255,-0.42905095674888827,0.2005151551763511,-0.017500271203662265,-0.06643759256936299,-0.6867031982721414,-0.9614082479369976,-0.9985944618297289,0.2575964178621639,-0.12740152172201746,-0.47845051192029686,-0.31973993310537097,-0.017650495531556842,-0.547311131729332,-0.7712806988976375,-0.8844603914376101,-0.46751842227358154,-0.4580351556979778,-0.7198836366915558,-0.42441712206949234,-0.03543336223019011,-0.7021795444903596,-0.6674167580840376,-0.8075237228386545,-0.8393899744758802,-0.7476445302006702,-0.5769057056945783,-0.1977963705687511,-0.49404754179400356,-1.4613527910165498,-0.42271377793366405,-0.33730374779925043,0.5720618635055388,0.28197150286857564,0.21197896941301053,0.6613808026222898,0.019002369806905506,-1.289780354393674,-0.8835402774344541,0.23141126756897812,-0.6487531886412512,-1.0218346761823476,-0.3388044262850105,-0.50997544236861,-0.19429936125395386,-1.0204636549591655,0.1809734164980732,-0.6485921521810454,-0.5205548391150128,0.04998554595407967,-0.5480366629302669,-0.17505327413494598,-0.3054355291048445,-0.3996855392388081,-0.4199037323039896,-0.28733013953981157,-0.16815633039717426,0.04528031419012457,-0.559482100410948,-0.4610808308093812,-0.48501896257865873,-0.419519892415547,-0.2731418162113286,-0.42394130652041184,-0.09347000348825318,-0.4026156430959311,-0.08939677093155218,-0.588327890077105,-0.7819678898285893,-0.2635315256161217,-0.5025812420560012,-0.29764852809429954,-0.09284849467952583,0.2524282321454727,0.8356322158171512,-0.7641581255262331,-0.5468938585668734,-0.14515252576326887,-0.13058720358486653,-0.3559047465278109
170426_BM_pos_1-30_MS11_HA_42.mzXML,-0.08560994661682919,-0.6741745926478497,-0.6458778876068845,-0.34159234316985554,-0.24219244138500784,-0.45855401229911763,-1.040087528373018,-0.41625033069259487,-0.8615175972783824,-0.9116743917786714,-0.390752855634112,-1.1980232581692754,-0.06446525554280669,-2.354837085697433,0.8425588244918991,0.032291852020605916,-0.24474957029545763,-0.16090567077459106,0.4279727058565861,-0.35756900783708545,-0.8837041117599096,-0.4637269656340237,-0.9236627098904897,-1.2751821942364359,-1.680012855476818,-0.03200042073069298,-3.524317693639656,0.19383105717793114,-2.8756463694794654,-3.11923327205103,-0.42125775326556614,-5.62098183575306,-0.7688589152316414,-3.658181434947151,-1.0923818621737773,-3.9727131754329292,-2.147781605526749,-2.86383542454557,-0.5137840097219559,-0.17837394054222777,-0.6136443150091484,-0.20153248431745752,-0.11419823806634,-0.16843506057374924,0.15805564916639092,-1.4789366363368401,0.30988688063912484,-1.3894140708315792,-0.574585127284994,0.5043526182050524,0.7693865284825332,-0.7737180917711513,-3.3240069277057245,-3.802889116119541,-1.3217980168871293,-2.024417236045153,-2.534426346708358,0.0006141434360475984,-0.17807533363053274,0.24689693630179832,-0.4712141650839179,-0.3851421393410721,-0.6729986785727213,-0.06289594664319864,-0.45925529544672905,0.07302755722154863,0.2701786571620701,0.4856700829076672,0.0867282971337282,0.7881392414870216,-1.4394019612012663,-0.7675616741807296,-0.2559505633843919,0.450467628409184,-1.922271057730903,0.3743201463949415,0.6962143563160996,-2.91844121299612,0.5961811857961514,0.7117786225684206,-3.29592329359585,-0.5675896111995282,-11.007071098139239,-0.0706020137580623,-0.3721832087279697,-1.0257298440012903,-0.46010943517757497,-1.7293471054983076,-0.660999924392474,-0.8021552600106183,-0.41721219326112546,-1.8002029933868542,1.1814892365447083,-0.2738712604150422,-0.13492691703420512,-0.3410130207941826,-0.31492887564128935,-0.04522603145727544,-0.06411052316070354,-0.65395716039232,-0.1813685919511432,-0.1613109405028652,-0.4401270315881156,-0.25358133299559604,-0.3067600100493362,-0.0822118712946871,-0.5360209608424658,-0.4011044325400963,-0.615714062976533,-0.356279668438793,-0.10609698241876053,-0.12795122408551762,0.5126450806090226,0.5728068127300681,0.48251684804146144,0.3453130361091734,0.126110397270228,0.13929416152008756,-0.10185934257300566,-0.1021888014643384,0.21496322170270155,0.44584645735277384,0.02465004444805885,0.23318612395294736,0.21759082913210293,0.32972357048422296,0.5788055348495504,0.41732256070940466,0.14758448336371544,0.25142474774290235,0.4459724395705216,0.7298385453614742,0.17104010493874,0.3781713228597532,0.37744740261902976,0.3063921232432101,0.1951237489368225,1.223917522098187,0.6705699632360087,0.8853002501781209,1.0351906692922146,0.8672889305059783,1.1748850475133352,0.7310372864355976,0.42849119127235014,0.33726212931615684,0.27643469425028044,0.5684361383995338,-0.24823191047394033,-2.6154163400409978,0.8568697524125,-0.09878872300339481,0.1856535631633882,0.8735432327774895,0.3569258565295357,0.7207001787353846,0.2657114833892784,0.5091410493928805,0.219412367294046,0.3457697468578793,0.23311516839950386,0.22808483708556437,0.0030889822647957033,-0.04548252469482961,0.2683282156424802,0.18849160976341928,0.09101334782174675,-0.3645670064264799,-0.19511317000453587,-0.01484438150015066,0.31485988741993864,0.32844808429078043,-0.0260163450904507,0.032966586830823985,-0.05266422612001875,-0.28140471362955566,-0.2592301985772778,-0.1133029642465111,-0.17028001478729848,-0.20663625052046797,-0.03476162009175354,-0.08529487158354243,-0.15717285785918023,-0.18537128305050743,-0.04719707542848184,-0.4456272063156774,0.1367246962676809,0.2876239286983413,0.268269380203515,-0.20439220825715054,0.12908898566411509,-0.2762446569025343,-0.34411328474473635,-0.19731237676263547,0.2823880521853912,0.4760706097738492,0.689989643720029,-0.21158575905118404,0.17678391599398147,0.44777344030069344,0.4231659495203317,0.3111579287073294,0.6037810638112795,0.18505419849740612,-0.007195307648393268,0.035551292976222726,-0.36747527158162363,2.62484446554269,2.459349978621706,1.8850144678476575,0.4950830184086996,0.45339568164692423,0.7988140950967768,0.308989111651794,0.5531414980107776,0.3973977989009292,0.6553599338206126,0.3513236836531739,0.06428227447369927,0.4004757623904531,0.6613343175557791,0.21021432725930822,0.6179316564925337,0.35683004649525074,0.3038440493428425,0.49735059601516696,0.5428533117269936,0.3451932721014046,0.3589670487433967,0.7194874366014865,0.4192426256517692,0.018812028438365047,0.24686577402600207,0.03751306100775764,0.5760621875987368,0.750947191047727,0.3291563621883018,0.616890012777775,0.7869267696489697,0.6105350274906165,0.5128496192828536,-0.04038962471589613,0.43698550328117314,0.9868744606823796,0.7216478947335183,0.0947483132867859,0.07248352860285756,0.91730249151707,0.6845116903095239,1.2126974060877522,0.31080515885280846,0.797566845157661,0.7548498665998693,0.6207216216249076,0.4805429110608035,0.3570520478695247,0.5668868574369768,0.26249371237042496,0.25164167454627595,0.5520525614713367,0.9573755669905246,0.7890737486174189,0.6138281663740077,0.1914358983648441,-0.10180951501698132,0.1880019848869452,-0.17340927737433276,-0.39431322004941016,-0.020664224759929795,0.028912436379567197,-0.015447119324104364,-0.3502287431521296,0.2682046483890925,-0.4143623516161501,-0.6220508113815448,-0.5756482521108186,-2.7834679025145475,0.7480434585986853,0.3636766371760416,2.301446425028553,0.5086291867965009,0.1742376333843474,0.3089943340600456,0.22360027021605333,0.12683234249565345,-0.018792620309215025,0.3062982312263163,0.13614215241530303,-0.08577878185559484,0.07937716520703475,-0.18197048416031514,0.015477598324793007,-0.5035954009961561,0.1856537589198357,-0.6938190627423815,0.34566752164266923,-0.29424357630291453,-0.0789772160201565,0.3191180105711915,0.6733204844755534,0.3127246982229046,0.7063291707882868,0.5465592999759288,-2.0341049578871147,0.7850337143101349,-0.030816739280776773,0.1825765937518682,0.6290138394204448,0.5456643208459475,0.2329031542506783,0.16428578991994414,0.29988624446607126,0.3169611483433652,0.5773078481725094,0.6572961289353998,-0.4460428709051705,0.9271988737528467,-0.08287092718732225,-0.5830751172199768,-0.46047735034913373,-0.0918273882309748,0.19820571902171125,0.6934479333724912,-0.06666436658878716,-0.05050510634250571,-0.40804807778470575,-0.2799730163757115,0.5558565751158682,-0.3535720262694415,-0.41651319773665385,-0.3182630759304388,0.7099095781994116,0.24484447887120098,0.8191625684312456,1.0232270362582554,-0.06547979899342948,-0.8719760795472311,-0.6815725592493411,-1.40519618099942,0.09756404202390456,-1.0186425801703365,-2.8778215659420514,0.1998312739054171,-0.1099715087325066,-1.5239878581298605,-1.9159556701617717,-0.010909088335289141,-1.1691873222538245,-0.8263826183909337,-0.045523615098082004,0.11081565326454879,0.06522059582827566,0.29534955054946543,0.05677243504943519,-0.1372422280090717,-0.0606377899869166,0.5037711184676024,0.30748896968630923,0.03803439245360529,0.06133303591922079,-0.10564286533410083,-0.08118487170169075,-0.5304283582726796,-0.15073790506772866,-0.7178440159628039,-0.22961614144139553,-0.05817902017375509,0.9056947445270005,0.05550615792625102,-0.3848653849650052,-0.1010151048746657,0.15877452547195148,0.35936065110162474,0.17643051216824723,0.1734300228976302,-0.4164412980839405,-0.26748259337969316,-0.045493688748884153,0.7231057431674142
170426_BM_pos_1-30_MS12_HA_596.mzXML,1.875681274849283,2.47599459026482,2.241317580052664,1.7397691341069486,2.0099586993009844,1.9769969765464275,2.317042913869898,2.9333463785711373,2.4564259118336658,2.7303530477047353,0.8104594317341309,0.3543559674034249,-0.225051896197769,-0.5100512231304961,1.9908481017318636,3.0769159742592684,2.816237617741489,1.7289894924700437,1.9902756551083307,1.4059174727615193,3.1374165605591653,0.7060622748923961,1.2355788427199208,0.9083645048329103,0.21532547529786683,0.8811467999037106,-1.6858369735150198,-0.06303689257025624,-0.5292179427605923,-2.1781710011647384,2.4569696752557366,0.9357462654670066,2.354412952373588,1.8502054364984968,2.246283347259034,1.8328853432138459,1.88338285798309,1.726415742475794,0.4275646273649123,-0.9478595552972084,-1.3108986910021958,0.182566572768863,3.1127142171753555,0.8037544873085274,0.9389975555777159,1.5352941875245705,2.7777681070387015,2.3710594554753275,2.6509761575221766,2.2923484593419996,2.0595595863528704,0.7310095118021032,0.4109923500968016,0.2843046048288045,0.5156579725624759,0.3657443850980364,0.2503254516609985,-2.0133892776135394,0.5733306236641429,-0.7429616615805159,0.4369201203997548,0.6031096940481451,-1.3156400697732415,-0.504027428287845,-0.4831696043573164,-0.5744733544551988,-0.24609385519447002,-0.0733459050330687,1.8232730762552336,1.7450229965238488,3.1996171334403307,2.779110950995854,1.6742533396988222,0.9226168981412304,-0.24223931100772944,2.283054074043738,2.225690550651107,0.4458966556736055,2.0439861285985685,0.589840795821587,0.413036020392779,0.8119546857530597,-5.397920594262054,0.12968001008598762,0.314559574567463,-0.05361431795819627,-1.017311981469561,-0.12643996483628506,-0.3486988781629172,-0.19606477281032753,-1.4199676718690384,-0.6362779789304263,0.08241839729848444,0.8539643011914961,0.37123444994653276,0.47473917562043866,0.7591887994623363,0.47541137961086477,0.32897644991651376,0.44508770907711437,-0.23733284230428886,0.2500851834341411,-0.20500188036237432,-1.2296557378181685,-0.6653035231909978,-1.0610522254744534,-0.5986238434378297,0.25111660932483026,-2.723562930109374,-0.9525658535721018,-1.79458947013128,1.6378012367579196,-1.1125170108685367,0.052148617345309844,-1.18924749463873,-1.0135958915068652,0.2561559278501022,-0.02030899791173013,-0.8125034082043054,-0.9556979790677342,-1.6977634702626236,-1.4581817543190763,0.019670498717164975,0.9661345676251152,0.7828974283246737,2.214346694703,1.0696268656439756,-1.1399614616870828,1.2107630855442189,-0.8448388324750233,-1.39698892656331,-2.5529028820464994,2.5761247980474486,-0.4627673868679416,1.0148697782638223,-0.9410331670435639,0.33551063224600597,2.972233548112854,0.6377169161680065,2.028680025582416,3.1434129671756157,-1.491196392977642,2.1958642431083426,-0.25610757967286446,-2.5502193838610587,-0.8544942904855386,2.7880475857185054,1.4079786406230923,2.00919570761463,2.6837286692567517,-0.09011439592843118,2.4767130577318994,1.0837396881203425,1.8205317007443682,1.7384902787512502,-0.344038835406586,1.852766946151018,-0.013411393221595347,0.7879359085285689,1.0574875040631824,0.10116483079342231,1.081788391963812,-0.8662394615237652,0.9620221295373383,0.40053726578578264,1.5535474792053332,1.4356400174533128,-2.1960228315610237,0.8272125780646427,0.7177297131325773,0.02120572244303176,-0.9530049236478639,1.0774551926452247,2.6094829977340623,1.3383043158941739,0.9239628300517992,1.7625080872848962,0.43050101080907055,0.761297277914661,2.3981564449406285,0.7126109539818906,1.3727495548792596,1.5685325403657586,0.4952971437371083,0.9720978119959938,0.1838890111417797,-1.5537353457351344,-1.5211904935047507,1.337250914478977,-0.8240538499440859,-1.438961817796109,0.1431955737369215,-0.042503125423881016,-0.8039564469654046,-1.197739794503315,2.716481068580972,2.543852103837704,1.4680778445603,2.495643393822432,2.5731712158742646,2.4416140085984104,2.347186837996402,1.4791780135422385,2.306702038028961,-1.3525128081202755,-3.258224990024864,-1.088813218317222,4.526485864199788,4.170091300044987,4.178280246244775,1.3623426889042562,1.4057556960828386,0.43080375402319504,1.1402271751984259,3.48967796644072,-0.007327709084570699,-2.090576557991291,0.4056616117334997,1.5643357332316707,2.279283680354588,-0.949768032926043,0.4775836898668757,2.5695578278708204,-0.6512103600271288,-1.2757306417321352,0.602804341307273,-3.6192846296282255,-1.6546534401551973,-0.004999026172805898,1.6641399130889027,-0.25433956297290194,0.9663236061309455,-0.6429356758388991,-0.4155943106931481,3.372498297848516,3.399559148224631,3.179752930623126,2.7019332837984447,3.678873910831074,3.2151775221214507,2.5676121556304246,1.1275021666498652,2.9962896543838067,3.411335800944226,3.5381156083436274,1.3380542853372859,2.1477763353197137,3.022789613647067,2.686407830173952,3.6935795655374264,2.2489535315237887,3.0053996209674025,3.117259611942451,2.688236768899314,2.474599505129339,2.8058570371062697,3.4458429919704656,0.5918380824261718,-0.32311918831961073,2.7544420290000122,-2.713522436625979,3.378926800704516,0.13362223160821962,2.7109944901484155,2.269227396228093,3.4696893556554507,2.840681861332655,2.5692668292408616,2.815024700327111,1.950964224190578,3.063612773232176,1.864490158445605,3.4085628023380803,2.027658718836298,-0.8591870741653764,2.5131067046753923,-0.39153679402444297,-1.1586280119211434,-0.8204534355945867,4.846134755966711,0.5021420617027808,-0.4287387469428019,1.4677194775719187,1.5045449848389083,0.218564970550446,-3.3593567675771805,-0.2766410177645984,0.22185171297590145,-0.13363757383758568,0.5668250868358555,2.2620618853753225,-0.20149657523552378,1.6303776027035521,-1.0847548003841911,1.3365394142680564,1.7962878231672708,0.4577312092179362,-0.20402288617177433,-0.3852258579755663,1.0658469016998176,1.1422832707164403,-1.1554198080377347,-0.8767954436841521,0.48533287836450434,2.119987350886543,3.711656160338034,2.0081081774078093,-3.2857597224795363,0.21923881788783106,0.9344868653282568,0.6941597410838831,-1.3423468954124065,2.8251950160946127,2.7732248426720822,2.481398129354073,0.1890423497942919,2.3807482783914367,2.0882924778619234,0.4851741757277743,-1.8346976610385006,2.081750197342533,2.4396284241283936,3.979668438182939,2.29730090438788,2.942384822233052,2.085891645781853,0.2194985779771823,-0.3794330936608148,3.376825709961933,1.590278349351392,1.053786368033247,-0.6987007541114814,0.1685544549414928,-0.15133285934409813,-0.6425145009121493,1.2637467835750904,3.040755710081914,3.146930966532432,2.6987715311488483,2.862250557025515,2.7410445224390827,2.9343421130827085,2.6491003126864783,2.134817467016756,2.4114951788348087,2.4355379209696686,2.4830929978894787,1.9323265540616905,1.6514799733863548,-0.272393111971736,-0.7733243405303547,0.047872564085157165,-0.2604797019641172,1.2947645077682886,0.2588301848434327,-0.47603147779413746,-0.557131186486421,-1.3938142595676464,1.458450098991852,-0.21437724309261164,0.7002843314310994,0.5297171402641716,0.30488114834077606,-0.9088179357469386,-2.459054059523364,0.5068104930017991,-0.11366846484799531,1.3096851137585936,1.5865035547459083,1.8614095086903522,-0.0700651768004974,-0.9893075085643375,-1.937630560347099,0.9781456878378645,2.315363794978783,1.319170116109989,0.9227730248335853,-2.1516834682481125,2.981638717671645
