,posFT24227,posFT25123,posFT25655,posFT25793,posFT25962,posFT26104,posFT27598,posFT27854,posFT29461,posFT29773,posFT30191,posFT31217,posFT31997,posFT32121,posFT27610,posFT26687,posFT27606,posFT36719,posFT36720,posFT37747,posFT31277,posFT28434,posFT29382,posFT30343,posFT30467,posFT31113,posFT32247,posFT32932,posFT33058,posFT34018,posFT35916,posFT36043,posFT36955,posFT37104,posFT38000,posFT38152,posFT39001,posFT40030,posFT20236,posFT21363,posFT23223,posFT23889,posFT24759,posFT24760,posFT24764,posFT24879,posFT25667,posFT26826,posFT26825,posFT27501,posFT31823,posFT31943,posFT36882,posFT37923,posFT38819,posFT39835,posFT39965,posFT20380,posFT20543,posFT20550,posFT21462,posFT21600,posFT22119,posFT22228,posFT22666,posFT23080,posFT23084,posFT24647,posFT25534,posFT26555,posFT26677,posFT27489,posFT27984,posFT32864,posFT33793,posFT35703,posFT35704,posFT35852,posFT36880,posFT37916,posFT38951,posFT28573,posFT34180,posFT12000,posFT12150,posFT27986,posFT27856,posFT29651,posFT29463,posFT31278,posFT31058,posFT39821,posFT39658,posFT40379,posFT42041,posFT42171,posFT42305,posFT43672,posFT43824,posFT43960,posFT45392,posFT45678,posFT45833,posFT46711,posFT46827,posFT46947,posFT47084,posFT47211,posFT48081,posFT48192,posFT48303,posFT10663,negFT07760,negFT07761,negFT08376,negFT08377,negFT08450,negFT08519,negFT09175,negFT09237,negFT10066,negFT10167,negFT10237,negFT14241,negFT15590,negFT15487,negFT15377,negFT16787,negFT16683,negFT16682,negFT16480,negFT18097,negFT18098,negFT17893,negFT19151,negFT19152,negFT19253,negFT06133,negFT06639,negFT06696,negFT06695,negFT07289,negFT07425,negFT16827,negFT16826,negFT20586,negFT13539,negFT14799,negFT14486,negFT15909,negFT15910,negFT15790,negFT17394,negFT17396,negFT16017,negFT17250,negFT17249,negFT07718,negFT09414,negFT14485,negFT15906,negFT15786,negFT17391,negFT17248,negFT17109,negFT17108,negFT17983,negFT18853,negFT18736,negFT18597,negFT18481,negFT18480,negFT19451,negFT19356,negFT19257,negFT20156,negFT20030,negFT19913,negFT19914,negFT20647,negFT21608,negFT21609,negFT21488,negFT21361,negFT21217,negFT21098,negFT20999,negFT20904,negFT22777,negFT22694,negFT22505,negFT22506,negFT22507,negFT22397,negFT22292,negFT24118,negFT24018,negFT23947,negFT25380,negFT25299,negFT25884,negFT26476,negFT26394,negFT26198,negFT23401,negFT23483,negFT23690,negFT06741,negFT06775,negFT08164,negFT13026,negFT14167,negFT14079,negFT14888,negFT14794,negFT15179,negFT15068,negFT16013,negFT16986,negFT16884,negFT16379,negFT17535,negFT18300_0,negFT18204,negFT17981,negFT19535,negFT19446,negFT19058,negFT19354,negFT15636,negFT18143,negFT19486,negFT19383,negFT20681,negFT12326,negFT12948,negFT13448,negFT14171,negFT14082,negFT14691,negFT14584,negFT14397,negFT15494,negFT15379,negFT15282,negFT15182,negFT16196,negFT16112,negFT16113,negFT16794,negFT16590,negFT17637,negFT17540,negFT17547,negFT17541,negFT18856,negFT18601,negFT16978,negFT16876,negFT17985,negFT17810,negFT18737,negFT18738,negFT18484,negFT15077,negFT16383,negFT17899,negFT17811,negFT19362,negFT19361,negFT19263,negFT19164_1,negFT20652,negFT20537,negFT20446,negFT20356,negFT20264,negFT05602,negFT06187,negFT07500,negFT15181,negFT16588,negFT16481,negFT17894,negFT18386,negFT19540,negFT19158,negFT19803,negFT19714,negFT20835,negFT20741,negFT20534,negFT20441,negFT21779,negFT22977,negFT22880,negFT22608,negFT23587,negFT15279,negFT15277,negFT16585,negFT17245,negFT17805,negFT13607,negFT16020,negFT16021,negFT16015,negFT18600,negFT15787,negFT17539,negFT18598,negFT18483,negFT16489,negFT20034,negFT20745,negFT20538,negFT22089,negFT15183,negFT16592,negFT18109,negFT17987,negFT17900_0,negFT18603,negFT19455,negFT20838,negFT20448,negFT20359,negFT21964,negFT21865,negFT21784,negFT21702,negFT21411,negFT22817,negFT22726,negFT22645,negFT23896,negFT21703,negFT22402,negFT22508,negFT22971,negFT23070,negFT23144,negFT23592,negFT23693,negFT23696_0,negFT23772,negFT24205,negFT24274,negFT24874,negFT00756,negFT01071,negFT01052,negFT01267,negFT01232,negFT01381,negFT01351,negFT01329,negFT01711,negFT01689,negFT02067,negFT01929,negFT01902,negFT01876,negFT01791,negFT01769,negFT02243,negFT02794,negFT02744,negFT02703,negFT02655,negFT02623,negFT02583,negFT02495,negFT02443,negFT03339,negFT03175,negFT03147,negFT03110,negFT04014
Batch1_Sch_Br_x30_pos_1-01_29.mzXML,2.424920569639653,2.8381365668361376,1.5243278427852225,1.8226512865390934,2.3543275460322146,2.4741525033192193,1.7197546423669152,3.2186888643644753,2.2448349305984863,3.1937673348829314,0.7012538438544134,-0.33554099129633386,-0.20403382797796965,-0.9132292550257191,0.9971324050327262,1.7106783343051735,1.2123094741640372,1.7431726642822927,1.5707808252022986,1.9071672079628534,2.8233307600628823,0.39711407729224923,-0.3779902554290562,-0.18395701595209246,-1.0866992425429256,-0.35852006403066916,-2.5134122102796184,0.0037342861765292668,-1.5394006909278684,-2.124915624207935,1.1600489453263965,-0.9942086849761509,0.8145796184846184,-0.1956403085473486,0.7364170168267421,-0.8446338590054943,-0.08704946910223477,-0.511948940161469,0.025355934518380252,-0.830037303604076,-0.6107565198193345,-0.09433245998076423,1.7652794463568124,0.36312852775168736,0.86238593522455,-0.7524296508649115,1.4957221951430792,0.536276102733515,1.2591044412985806,2.123457434463651,2.1567146187669586,1.920091601977191,1.0669042065693866,1.416434716707407,1.139382717939764,1.291454102970885,0.5276329811016147,-0.41036544356099114,0.6140786011392851,0.5725453992228893,0.11094236458403373,-0.04898625754021424,-1.380813950784475,-0.1456813767630596,0.2808879488328042,-1.4712823355574756,-1.3323550463819398,-1.4649799498035403,2.182590701308097,1.461558829151901,1.8634089113622743,1.555285602246368,2.6982174410743696,1.0913453748789408,0.6136949531214047,2.070839061714498,1.2497290351540844,1.7960554636966712,1.0997389348256466,0.22000620377885305,0.7915869476720427,0.241678099413571,-4.2284311941279995,1.8986915664853559,0.7061731286006321,0.9458869675393,0.8277318571424281,1.8477241074283004,0.8907272693181785,0.9348989875646332,0.5920159482613929,-0.510988028899062,1.1549770043809904,0.7004051301631566,0.48998177314287084,0.37249545901090286,0.7882991920511184,0.12469541528349737,0.8332689377260216,0.5966156887542748,0.5158644282857345,0.3174645573563879,0.32001760402945045,0.49524012604005385,0.2653282116863185,-0.2087047623371081,0.5339338033344632,0.66464912635597,0.610411990688128,0.2561087084250371,0.2700978323833567,1.1907594683474194,0.542880509247583,-0.014179093118972474,0.2806840419892964,0.5610741549319993,0.4760414578906733,-0.01801887025641591,0.6179593449877068,0.6274333737164408,0.8788702272023166,1.146161140044244,0.09278348965671412,-0.49239581644223307,-0.47278142547461854,0.8246244545600412,0.17630636378302,-1.162859281612544,-0.35647860144503696,-0.584911106513303,-0.6021569459053104,-0.9756040847212795,0.38287025104740735,-0.28974504782459576,1.2399180420524338,-0.5090192202533572,0.5643055942490882,0.8316939423035876,0.21644309097869652,0.837864389476831,0.789918856622263,0.42118578206128987,0.383508749008346,-0.44943277438198415,-0.36671775938752305,-0.9393816513352871,1.150368647335796,0.6435563984689558,0.3076323866515125,0.3714339955015227,-0.6883108954135615,1.0489630545563458,-0.5095236802864669,1.0490450715885196,0.33633604199877887,0.0033146567209065836,0.5321843126232402,0.2110211517546503,1.083901718533891,-0.3289378049771887,-0.642979077649791,-0.16512182710511958,-1.131432923027262,0.01900575486969558,-0.536558571779846,0.5262550190654469,0.42727073881221855,-1.8598755368584712,-0.008254517776123294,0.015012475336178,-0.13904238567274874,-0.9581629786117034,0.24147974282777085,1.1159443769172341,-0.10895657411300519,0.029515448876690442,0.5153868594644564,-0.24687687840738803,0.02630505226862212,0.6700472454746436,0.2652838375737119,0.4875693540174133,1.0793818934111066,-0.21765060915089762,0.20287035475434578,0.17832759900973016,0.13197749741875953,-0.1528345770311823,0.9045033374334377,-0.6176475403335431,0.3407490440460421,0.4511093202817271,-0.07477567082501935,0.35714920123595206,0.21505312637449947,1.989199339090952,1.861667425833211,0.6754342485390001,1.0704550231500427,1.2443308225995295,1.4587372315666425,0.9418971942383791,0.8593658537305426,1.7852070032253984,0.1550025766937395,-0.13306682068965614,1.2490137438058735,1.9263551222713495,2.247347629830415,1.5471523868679142,-0.12771037553666886,0.20470195670790048,0.2844624869825161,-0.5919034264666756,1.2162291445239735,-0.33807486490341,-0.260163318376323,-0.7065956377560081,0.6741496950708648,1.5668193960855703,-0.38884902836508317,-0.9723812138058054,1.3426349003789344,-1.2243057214981938,-0.8399421345832963,-0.28925990471751994,-0.18910865820152978,0.39150797273389415,0.1244274749748584,2.411430136064755,-0.029564761651874605,0.06615807922468342,-0.2963799419788735,0.23364768261911273,1.2780999911287,1.1928965596910075,0.6856803898957331,1.0518800477271153,1.6422173839722287,1.4789368815666073,0.7090796051818344,0.2973115260236199,2.0683423922164845,2.0256830946533633,1.1001320415181723,-0.06404702262509687,1.0078730386142318,2.03495423362191,1.1264463546958954,2.621487662230681,0.2737996762768198,1.8320113947589576,1.26210602864521,1.0558870213784228,0.8385209781733245,0.647202466976097,1.778703917333706,-0.3154243057840418,-0.6835688417963137,1.4623579119152996,0.16097557592479284,1.9565835551500967,0.2828255070634711,1.156974343080833,0.6254240714274335,1.705379239555242,1.8539207474647732,1.0881068689722255,1.4333102001048843,1.370531861018252,1.476473146991303,0.5242320986886675,1.1510417701571143,0.6567089118879181,-0.9154073616219005,0.8733794739068124,0.42213530228985263,-0.7925608118183725,-0.9517011961787176,2.057137518267707,-0.4428379390525663,-1.1140859072592377,0.18095719946258804,0.24871434335384635,-0.17357710161791573,-1.5988759222838969,-0.19040506947424696,-0.2649395211492518,-0.2795051306251324,0.1343681290130636,1.1336429242673685,-0.19666255315360104,0.2936842584493462,0.01884103227253142,0.19603775147899505,1.4273167373119264,0.42856659896755644,0.507657442060804,-0.5692042473545627,0.05043693216948775,0.1546333255476533,-0.8073410408311599,-0.011003591792267287,-3.877105335485947,0.21781331337816212,1.7105281444358553,-0.2863938918223674,-1.1717754990488078,-0.12177426961273241,-0.22022071107586072,0.13538214970135343,-0.7448366912186319,1.1339084718517611,0.8798828750977474,1.1188779462139564,-0.18953559562073963,0.8733280751781365,-0.1362593559703651,-1.2083078360162514,-2.2036631182233783,0.8792919978147147,0.9117979151218325,2.4012988474762906,1.4172200440161937,1.4313105899353076,0.16391494962189945,-0.05327450397052935,-0.1566952195964575,1.6999577726830388,0.755014522942492,0.5103808127608236,-0.12170119157449832,0.12524167092941596,0.8557533259701664,0.11768456525736504,0.14943829366232642,1.0135983114992406,0.85825995946003,0.5770064525697904,1.3994263642640306,1.2433201894156056,0.6612515132189785,0.8563524231515416,0.6788337048037896,0.9359916184864794,0.5157420268260147,1.0758896944187981,0.16655527831430383,0.04488911204005319,0.14046419955531952,0.20002200761850375,0.5329373009962204,0.32622706997908324,0.7598593838005723,0.6625826359373299,0.2956797668036977,-0.01660379614621199,0.6844592179830968,1.3392825250112939,0.14078665933642398,1.5258669565731644,1.205805874770391,1.1699235718138468,0.30705520435176226,-0.7461069639077795,1.7967426410580067,-0.24964462785373698,0.9082032307364454,1.7198079342631587,1.4527664044797657,0.6700503238692335,0.8164017298620294,0.3098254357397181,0.3062293683117492,1.7310281481219505,1.5670021281359965,0.9373300424501032,1.1249832002772902,1.9570481896819913
Batch1_Sch_Br_x30_pos_1-10_22.mzXML,0.2142340325771137,0.21468789420493906,-0.1893413909141497,-0.060685447297460726,0.18088664055654213,0.40715318621718666,-0.2901352756342881,-0.3443555931996425,-0.20959987102313704,0.2282327382865681,0.02110715535365415,0.03664675958203567,0.21969148941427719,-0.30705661551637675,1.1409300133952787,0.2065149563611346,-0.19939958201021213,0.49962809251717566,1.300093932750105,0.743173126170035,-0.49650780527824345,-0.03575122739527181,0.021396089398109552,-0.22332161098777092,-0.4760917180487656,-0.129575981375341,-0.4021360574935269,0.42005965139941814,0.18838917307445335,-0.04078127962011635,0.21808587911784372,-0.4026092707499398,0.4197175546657945,-0.33457553940383633,0.42603620856119306,-0.08477647197450722,0.4797898514016996,0.49319714869215403,-0.313227139897311,0.36385384456642456,0.034713276791976,0.25139420530872414,0.6395368487078095,0.5946552956891953,0.12785322323428083,-0.23903381530303847,0.2864783472054384,-0.43155682801847917,0.07889356229470934,0.7303162369848621,0.543001086565889,0.19375689661544548,0.3894919052480894,0.4308692228397728,0.708033339888571,0.6317623160627175,0.5358620158275755,0.10107138557671647,-0.5559341303073477,-0.08029584555783664,-0.1936793933727099,-0.08323278628518693,-0.00883391627028729,0.059080322338633806,-0.1960376764124252,0.5052637717482948,0.034600126455542224,-0.3248242998252806,0.8153571894066864,0.4767831319349316,-0.30400477210329946,-0.253779791952514,0.1676886779618858,0.6688342449865665,0.2578098736300234,0.6957697166692718,1.0371393460290808,0.3592292622280038,1.3594904957010812,0.9461353461687665,0.3805269720880933,-0.34623178545114364,0.4971122167191879,-0.32088227907477673,-0.6162237391091523,0.12358406476743333,0.26322597025976613,-0.0905473770125873,0.2846105250183637,0.22598234762770275,0.5526406700799598,-0.1847035041035614,0.24709328771390204,-0.2023397013455419,-0.2720578188745506,-0.39635528052294866,-0.2727436109014363,-0.005905223486676547,-0.01766931031903063,-0.33467761915322036,0.24694984872721015,0.3754776140100997,0.021197700072114856,0.2767953507234111,0.15531778285908437,0.258023437616675,-0.2705517649091149,0.48369298226371704,0.35530760596328825,0.8248233940868808,0.6526386656157985,0.12524424389196298,0.1309376810868148,0.16957937825709735,0.3167707310377956,0.3862425615407368,0.05162579414579227,-0.0815125856134209,0.14581720023997136,0.04395655566560208,0.40774817612752656,0.33994997645216785,0.16682630542950605,0.13455354960974475,0.17115674773996759,0.19974363050993205,0.7008200658056047,0.4353960120669491,0.24825409613655935,0.3337926927338515,0.5751047057020955,0.5161975075083483,0.6408240421893474,0.49691450836556683,0.4406945807615408,0.47961487976592565,0.2323560222131178,0.20799907406873785,0.1253764939706521,0.08856473740367221,0.1424800779311468,0.5111368018201041,0.003512302743413187,-0.25425773883807956,-0.19201441843333633,-0.3946850328889635,0.31891128560576476,0.09217683201173088,-0.16152486087379714,0.04099801237656209,0.12183345053036021,-0.07984664633489302,0.15306008814043537,0.33674906210272226,0.19969279204399903,0.10881496424713077,0.3261726776924334,0.18888008377870769,-0.3290546666308387,-0.15844557829195693,0.20750470752684436,0.10448019469952641,0.3631805647619011,0.20086588147245266,0.33112936570978135,-0.012346035142874356,0.1760716137885332,0.4392232604329145,0.1648367653264735,0.179043549815308,0.08052132545610746,0.27075978568340986,0.15418689351946213,0.12349454174209384,0.1995290000987513,0.08413431473202237,0.08918548190583664,0.25299692725702627,0.2108640563981865,0.07614991068910193,0.156881016868347,0.293272743780971,0.04135898970010743,-0.012566324419417185,0.18260395002099372,0.12136278365457898,0.34003174432244876,0.29976982904285165,0.051779099990517,0.12855678488334732,0.2384915172999058,0.1286173176688976,0.21146314813174172,0.08103065985098823,0.21244006068459953,0.37354863150124373,0.5570911116825794,0.14783757757311022,0.505207356836717,0.651187698255292,0.6309058176173306,0.6554917172446082,0.7624694848023896,0.39062763303097015,0.10405419342129818,0.07433849581866525,0.011572947063321237,0.6347074651501412,0.35011706084511474,0.3372163126292751,0.12937057734665913,0.18211096903159785,0.2585552343077939,0.22046053205876426,0.44636997075183515,0.12203877129596918,0.5693920950745355,0.3371759726115666,0.047997461322006885,0.28383197264875903,0.49190065143598005,0.33523156532567633,0.4512094463957226,0.44147601087282595,0.5758132818009898,0.5582978272373236,0.8740220547431541,0.5458909593953081,0.49533532320350915,-0.5375701803806496,-0.5505865791371622,-0.6965290724908204,-0.5966015370690272,-0.39007924108057246,0.5850480701781997,0.5381519178420593,0.4221582455983235,0.3795796558411002,0.5835567885073143,0.5612885492909498,0.3153191080377482,-0.000609547733061433,0.583014449242496,0.5308480910882736,0.4102020919178315,0.01674374379608068,0.27113460357878694,0.348801756776119,0.3675167898861531,0.6368207402701795,0.17556369268325867,0.3973271356869841,0.23519814651475457,0.6134133520635885,0.5793246869901072,0.14680696660210302,0.23826484470198928,0.3511945307936095,0.48053192394601574,0.22396780258871374,0.6021610971499101,0.4429525229871203,0.2895564513033726,0.36147118587335036,0.07739863047382833,0.12485296581149363,0.003448710465448812,-0.09763345296697956,0.26117931559905827,-0.11835469903950191,0.29307313875938945,-0.016600883428235846,0.8791213552852071,-0.12298881993715938,0.18436890513074644,0.13787303410549256,0.8828847438124203,0.7250050287003607,0.28818973746954946,0.8857260503298789,0.25329535722866936,0.3219693847489822,0.12276513379150877,0.4536915452408383,0.19284192881175244,0.46464404543278626,0.32906258509159514,0.08731563936827769,0.15730815861386915,0.02757193835726035,0.23212436313196783,0.34205287342194524,0.14124430520495146,0.39216182708740277,0.073894055736897,0.10807611829300079,-0.00695126712776073,-0.09784315277532762,0.18383082855959643,0.40320686961232965,0.1678390232028626,0.6772816694150663,0.4385597063073057,0.612515927721164,0.5825811847172808,0.7301761849437511,-0.3279045400714544,0.6433713147279629,0.25800824813648404,0.18348026870856415,0.3385067628562233,0.3821729032036192,0.3389619832034789,0.8753495928420474,0.8241812774638717,-0.03525445998433696,0.8436061731239128,-0.16876123182737324,-0.007001894241527751,0.3238717174429322,0.036202923813217325,0.5324145232158433,0.9466254710198339,0.20249007722232193,0.39788228396547254,0.07642381814426003,0.18706470644687911,0.5519504696631081,-0.056095484256037054,0.104856055201477,-0.1354237988863325,-0.19795078704245483,-0.2700711267857301,-0.2985621466374404,-0.0813769555698336,0.09792495340553664,0.8679660031352174,0.6428046471815847,1.0524711397185165,0.6275392538903866,0.7529496986168489,1.28923246449747,0.7782795994356455,0.9266327144361703,0.5657103954670184,0.7610160376961339,0.7878637870117338,1.1944904582345774,1.0065859635972423,0.5339611097882244,0.49374375081647415,0.35285284324472954,0.5098726283065815,0.33481910388989,0.43751653347642616,0.5305097208910823,0.46200575977906766,0.35164212027481234,0.26146942340754364,0.39070908698847084,0.41574053482952067,0.30458003915910226,0.2387841138900768,0.28448163548805283,0.46291732411632047,0.6858176693517208,0.12182299298306631,0.5276907025927091,0.5965098485084823,0.4226697989852344,0.3640774741952555,0.33013477770710153,0.6704033021256386,1.0352971261400565,0.6396108895566375,0.40701140808507574,0.25274193107438236,0.37283581357220363,0.8259655165400641
Batch1_Sch_Br_x30_pos_1-11_80.mzXML,-1.361222818729857,-1.6433890491307555,-1.2137850253312106,-0.9943826675271215,-1.2841125399661912,-1.498610465172419,-1.245360956073629,-1.3205607689057892,-1.040515309100888,-2.6810597275964376,-0.17392458919633746,0.44451498451777915,0.411246675682019,0.6702986914326061,-1.1057297029744344,-1.491489609847962,-1.8849417509694728,-1.282163402863917,-0.466687157949929,-1.2992800172675505,-1.4618419826728655,0.0038076129644171175,0.17860940043170181,0.14715768130659512,0.3048933147797186,0.11121396513358661,1.0312803856236794,0.5048053292529797,1.0991745347137503,1.2244462733335908,-0.6792825797770359,0.3830717620632278,-0.531373785160314,-0.04094896192167674,-0.5144486285024499,-0.13016263451467935,-0.33364932557547533,-0.0948681654365906,-0.3306929849163396,0.014026435779367574,0.08163841522730308,0.03908496797038552,-0.8432433896022804,-0.413948438572012,-0.5957281705764821,-0.8817191873977173,-1.435578073415174,-1.2212853811309436,-1.0911572735867399,-1.2922261599862832,-1.2365489909070249,-1.3434217251858431,-1.0861943766218687,-1.0707803826068396,-1.0355290281283924,-0.7330119772694079,-0.6187290392254567,0.2109584105679918,-0.3081531997136775,-0.2612717757706875,-0.3251190342612844,-0.40726219865468494,0.1529197194713916,0.14895789957849104,0.2330649272428662,0.1113203246185801,0.3000033683064043,0.21807529289380945,-0.8168255497099892,-0.8808771919916119,-1.2201075926404474,-0.993078674453221,-1.3864735103304007,-0.2922479603131247,-0.15003791620621953,-1.9970779227501136,-1.0173572523439365,-1.3355170602782156,-0.7616277315806759,-0.32487170335568827,-1.3357181853788838,-0.7322205246604163,2.226938291795669,-0.6427856169544963,0.4449865428352595,-0.1477770391851223,0.5707389891595369,-0.8225543695849229,-0.08749469117522146,-0.35015623349047686,-0.08460656000456623,0.5318973699337572,0.05374478787857129,-0.2890308191591693,-0.15420443804590533,-0.31818189180013157,-0.7830486993868568,-0.002383046495781471,-0.13370634409988824,-0.7703913843536334,0.25105318045031666,-0.23515575633191865,-0.4258194563866393,0.15976090494353024,0.38957577725375003,0.2328109336291142,-0.033331439872378965,0.06745796479490451,0.3969748572117524,0.3229757468489787,0.4157810333070575,-0.4899756891865579,0.6479810073023575,0.483244833616002,0.2714648076956223,0.47461489395322154,0.2020126346654294,0.3316559671736652,0.3798509917711783,0.5078531049779613,0.27094863327909735,0.12479954107461744,0.35439235137114444,-0.3307308178803403,-0.0529508991167269,-0.7586502393323826,-0.4321462857949534,0.5714360201697772,-0.21665282393644603,0.11276250942278665,0.17818979808847857,0.3931356677682807,-0.1260938542768386,-0.07915597419384213,0.09671848147969442,0.2505017280051778,-0.2071579663518648,-0.28619951004409216,0.36990934522912866,0.43686413250589773,0.36613036700936163,0.6462923851207556,0.2677416537349977,-0.2218026745850672,0.5391193328191086,0.5709402095094003,-1.2275018450545474,-0.8806749395685749,-0.4554029044624208,-0.41506846887944704,0.06545844704328019,-1.1300723306233067,-0.061116314171016484,-1.2216304005570429,-0.013753861059562666,0.2064952270701106,-0.5325680012211649,0.5371729810715227,0.05770681780237652,0.03868805690563093,0.31282753063130997,0.0657879752900179,0.38996351195673284,-0.15958846501425228,0.16690989201705975,-0.30935649370177565,-0.31369827078525603,0.734558458254682,-0.3136498969238417,-0.1971082342001047,0.11123724498487064,0.20344811225926662,-0.28102615498048067,-0.7496515779605133,-0.2432708946850184,-0.30621078547385494,-0.6075746668508017,0.17829070902164545,-0.06692422541184229,-0.4132912747036155,-0.35050016230832526,-0.31012213047911885,-0.5652688520415161,0.11321918045401347,-0.17050584515152067,-0.15863586101183458,0.07403677789016072,0.3057682901234706,-0.6311127811536252,0.019783661148160547,-0.055824811429580734,-0.1870360936162072,-0.2535002194714586,-0.23663172834286073,0.24947861580643504,-1.2058797704047919,-0.9155851775303265,-0.48527066715977796,-1.383577252827278,-1.1572464858218723,-1.2847185060909219,-1.2248982538227935,-1.0045589487765465,-1.0940259551597808,0.16409056472600625,0.2038374088043131,-0.5740582563573788,-0.0538768053718659,-0.6029198081024685,-0.5652687587807126,-0.4885250721861496,-0.3482442144872948,-0.19140766890422078,-0.09853355627016036,-1.1518830839248242,-0.11114934692674439,0.38088627522567187,-0.1447505234555031,-0.41061565654300836,-1.385879255402223,0.34696725844688814,0.09082104197419838,-1.0949566779200026,0.15442311426293287,0.059307520392810176,0.39694309355493473,0.5687704763461578,0.4665462179285562,-0.3537252415088705,-2.00019958952954,0.13115346805894568,0.01475008077789397,0.27676088575666924,1.0613522637247286,-1.4144134186862836,-1.1963448861448,-1.2970821089850002,-1.1256738619158124,-1.4573056074222066,-1.5978124396344633,-1.2321694953101066,-1.2855398904200417,-1.363574199638343,-1.4223522102985164,-1.0370214437980465,-0.34337435067121547,-0.8726580590348103,-1.5837611786591879,-0.9887430680121003,-1.8871429765258636,-0.5034244694573005,-1.4944435040993689,-1.368137039302491,-0.7637212872579457,-0.7266951881028323,-0.7810235856924752,-1.7315650075573839,-0.26423780530981844,0.0002586610155983493,-1.2986119357327688,-0.05384596189791502,-1.8627042562780343,-0.321466814139324,-1.3505941394981544,-0.3381709116379845,-1.3073704763742473,-1.2561584983983387,-0.84072793613913,-1.3116877610523137,-0.9535811521005719,-1.255219676069867,-0.6873780056856624,-1.0097144523496269,-0.5923855898922668,0.4270443062413545,-0.6784135557432496,0.6963207735767742,0.16609363071095373,0.4516811564424401,-0.18500713222304555,0.15396341571857697,0.37192324794810716,-0.15703618215528792,-0.2854349424839189,0.19431216931352324,0.6873736073478565,0.33405372745034256,0.053453163184393304,0.17998672291986395,-0.29276213450053845,-0.6207765956429867,0.17143862021130474,-0.5202777083079546,-0.0074445826343207955,-0.5528952223402612,-0.782905962461145,-0.39454752924147485,-0.38490527251378204,-0.04909016988306547,-0.3064668681835201,-0.46033647544751943,0.22139157067316972,0.2416796987388743,0.4767081681652563,-0.7298345678065523,-1.32385902923998,0.3772388396304187,0.43412172823672357,0.1271681353099936,0.3965218903962082,-0.17597506618562164,0.08995053571003453,-1.0675318285686597,-0.5869694977667272,-1.1585600116189667,0.0678042990055836,-0.7602178511667361,-0.2525793138116086,0.24326450360048923,0.9459751547330146,-0.7157803925959492,-1.088650336943278,-1.2352902463588933,-0.6144329369382664,-0.8021703453421463,-0.5054002878326962,0.011271161038584054,-0.44707681423523304,-1.2955530939991107,-0.6423165594507356,-0.6385193803939995,-0.3240513876185531,-0.746607652397806,-0.6239026054024883,-0.09819509112988101,-0.6665035788204854,-1.3935599171433104,-1.2822324693824037,-1.5798045130470033,-1.5621619725525413,-1.2674859375611671,-1.2227323521009552,-1.3515291761559816,-1.4436670444671584,-1.0801640524672216,-1.1692130614845233,-1.3169569270239592,-1.204202306609993,-0.8835570415066485,0.2585334259879364,-0.04805020042219965,-0.14709329169319574,-0.0747633239409744,-0.27450231366732325,-0.2059365364600012,-0.01429336514351931,0.41665306289506177,0.004589725376847653,-0.6263165270724613,-0.012218676305586484,-0.5501171669352338,-0.27269753266842756,-0.29855840510039755,0.07087165746900226,0.09888138880448416,-0.38921091197758173,0.18497400533805397,-0.37116091061193934,-0.9355827116740851,-0.5367010301086736,0.12487988998971034,0.35318098227633143,0.4326913939891739,0.3463212810584153,-0.7018048360341513,-0.7731274979222214,-0.22534720102050443,0.03909381018769942,-1.3953029787634748
Batch1_Sch_Br_x30_pos_1-12_15.mzXML,-0.5003180340398092,-0.15532731850789538,-0.7165114573406104,-0.5303691924413325,-0.5326641809930166,-0.4873701720946997,-0.7240900474124317,-0.35272281015695306,-0.8832471540805962,-0.5557527638141035,-0.7131209206502014,-0.4629327018882776,-0.5494886952069962,-0.48992128577027927,-0.34830495720040844,-1.1511592140771967,-1.843288377092529,-0.22933044563219696,-0.5221376070002375,-0.39872300572530506,-0.5401065665592526,-0.5295213696757806,-0.18867051882975616,-0.6418150164213756,-0.3680078002301528,-0.16288551885447156,-0.17795635620298889,0.13308108439532518,0.052762078570838256,0.046324773606972514,-0.6691823282356726,-0.6787125315715787,-0.8025098024721657,-0.7439865180088621,-0.5111836293737895,-0.5661109434293028,-0.3697312258265253,-0.15113488919690177,-0.8010624942173052,-0.45008495603198106,-0.20977854287477804,-0.6358746818449319,-1.63183907413012,-1.0725155893424052,-0.6782967823663704,-1.031883420811928,-1.903759953361325,-1.2525682420490565,-0.9502597091462128,-0.979691133014633,-0.6784283881440238,-0.4490364161089264,-0.5195858113880512,-0.20523823323372703,-0.19001689601580019,-0.5630044967567436,0.17138931380002909,-0.3853891805324512,0.11956692001449376,-0.786898625054345,-0.8878984356322714,-0.20148791936417432,-0.3266043067221691,-0.4161147970564034,-0.7678232162930172,-0.00222041814329188,-0.5577621709275178,-0.6949384141244845,-0.6456737684127472,-0.49157315856569994,-0.585301826433863,-0.7358315064911487,-0.06988612302600927,-0.13790823768273874,-0.23709564870246957,-0.13560755676027725,-0.45585836864065676,-0.8464723479138954,-0.06969351863859963,0.5135870889586762,-0.7301947192403428,-0.370176291034511,0.8726569441776721,-1.037026648870464,-0.6150524394285419,-0.03624071656558492,-0.39613020608043925,0.95413378013472,-0.6768876913343114,-0.1730832193148082,1.570221415073334,-0.2779949755172293,-0.4945340774757714,-0.1305423668795065,-0.435008659002845,-0.23131380897569898,-0.3630784765606858,-0.41819832715070504,-0.1834107054112728,-0.4460511068396027,0.04959597014292427,-0.3024040183326999,-0.01481055552953947,-0.14749092841475608,-0.03157614286022259,-0.18736206197933036,-0.22628313598580263,0.00041913503617863057,-0.1659145083810678,-0.33179367435567286,0.2011555676527763,-0.6127184584409981,-0.08748106013933565,-0.6460840617815542,-0.08269695826892765,-0.2183889141038513,-0.3057525290684602,-0.47680717488917423,-0.4218520941849402,-0.15558936920123045,0.2720802732057912,0.42104346343874255,-0.30630478871359834,0.09073019542084992,-0.13840237235465835,-0.2189466113273575,-0.02751241355156253,0.42222865354285943,-0.11343136153666222,0.15602783337525494,0.28061033574533667,0.6789020171652638,-0.349418680318653,0.10741916688355602,0.0891132549836815,0.14310802145967472,-0.11848682097519081,-0.345590429580092,-0.3273032108965488,-0.14770034671879628,0.05037488667336376,0.18651381523102728,-0.4813316057562247,0.2698225238593732,-0.17924406668232784,-0.25980055160400717,-0.3715161246786103,-0.24159700094664416,-0.3726284247740992,-0.4905697550722117,0.8136661844486106,-0.4337629433192234,-0.24446822381399613,-0.5630173519058985,-0.24705728711267128,0.2934151885049232,-0.22508679891610583,-0.056701197141119764,-0.25401385887556316,-0.2952262301786597,-0.16052581393684662,-0.5307643099298751,0.105342972201516,-0.32327114161915205,-0.3027222017067537,-0.5867970702241792,-0.3333687257756104,0.31535683264567993,-0.21295179151087495,-0.091375515311519,-0.09801056827540933,-0.058635173400151785,-0.27640525717563946,-0.4747497188298979,-0.1663828463790935,-0.1434619879546375,-0.3265543403958979,-0.19391716666047287,-0.2602741451027839,-0.33544909801813994,0.00704039996384509,-0.27616878806628087,-0.3427044348169943,-0.24953209139095733,-0.20022544903378403,-0.41523629579519294,0.13603285276272814,-0.030922585224434584,-0.20563788106906067,-0.22639739521055802,0.2872753960746195,-0.05962800140703095,-0.3435312496821723,0.037521308103492856,-0.26371168493790265,-0.7308816895796184,-0.44806501427071765,-0.6000094778901595,-0.5022916498023822,-0.4304040902665385,-0.5120398395933687,-0.4616119016560667,-0.22306106772964363,-0.771537687302958,-0.40310389813773995,-0.17771553831869547,0.4050255654349968,-0.6818307871197291,-0.15719495277763862,-0.6075271327606337,-0.08651958097290624,-0.08773735617426226,0.07579747114829694,0.12633986230316196,-0.10963300789572195,-0.2123533742594237,0.12561092987415812,0.085339272313254,-0.31817210741434643,-0.3830826853531182,0.052229889210368086,-0.026080139020134396,-0.4210786253071639,0.17528701616481612,0.3426844851773758,-0.1522755588218505,0.4860313408604906,-0.11619270325143205,0.32779919440787886,0.5740047637490253,-0.04968601491617264,-0.37255742361747757,-0.15006614530864582,-0.23871946352430484,-0.2677272795662038,-0.25006763576147506,-0.14265301826552523,-0.21395887076853626,-0.3329548736118415,-0.2467724883322866,-0.07731573213200704,-0.025621350654237318,-0.18603772768240923,-0.1999860392553625,-0.3347853498793061,-0.1539918949611554,-0.2705115224916579,-0.3599496480651929,-0.36468184369457113,-0.05014145666013725,-0.2729607783088639,-0.237692484365569,0.1812270200801116,-0.3284900399067343,-0.4523092636895125,-0.5592930000643417,-0.5892071124339378,-0.11122343300073467,0.03384875937770815,-0.6568269387692425,0.39837472927801265,-0.0267391817220215,-0.38011814343929906,-0.6674259310152575,-0.2524790163258164,-0.90710128672122,-0.8866005835700008,-0.6683632376482453,-0.6285576043549455,-0.7428986918877509,-0.752127344436655,-0.6512890198218493,-0.2968229884518756,-0.7619974084699059,-0.5064375732687694,-0.9520722289126571,-0.35683229604691036,0.6635548960272839,0.08842427629942406,-0.5443286041561421,-0.25590280703328716,0.05986261003830862,-0.34493130882132483,-0.41759395648461606,-0.5380374432621711,-0.1699710557148979,-0.37594770954748746,-0.2887017847433917,-0.6111342391926939,0.45677819517492324,-0.5639863307826438,-0.21368610130107868,-0.5299978264657508,0.3409198066097847,-0.11427405315595252,-0.4062404188079345,-0.5782501229156587,-0.04968109544664934,-0.02768360973750461,0.06273732634470974,-0.2849907687184654,0.4473045377582956,0.041636089058673775,-0.19794723385120427,-0.5133127873053525,-0.056234583240481584,-0.6557291769958766,0.5250714940471379,0.03660944248730402,-0.029556407314867528,-0.15331454768161024,0.1040928478986185,-0.4462906497892689,-0.23417018328666295,-0.10493454717263972,-0.3975725363983802,-0.398494298075283,-0.36819060068947884,-0.10198979192074731,0.2984862968493971,-0.5804385819904141,-0.700790659632542,-0.7147649085524321,-0.811755070219057,-0.9301404991186981,-0.8393029383880073,-0.26276643364732344,-0.02753776628053295,-1.2677933395629015,-0.5464435532040799,-0.7869163535434609,-0.07241104865875059,-0.07925822344650157,-0.42181614381491883,0.3840509504554461,0.21697912049521229,0.4629025622572893,0.014408308709036532,0.9109774556206549,-0.05197866783867866,-0.04248585440803154,0.9912496540173805,0.029874425937105542,0.34741913846887584,-0.0404188048560723,0.4140831332355859,-0.10198663525114782,0.7307525391071845,0.3644167926944597,0.13541295528373531,0.22742690041458147,-0.3210014529274545,0.006643135380512533,-0.4292474380675433,-0.5329105447431068,-0.15673181216288512,-0.02760931163516922,-0.6076065878936703,-0.6564484624228157,0.046207635734885955,-0.6219278684926586,-0.513928370854174,-0.7506612626543614,-0.4705617476073414,-0.2724344579383402,-1.15524967802655,-0.11218635456891768,-0.12906159524139937,-0.6325181743255541,-0.819662942889817,-0.8607563764702775,-0.23456336937798383,-0.19664583653641188,0.33919414177984564,-1.041872070430573,-0.9204087935298642,-0.7837063463468628,-0.32914028789197225,-0.6222195997090267
Batch1_Sch_Br_x30_pos_1-13_18.mzXML,1.0737878512000272,1.2721281840886984,0.7684088504972273,1.0529524589014674,1.087064208650153,1.1617907711048776,0.5734308461476623,1.1295806439590308,0.7751871127006282,0.6230457649415673,-0.9090989148383031,-1.11766538947127,-0.8493993140735014,-1.0861162668791593,0.9753802587304836,0.045587223554163,0.17555372930016588,0.9284575011517759,1.0977138642461295,1.0069411662163361,0.9091829512090452,-0.6452586424057429,-1.8643317540769573,-0.9439061184977469,-0.5023386932418532,-1.12179565477917,-1.334474131481791,-0.4334340502793186,-0.7781330931928103,-0.7010024345798929,-0.4466153011971663,-0.9020376651037196,0.18953534055249222,-0.36003049020394506,-0.09671356983910329,-0.3861207524801511,0.12702225296615133,-0.08681308738979965,-0.3494494751440982,-0.4165730581899023,0.5314473345484103,-0.5223603757133262,-0.5562431016640659,-2.102664443946832,0.3765712745246592,-0.5470288023964702,-0.08113566050801602,-0.32771638421571936,0.007822708470671458,0.811489454145919,0.6355862768190335,0.8369428573988742,0.8056029175601669,1.0830247231397756,0.9689234233781008,0.8126788920205392,1.0637436048699715,-0.29768360378923653,0.19941314793065423,0.7712816322602425,-0.501495226018589,0.2081746163001732,0.4698344855649985,-0.25550862683563835,-0.21383075594186174,-0.35247261616165915,0.32295698272540285,0.792167511628783,-0.05806809353354758,0.2419418518458798,0.8659416582302129,0.5651239689543424,1.1892864998147488,0.5503922684845008,0.7118126208301323,0.8222968902701435,0.7313303838202678,1.0735114008248274,0.41567097962142086,0.6233922335658697,0.7578205341273794,0.5974604332956233,0.16647865998555567,-0.018384672286540393,0.11376303408118282,0.3974557673355772,1.0107039442363153,-0.32625252244032055,0.14125288848393502,-0.6689387606668884,0.5095707766508095,-1.290009235267327,-0.028057289774555016,0.7152124041215622,0.9154343155699642,0.9257552429472433,0.7699318294182014,1.3120502878492744,1.1075950587524765,1.1952169785587294,1.1651004920320531,0.9197683315797871,0.9362597004125632,1.3209417637348917,0.6380657367617175,0.8554811425636615,0.9856706228786987,0.7979485037506002,1.0133867257460594,0.9068777295835613,0.7928136605496352,0.3921786784039334,-0.3087728868694235,-0.9585554044141311,-0.002634992466688857,0.02612069389736149,-0.3527127931960514,-0.8067930604226579,-0.5545049244179232,-0.046906295753002425,0.8184161039919715,0.5695758189007609,-0.47122964788996313,0.303997540578564,0.09315658783086533,0.3913700926380841,0.879039282050865,0.2079871926595125,-0.10326269490107265,0.06550790135065654,0.4931839198686738,0.41690166855249444,0.3185804879599452,0.5003484213990177,-0.4522461021676545,0.16424202935363041,0.1964897128168488,0.011387753561297842,-0.46128418789284,0.03870966307921009,-0.7114860353613874,0.38921961124859905,-0.29879347828646985,0.8566178994124503,-0.2673660193971603,-0.5224877759424622,0.6596985702353777,0.4744752821544935,-0.21943374887785438,-0.30965124352810136,-0.030316148703320778,0.2755129362102089,-0.15082404254262016,0.41741221750354285,-0.04643264039238204,0.09602994973209533,0.4103038996409083,-0.30711153676539205,-0.9305621791988337,-0.36334643768855024,-0.47141918859370335,-0.24868354978740115,-0.19589621898689202,-0.05119318389617078,0.029648354117831843,-0.20725702128863155,0.19144124604203228,-0.08716616505635244,0.06696983838131132,0.2570273808282906,0.19735152063799433,-0.14798448673974818,0.08633488629339325,0.30778702020468174,0.35847182850708137,0.13490754590834086,0.18726798499831432,0.06414802970917677,-0.22059203379302517,0.3090540790678311,0.3912767201315184,0.06357083417632126,0.2349707295930088,-0.08836250935361178,0.04663778038005617,-0.14195282364552497,0.7625727506890918,0.6463797589402951,0.33333979305760764,-0.06456551578522607,0.9314950085838163,0.24810726840559738,0.1940894613992672,0.7470962765014875,0.3136485828237241,0.4624645668237939,0.7286587069651045,-0.00518457797497085,0.5945268487898794,0.6673621321339027,0.7853004613292374,0.6926293415910543,1.0099346616618856,0.6174954411095648,0.15752294100208175,0.3400550056329976,1.2489779446461373,-0.003231473947920449,0.5912098182430157,0.2556998423045229,0.3540010294002425,0.3361546412954297,0.6125381638385843,0.37540098737079397,0.5592042703611675,0.2241991931850471,0.2546307702030095,0.07273885151451864,0.3741053640680594,0.2191194231504987,0.29730878223374546,-0.005288772407858744,0.286822586173356,0.01622682300307332,0.5742560747158585,-0.3067885409987152,0.6323093544353497,-0.0216058865547204,0.7114856214149263,1.354775344135886,0.25478133007555037,-0.31580673462592124,0.02178912676553857,-0.24552131615706507,0.7769300518513838,0.7218671521631244,0.7907454592865761,0.8474450028522487,0.9109989706807955,0.911790112225777,1.0027515124461246,0.3645834279636535,1.5220933752946006,0.9408070090223912,0.9880438999354944,0.19945526788585966,0.7636658574763935,0.8416724886634945,0.47639491239612397,1.177627951482549,0.16621410906870793,1.1639011707861187,0.8399807788763987,0.37803321792108946,-0.11663408145985343,0.1501561986071991,0.9735362849624565,0.3822814609283398,0.3771668819547127,0.32003066694538873,1.0143476006250136,1.0464372751791977,0.3405287764294407,1.2548545442281878,-0.5207116402280523,-0.11330834165331893,0.11017996591454704,0.19067856673875738,0.45252264009408094,0.23262208906997905,0.2946062397589664,0.24084214101547374,0.6860950898052316,-0.09208232563922181,-0.5877514179265209,-0.22041540638510426,0.6422962105952035,0.26023463893880994,-0.05030050807014774,0.6563974968043986,-0.36165613450200595,-0.28224556466616235,-0.32218085435200905,0.29008128899836017,-0.27144528764338816,0.13210704569136666,-0.18957692271290583,0.07253609436826736,-0.28106867808342173,0.8771725870106408,0.16947551349866607,-0.05564553931943195,-0.04390770742025829,1.0864935869345302,0.9423640478934541,0.3641534004971536,0.2066146814353047,0.5269252615997306,0.09364791280610874,0.4637550897911442,0.1746848464201669,0.8225898174817488,0.4163884942215539,1.6289212637863297,0.7990347184287536,0.9595889512901756,-0.5394276542531138,0.8590442470168451,0.2600625278505113,-0.17828193025470185,0.178977485608522,0.5102694436526036,0.4188203862089104,0.35293640297748574,0.5951169609713016,-0.35993848052531874,0.6423264368362158,-0.8999567367383623,-0.47333583198460616,-0.26537609513268556,0.16141665090187018,1.155647313415317,1.0097060230928339,-0.0456774252970078,0.9389614029745772,0.10024012955535966,0.6592243188651636,-0.2879235914663507,0.00023237109473228656,0.3901548809980202,0.373087151879254,0.030775438528817034,0.04709004854425913,-0.2052860934267713,0.8308961749681689,0.6845625830344328,0.8898760329341009,0.7741758605288354,1.7409421228391064,0.8141398780834024,0.792040185914356,2.0072159047911224,0.8857092409158476,1.1776367156258125,0.8248182626155494,1.5105461254411878,0.6527569249737937,1.4507791966784342,1.0779014256009916,0.22698841256320712,0.5637970866630937,0.23411154574730375,0.23672220060757354,0.4194375196997093,0.23563265391084443,0.6033474164388757,0.15205549895416048,0.060962823982912084,0.39042370920842373,0.2995629095751493,0.22469547641275156,0.3538410780454626,0.3381023876178624,0.14284319702857573,0.1950071734589205,-0.9328154930529191,0.23618971298001057,0.32391548284838834,0.7339754097592053,0.13984567102525602,-0.1308798050138833,0.18680718914371042,0.6046423468480313,0.8254286087572034,0.34250582152441744,0.30659984277562913,0.061544008546793094,0.6668162919294538,0.5638217798134733
Batch1_Sch_Br_x30_pos_1-14_34.mzXML,-0.160141466200713,-0.2829324485098432,-0.5509525376798887,-0.3400735321214672,-0.1878227475260683,-0.11283073462835524,-1.0334373038641687,-0.8591928543627283,-0.8135774998323999,-0.4736208298419662,-0.6891394733619691,-0.2829573218064212,-0.5382671925894016,-0.613025118399996,0.19378763569431712,-1.3261207285325032,-1.1251856896781849,-0.09036177301951653,-0.037111364976622596,-0.05305131136392305,-1.6042450914398376,-0.7653562169144852,-0.2807572262984639,-0.6038838377446822,-0.30374076157521124,-0.4928066911410731,-0.4990396454597086,-0.2764684097966228,-0.26319247211042196,-0.3365302996863484,-0.742806894532837,-0.9412175662423579,-0.4330654949174786,-0.6291837016874489,-0.18382591747458932,-0.6037902321550792,-0.06154458995536061,-0.043129898900273744,-0.49406228794373064,-0.3840754931658985,-0.1398512337296829,-1.1288451310562468,-1.194578960112615,-1.0096313345825223,-1.4086239513255254,-1.3709457010150246,-1.7301019745904185,-2.1327932003981775,-0.680615878579582,0.04587750960402737,-0.293571739360317,-0.38101937348255,-0.35876713589843945,-0.6461807278376952,0.0256206026486705,-0.020575513050292926,0.38845670160775825,-1.0919987810603509,-0.39898459319302404,-0.2994135637186979,-0.5353319879601255,-0.645071611507726,-0.04447238099970363,-0.6617996011969751,-0.25583926377212585,-0.30163154188437424,-1.7082012915223554,-0.7462145613862301,-0.7639453637375464,-1.1132067336017624,-0.73596427537443,-0.7503034774297497,-0.26879345810856137,-0.7079706351673014,-0.6121298681523335,-0.44701631294220867,-0.2982824215695885,-0.32283889889596296,-0.4046790593684335,0.0625977452376354,-0.4176904891712372,-0.6036481539775505,0.2226820640890601,-0.19676706874432526,-0.68447721377429,0.035372852051333226,-0.006282901687782783,0.189037030384398,-0.1559762030495495,-0.3519892893136518,0.3174269350309977,-0.5583068204897295,0.09176538189852579,-0.46230059991107275,-0.5487431731727792,-0.6357195780443323,-0.6459463192062014,-0.18381179959378002,-0.4696362893150905,-0.27558096734200355,0.03930781119104054,-1.1158358225839784,-0.6518360426690659,0.5713879562805193,0.0726803697266174,-0.28277632349477066,-0.3299554263169675,-0.5542328630724462,0.622796090594484,0.42469254731779493,0.72695967639992,-0.21489782719779882,0.5438599572252993,0.37298222911322654,0.22899960340628134,0.6035052139486581,0.06401261179949103,-0.3873963211183664,0.17112142864782598,0.5131270781844641,1.0531922946628924,0.514165172802274,-0.030883961333810106,-0.1104334425298461,-0.32570222040771313,-0.07828940739460677,-0.05351510006880744,0.12000923318468537,-0.6378426885138886,-0.22433103561170853,0.48834472585826205,0.004305922467718659,-0.0751746673024769,0.3792546771504348,-0.8278542882048079,0.15126016060252567,-0.41096824853662284,0.04350902001990775,-0.19797321810816726,0.25686571229562993,-0.4556503684540143,1.0628976856816763,-0.4234851163305713,0.43021316953824673,-0.11391579127550777,-0.6573483432277545,-0.2984239847072807,-0.20265436352952904,-0.9795013023809673,-0.9802642112528979,-0.3161555829981566,-0.6643193177335114,-0.5129859742762335,-0.511271503301991,-0.8014049618142121,-0.3608444634138017,-0.1928059687416095,0.3344800316976464,-0.0663290947659565,-0.5709967154079152,-0.12391103781607171,-0.49626999406484984,0.22874007750603198,-0.2825444333063949,-0.1202436679126393,-0.823663968270953,-0.20806631063873837,0.22504702726664405,-0.3069271382159755,0.016558812973723747,0.11782447177820288,0.14506759651824908,-0.22701302874373397,-0.41033532447717747,-0.09163133174823379,-0.2952433610285361,-0.4093425388841432,-0.06757568345226161,-0.5042878407310933,-0.340249247611462,-0.07080368786514057,-0.3632906164223204,-0.45239371992240507,-0.2768829769982126,-0.41235685772587516,-0.3402048209254893,0.5292396594571045,0.5736568239286051,-0.28457474562711127,-0.5085376304903484,0.29107324290335157,-0.3816426454401274,-0.34665745573586193,0.1855871015459023,0.3146473364560869,-0.7111924757825161,-0.34482813216718,-0.9096614279233304,-0.3189246997110544,-0.49111704619877017,-0.21266811085298798,-0.05647180916814776,0.09258837207818615,-0.5787058909151437,0.21460525656842577,0.25764413382853846,0.1298572016587176,-0.17421144277869516,-0.1212979371081726,-0.8234494702538768,-0.03601809935399203,-0.04525671722004532,-0.006655679737045617,0.0009085802398764997,-0.375495684779386,-0.02703306173220099,0.5688922055251009,-0.17640837221572525,-0.3935170067960687,-0.364501970448714,0.43522229937537915,-0.406754568121638,-0.4462310338786164,-0.2924112473018816,0.302049290179216,-0.8280599963859867,0.7669010736880715,0.3281009993371633,0.165036218276164,0.009429150108456241,0.10833522665914863,-0.3860767292507443,-0.05781318394636692,-0.1848713342010715,-0.29425404743411754,-0.10896153991821045,-0.3945141942979049,0.04759557267937531,-0.36014681728015496,-0.21616379022000842,-0.18388372027105504,-0.24090711171561274,0.035172228210980094,-0.4015563724209912,-0.02928015789956362,-0.09543368951076303,-0.2610066170981611,-0.3487365016481476,-0.4309020974343216,-0.04030871824240201,-0.2551991788885424,-0.4026093148544625,-0.48227727615928373,-0.5244421772323591,-1.0676334310946487,-0.7020110840575828,-0.1570566490360843,0.10154990615508552,0.3011484684551373,-0.726892974779263,-0.024840246856792092,-0.7806895684884552,-0.4800873963801795,0.027515933488590605,-0.40370549734173444,-0.8296908374768961,-0.8060709109882076,-0.5205205696359201,-0.5860998128538029,-0.6048683570832711,-0.6422855838694623,-0.48923074372811826,-0.1919082453755543,-0.7245779709603131,-0.36951797792553265,-0.7182799562205116,1.150095902614968,0.6996934418374359,-0.16515073456573326,-1.1473835691236989,-0.07818961225984467,0.23279593972113588,-0.15418495812681599,0.01969257930345414,-0.3205288248454785,0.3361708524601834,0.1833019825157809,-0.02422581502150578,-0.13027457546975896,0.40336033529811033,-0.4725226362020898,0.04561952903446809,-0.579392329200779,0.7643564147404405,-0.15340716636615248,-0.3429062531854168,-0.3578825474909415,-0.46425588038911236,-0.10158992237679243,-0.3050015403925066,-0.3508210643248546,0.7795772354534733,0.4895801392229515,0.06060463604683619,-0.3262140158948448,-0.12503504694216616,-1.5332649936902527,0.8414220126981213,0.26021864046378695,-0.5922566763802699,0.09872211673837938,0.3538201686364246,-0.5297422771848215,-0.2740463604211598,-0.4206068704849528,-0.6213875702582019,0.02378777619433059,-0.6736112660843059,-0.0558328678577773,0.1239573861937231,-0.5820765937113244,-0.11316177525075588,-0.7096925368855196,-0.7952524565055725,0.1922194004821396,-0.42356038214694536,0.30303831837563244,-0.22702116027759622,-1.36501094019677,-0.2611592554626778,-0.5523915590996822,0.09087014686976502,-0.6278380260412249,-0.17349716927968117,0.7221257031605397,-0.22199957271602244,-0.09300222237929745,-0.12568616810472122,0.06324733560038531,-0.1447047985412233,-0.14130738182164038,0.4628056083018741,0.1151570232935839,0.16182559777285377,-0.1421871268314181,0.03228804279781983,0.033718989280806966,0.4863335776543636,0.3631050588247291,-0.288904228073104,0.08716544388095926,-0.15679793330874148,0.23345950082154232,-0.11454377239024183,0.06346536314584839,0.403357394319233,0.3823501905501576,-0.10535349822175277,-0.36765788339404537,-0.22052435025142714,-0.30407379242016574,-0.21283875716769174,-0.35317167852234377,-0.19534432586419825,0.27336990388401716,-0.9105255504971499,-0.16120317477143864,-0.5343872984762488,-0.24830323690832223,-0.6679184336633224,-0.5233466120678543,-0.4909486106385401,0.5873640977939942,0.4046205935024858,-0.38898200120626747,-0.7012937669427437,-0.27303587762460957,0.34617079437141207,0.17650679544466819
Batch1_Sch_Br_x30_pos_1-15_81.mzXML,0.9235985415306729,0.8653852090356029,0.7662230245503938,0.862889636111202,0.8729432381741198,0.8993998213689114,0.456552744849283,0.6536563834364983,0.45039149653458566,0.8850372903981203,-0.29006312285036806,-0.06080764466662991,-0.1867411921079345,-0.448374927689116,1.0155787216579206,0.20993254492181457,0.03168729940145276,2.3613907880436376,1.487673965041962,1.5713597333006248,0.9107868720398322,-0.06301575810785032,-0.09904837097751518,-0.2578727489809616,-0.0049742075365557525,-0.367317267135169,-0.6854709662002847,0.22950815041708417,-0.02949986671224636,-0.34291547157085134,0.571892363224336,-0.40677716494553984,0.8597932360321856,0.019357391218917996,0.6222656356297556,-0.06505965237269429,0.7150769960536234,0.2894898477570198,-0.3842753918813724,-0.23199281530662041,0.10139087295882732,0.1309763679860172,0.48047905807925595,-0.4048306265800097,-0.2750732130830169,-0.8792959136290932,0.5658840416104773,-0.470810183647524,0.5691128659116185,0.5473848874144505,1.204313672883389,1.4921664288286074,0.9061716800923634,0.9840417955871565,1.4147238494499845,1.0809845667957614,0.7338981452292437,-0.4206317280131877,0.7397667302218061,-0.3546758260510252,-0.406548198079852,-0.22876113709379098,0.17368306159488434,-0.18506440747465547,-0.28769970310467663,-0.09549885634866229,0.7143934514452486,-1.7009375477573663,0.3124364966428228,0.8052634525403697,0.48973332344673715,0.415402070350531,1.0244598578260753,1.4168647838776085,0.8402063680396363,1.6686733859453486,1.3629075891744673,1.222416719343169,1.1671033967497397,0.5685230621125292,0.8793261875657663,0.3922095031466988,-1.1175961931398373,0.6503784258407048,0.5558847793682613,0.07387788250747285,0.3729774350095827,0.41219945342590236,-0.11352162462319804,-0.0629814144456553,0.022408001918343246,-0.37639044146779277,0.3631913380050804,0.13269918471340958,0.24724358512002276,0.23492732583020626,0.30480695533591806,0.3060829166545602,0.3662748625386012,0.0664189132489934,0.4817818477034326,0.26992484466014943,0.04004262187523011,0.4985265485926629,0.1071819592527703,0.039110812222084235,0.45162177670401427,-0.2835650999599153,1.069474449835024,-0.5592886047044487,0.24567051382017802,0.4428719421327756,-0.07956022719189271,-0.5124337370633789,0.4690726587268834,0.06619016106217224,-0.09242048853831264,-0.44882967460250534,-0.28703790586383704,0.19832637378076434,0.8037510571094657,0.3559977279354669,-0.3403826399304517,0.38080801073854076,0.2367161572407248,0.535573811718038,0.7907625283604602,0.36509382879505026,0.019588194114088964,0.13004165516705157,0.6793121521956174,0.3729982725616132,0.5854428448147075,0.6229464834790512,-0.00876529092171019,0.5002192517311901,0.393637619160522,0.3257730173655631,-0.17163877104374947,0.47500593067740304,0.11733680853757633,0.5214151626617678,-0.1955041469083163,1.406227609850637,0.030117031070446387,-0.5925469420386804,0.8423096546959208,0.6393604992517723,0.021761631854893437,-0.06655283661270417,-0.04370270175449065,1.3953452568249887,0.2167258789192985,0.8920260528289674,-0.08904695501395743,0.26975326029546665,0.504239568997491,-0.10963019092088011,0.15447162337584963,0.07144423130567645,-0.1902236894491658,0.014161089460927201,-0.05840761085095991,0.04126605715191545,0.21336357439652076,0.1484050814410498,0.19251344704410656,-0.1602617052366746,-0.02707329192242014,0.28893506383628775,0.3859889651223263,-0.010285977338124752,0.038779463313215246,0.38301163636810287,0.31897474488371813,0.008486095929260529,0.16094693032915686,0.1609872743217089,-0.21743589274585595,0.3916731978352921,0.35070303205480613,0.07818164918224468,0.2304437352040054,0.8499111007692832,0.02400286151396358,-0.17971831291823648,0.5689969910950019,0.48840547979897764,0.6130209914115667,-0.1934143370588366,0.5823107379378101,0.20270691795264284,0.3035722692820144,0.42914053813737496,0.24686460245880681,0.510874475169242,0.7942910937122036,0.039312068870383854,0.058546669684808705,0.3241915592072182,0.3962115768942649,0.29608052929559747,0.5639816677120049,0.1633890028193683,0.015368852790800247,0.3288702215582102,0.6540672475255072,0.4586924759151465,0.772341856750483,0.43827638739406183,0.48634594573824685,0.6346130416018987,1.2128711056592287,0.32724138886762155,0.8297987250095158,0.5822280430503852,0.4809394980620656,0.3712644088119337,0.3949883414521036,0.641058496373109,0.5648765871071149,0.041778906264029914,0.9347993973436974,0.12268274669290946,0.5151757856754173,0.1899719061221301,0.5088648175809407,0.21597596597462143,0.5564277263326254,1.5774824309395648,0.47020417021841965,-0.005419427122193454,0.14112062421432903,-0.18202246640072417,1.1684644879155623,1.2641958382558691,1.0343824107017205,1.02882668300545,1.1254399261232049,1.1525854985602422,1.2981719354912542,0.7538927126180628,1.5299915155355794,1.0803318163972744,1.1343114797389209,0.2817516990052802,0.6689530221361473,1.0672775414975,0.6901331504130699,1.4596860692945217,0.3027545083257053,1.1841022303473316,1.5551109005295203,0.43905812376425146,-0.12409125203483384,0.2833793325030811,0.9913090831296802,0.48682624471290836,0.595583478780668,0.6082414239517799,0.5441090979349585,0.9610247075003393,0.4401974649456619,1.2650702352466556,-0.04842600506343153,0.3425373422721467,0.2461190712996384,0.4055476756779228,0.521759149190693,0.162881431794764,0.26728728325784346,0.23731591311366884,0.9265731966034068,-0.1971439428531614,-0.7394600569956467,-0.2380796813860453,0.5320163227755579,0.06174394228655622,-0.07280568984035263,-0.0400054758666073,-0.04810239764131197,-0.027732681792819847,0.15324416903350802,0.40320363147953664,-0.09329087472957909,-0.24589429042363342,-0.0019354180805439825,0.20712992170163602,-0.14139376851570518,0.8826648687211645,0.09450003694436049,-0.1548570956970572,-0.021632939096768666,0.8015559618305979,0.03813959429618663,0.5864632271150718,-0.30484862774723354,0.22845885119428821,0.31314689399966866,0.8190751618297334,0.38711532221479317,0.8165528878464876,0.6224191540117694,0.7771487278990428,1.001889202117063,1.1967647110254092,-0.2032796458451962,0.7086634742164719,0.24035415185873177,-0.02635396734384443,0.32689334206891196,0.3281373083971406,0.6007848180958213,0.9444440500820797,0.7605478070746692,-0.7893470554015334,0.8772105150871727,-0.01829789458835762,-0.36465204571433674,-0.1326948129070491,0.15598162645554936,1.1836196777640051,1.4134871302774759,-0.0911379492675728,0.9134517645017226,-0.1407906755524415,0.5757167378176575,-0.7481290240393577,-0.5157538762454248,0.3336204016791431,0.2987727000075999,0.8304426990762472,0.4146430092991942,0.5175962477890224,1.390146896231359,0.95954023944598,1.0096777357234998,0.9046914509019572,1.6637662436966796,1.1758485456358194,1.0413932149634206,1.9487952214688082,1.2682225228117012,1.531024059920167,1.027253043406521,1.4868300317546392,1.0003973960123282,1.8391265632779668,1.452188737133305,-0.26123044597076905,-0.03408673454283573,-0.050338301302325306,0.08603129361093309,0.09735991049197956,0.038681808885996816,0.3003556493300259,-0.18872406365702865,-0.001655207889633914,-0.1331569399168977,-0.2609977889396671,-0.2253681376770693,0.06726158782823077,0.0834777479436184,-0.32418127145474074,-0.3608504743653711,-1.0389408649431697,-0.2154321125178953,-0.1560910106929274,0.40581567055052226,-0.12589024441376573,-0.3698669916975277,-0.33430653374508523,0.16079979935824085,-0.2989762341344999,0.10284592554802074,0.018590649295454398,0.0550152135566222,0.004576158359748561,0.34310939309425237
Batch1_Sch_Br_x30_pos_1-16_38.mzXML,-0.4130536336471913,-0.4321783217055657,-0.43394446131415165,-0.5033002153140309,-0.4584908689635281,-0.31015486146165294,-0.5781061434555319,-0.610241905856892,-0.5325902303061394,-0.5490807651410936,-0.1537569264260803,-0.011180405394538795,0.12455874391477906,-0.033849124707831635,0.1678160593288638,-0.9902289875371135,-1.1055831354702423,0.05725192276546842,0.1567581417328494,-0.2977824240074014,-0.15947488973282908,-0.23418536778889454,-0.30453013240188653,-0.20392545751556668,-0.24750496889628337,0.09209677910235037,0.1358013633461823,0.41678961202676135,0.3917056887816699,0.3830252477141336,-0.4929097894102288,-0.504732885506483,-0.2996876355424263,-0.34498514669662406,-0.0512375566699248,-0.36850265892841527,0.13280619412490147,0.1053911192358381,-0.6008110007136747,-0.015670947690869852,-0.18126679138640966,-0.0834329050150604,-0.9175369969891864,-0.5805956940693697,-1.083190721798612,-1.1490927483772477,-1.4314498071561914,-1.0878988837901833,-1.1713530320402938,-0.17663842881518477,-0.2718112341963952,-0.4756812284941194,-0.5582082206861738,-0.4490198054390042,-0.3080137729694741,-0.13386627603581758,0.2564973471975591,-0.20332692204331693,-0.5813365602563927,-0.5484483259185353,-0.5477948055559985,-0.20874237475117852,-0.06882410050913634,0.039502380519989444,-1.4864755780509036,0.10988414967618887,-0.2760209833816294,-0.7843943705994079,-0.136302874695998,-0.465195227818187,-0.6551388344649993,-0.3794410632502654,-0.2411422418286051,0.6937497286170569,-0.0773032057192733,-0.703239818959025,0.10660519622726028,-0.35719731443300695,0.5481943133864711,0.6970546065228671,-0.5216177351617883,-0.6642750833193087,0.9992333210257698,-0.35404642737200653,-0.30714797768680846,-0.20583443365507392,0.16249369032074057,-0.10195732626363174,0.054419442121306005,-0.07241862203325944,0.2581327788589487,-0.07960912143108345,0.028948174714306774,-0.29100054938520437,-0.20374245854621797,-0.35064663639728444,-0.46025954713631556,-1.0782923302724914,-0.25340994130407424,-0.4582238846386435,-0.23818382693725226,0.13238126524884564,-0.27617173107433324,-0.06884854484242453,0.13698353638604566,0.030169910792187338,-0.42376405932902195,-0.18290709024100416,-0.29202935664005736,-0.20445069844786268,0.4485707218298973,-0.29164081355311566,0.2565465884974447,-0.3059438389504656,0.22711353103815313,0.37263746352887317,0.08519600977133379,-0.19429188366313355,0.20941915142952894,0.22771505104315537,0.4778011594234002,0.41693904859390685,0.2459628681136774,-0.13006614236478242,-0.1726696836317494,-0.35980304571425137,-0.1693612436020686,0.27711779427874106,-0.16842188531127888,0.12064923981304077,0.3582681340024223,0.43881719712799594,-0.28097271397332335,0.1353181944067643,0.2380960301799746,0.1294598873852042,-0.10492770031812881,-0.16413954383053309,0.15554701788548897,0.022132168346812975,0.2722890513698353,0.549062827354593,-0.05391389891968146,0.5079721608006018,0.19347369726778396,0.07640944732919053,-0.5221442995663423,-0.4863840328262192,-0.4306310669626221,-0.4172378355506794,0.0010748271873524118,-0.568853717439513,-0.16516106830854582,-0.7723409131065537,-0.3349194289756845,0.03434351100577615,-0.15885740760032618,0.36133528359642675,-0.46736992430076896,0.015761145964454215,0.14178248372116542,-0.1568598072188081,0.3130332459215772,-0.04381964962182394,0.08264771037505625,-0.2062518634977284,-0.09231089315384722,0.5035062573289188,-0.060575950595204375,0.010290889100264877,0.09129342453659817,0.7448455374344611,-0.1023990512240367,-0.3960881699177854,-0.053566787795915616,-0.11925789680914178,-0.26527782513589315,-0.04627686266791642,-0.10020336412172881,-0.276926111939769,-0.06681443891735483,0.05776327282289273,-0.35329910688721355,-0.07900590898416127,-0.10260930386835554,-0.08743294286944803,0.25725223521930474,0.3218592641170801,-0.2869728420444382,0.02163852669794153,0.15079496704577622,-0.27883964256199434,-0.07834853738911463,-0.03793252742561748,0.13742501557450382,-0.3588596442921368,0.0123319240099935,-0.28893220152151144,-0.1037262050736949,0.025837068899893012,0.015538631710651174,0.07391774162946163,0.3408656253703928,-0.09350422273144154,0.0022857992257918625,0.05847520620948643,-0.6705762040296239,-0.18398773947781777,0.05158003755005858,-0.38666418562042715,-0.1495739878401654,-0.14314874587858384,-0.032055160798877935,-0.11185827883439536,-0.4614898984740101,-0.10682156695875378,0.3082361572671637,0.0416774025949298,-0.44718479714372705,-0.415553784823409,0.2915394093616577,0.03976978892783656,-0.47304015114681164,0.13299340083046474,0.25095318890549834,-0.06782317817562244,0.5633044982828945,0.3556753241662918,0.057178465442911275,-0.7227424062652137,0.18455474267337735,-0.10306287571033401,0.24925281610327588,0.038825232522624376,-0.47079763554718745,-0.24244857020202737,-0.4980467329292768,-0.43667518581847453,-0.48111584789541517,-0.46222164937136156,-0.4520483236820425,-0.17742568670705694,-0.47809003335055067,-0.6620929517287362,-0.39568613619441173,-0.21481237390360874,-0.31786894422643286,-0.5403969263599322,-0.46513142880201563,-0.28904749518955164,-0.2837635915992749,-0.36435685225583114,-0.3689987968284463,-0.211964410652282,-0.5131714638577005,-0.5131959104382577,-0.6022386972017806,-0.03773057605987162,0.1289817442938812,-0.5828305957030331,0.25441455838591054,0.08190124242893759,-0.3794312368285304,-0.1497453623163345,-0.41334971475086135,-0.11879822532399054,-0.6832842423143077,-0.48370004680569423,-0.5207425697213957,-0.5152164788149296,-0.47581465025335135,-0.4015423357231036,-0.031003101278013645,-0.44916866511877096,0.09980807292145322,-0.5356103922664044,1.0574547005839339,0.6125209856036644,-0.06495902960168998,0.22206187702765945,0.20175294278167044,0.356633420703627,-0.12451202343322088,-0.14210980990116795,-0.04486418492619393,0.4516468594019045,0.13083457138898602,-0.03191961552992595,-0.06808371505945487,-0.228601938054517,-0.4337082983517515,0.197761487269414,-0.5489914347822804,0.2910912717862697,0.06566543963373483,-0.3312679441011035,-0.2802624553308348,-0.24786507136662905,0.11340392261080368,0.002159070333430435,-0.18202235273715317,0.4389483669456027,0.29432245592319717,-0.3451367482970227,-0.7073562987433526,-0.4768133417903506,-0.6272121851228114,0.49214785628790736,0.08993065857586302,0.025870656012006776,-0.2297424820831626,0.13609176003277845,-0.2771708427184407,-0.2963412724459076,-0.1818773581750346,-0.0577497201382684,0.14774207485510615,-0.196217130083161,0.09641226562145455,0.43355439381933536,-0.3756271952646948,-0.0013669913257512434,-0.4553935114492269,-0.3682142066309435,-0.5419543861091061,-0.6612718777427258,0.09199697103406379,0.3319732451913602,-0.9667707632367382,-0.47769578357877407,-0.3587977815663965,-0.4488759279129795,-0.8778992230144382,-0.5914131839420307,-0.19472949414044294,-0.30597414057064576,-0.14774270231364994,-0.38572084680791896,0.07272891789918745,-0.2901062711387148,-0.3760416033988605,-0.2438336384894999,-0.14393971661269944,0.05872433543705924,-0.4132115731865653,-0.4923885803096564,-0.222297719888779,0.39470180955507495,0.10101298152302718,-0.07406545118607433,0.054840360038177494,-0.14809677503765784,0.0005307632212758762,-0.3219437767030371,-0.2611249574810586,0.01864749049495984,0.14277468851692987,0.019237195901730786,-0.38859667696603495,-0.08221879798768228,-0.16782844907575623,-0.28545599965098845,-0.40689090749145507,-0.10431941527621902,0.1780156653633913,-0.5192540846231068,-0.020738719799737737,-0.1063229003044448,-0.4238842972998853,-0.480241495554683,-0.3217480119776859,-0.05977734257675493,0.27602106265938886,1.0995633006511678,-0.4524170331486541,-0.5994816180154316,-0.39945731712965404,-0.024864274808569675,-0.29839192456628183
Batch1_Sch_Br_x30_pos_1-17_73.mzXML,0.8784047415368477,1.5552708803178508,0.40856013065676144,0.352751677594652,0.7734723413987581,1.420597310658641,0.9100569219992316,2.050426291608856,1.250441004270181,2.0470947852328507,0.6945695896906585,0.12310063977887609,0.36283847987105844,-0.12254424126549068,1.7935004294696153,1.9024512645256042,1.7630380258372416,2.366037243809318,2.141724459961976,2.6446002804602102,2.2049953892735523,0.3972531105412038,0.8567243331052534,0.38748066562896355,0.36591887979523463,0.6768804392354024,-0.313681639463109,0.7154070184874719,-0.5663606639604559,-0.5524416877183072,1.9024860450358982,0.44202002526476214,1.7568493493223087,1.02961866164455,1.9078398749510335,1.2570854931985576,1.4852448735587682,1.2617763462147913,-0.04844989841725322,0.08565143806955078,-0.3484683841927474,-0.054834545074095686,1.8715009301353263,0.7264203993014284,0.603952468582186,0.4303863309750362,1.43617363853064,1.3381964067174152,2.366960416314507,1.9755196037435088,2.079936766913743,2.168151262665681,2.3546192302262803,2.3534953166138184,2.026593484393178,2.1610276423000343,0.9546035948343761,-0.37091176820872285,-0.004545914814794827,0.9082530176139301,-0.03028215702583381,0.3189841616391753,-0.3727512836214917,0.11019437556733358,0.06234027911559359,0.4855756472672681,-0.48873701891594656,-0.18787166003362898,1.1717651290683868,0.9757717802354087,1.071773299279224,0.3937444698915282,1.6367798556575526,1.2222354779538698,1.4039687879436968,2.813133195054391,2.255664084994704,2.359018344905575,1.4901942671632629,0.8850839913774244,1.6760714169819835,0.8681592943699403,-3.2229514478145536,1.3733396097890491,0.6734803726059244,0.498350789328315,0.43384640713611944,1.3384187355846269,0.37752774055844895,0.8944116313415016,0.08591842193296095,0.027021739020463897,0.4884664776191645,0.031418819241457285,0.10735592692131313,-0.19371130739639675,0.021068019366602186,-0.13705877763614716,0.06592547505892732,0.12146205158276224,-0.14761687658668876,-0.21386717217492546,0.6800652011829165,0.14232412893926316,-0.16542203658011445,0.19514190182470514,0.003683774947960572,0.959435865530379,0.18075173142027445,-0.39297053527150005,0.1875191381629424,0.9177645924194877,-0.678911119607644,-0.14422827754744105,-0.24310892257922312,-0.4909127291632043,0.05246584044994762,-0.2388394190464087,-0.07943670036172534,-0.21525839220829823,-0.4575953726259385,-0.7867149571505383,-0.01918057199290324,0.4286022436835317,0.42110310752297764,0.9251371311171823,0.5638910486034554,-0.08364490083985032,0.6743108626044396,0.23279737985805582,0.40066441746355963,0.18477698403346565,1.1014972995438264,0.3383919708967227,0.8750352834260582,0.26068249580538705,0.46485071304249814,0.6101244239866404,0.08482994835327062,0.07498416411097075,0.2875207346050441,0.01514896024223944,0.38634165202321924,-0.6934262553246171,-0.37093147439576946,-0.5274513006409673,1.519857992263784,0.7913795022551611,0.7187522671945175,0.9631736483209892,0.08411481912352059,1.0444965816764409,0.6236663510620666,1.6125201349076335,0.6945583777342552,0.27322465976612165,0.8494531194450907,-0.21507894966606678,-0.0051919687339267995,-0.06715803687473532,-0.14606027515227638,0.1005638948177463,-0.2493052372912956,0.2012637253982419,-0.15301096079026166,0.3475086413403563,0.26657616007095797,-0.8534153041597001,0.2270698458930589,0.07402389169428147,-0.2868586513852982,0.44593152316645046,0.2585159493722884,0.8350875676502305,0.16726983100435966,0.19280773493656866,0.5368352338557436,-0.0969952991927876,0.2613986370757466,0.3332319083150317,0.21017008607216425,0.617090543708013,0.4957563490710193,-0.2871331962443229,0.4247936646015056,0.0627254651385627,-0.27046707164337036,-0.5231249416403987,0.2401593272156788,-0.2409954756963728,-0.3421557744780337,-0.0885961805688602,-0.11390807953960547,-0.4059535514921464,-0.3183571561167149,1.2736294225985922,1.3261932647076424,0.7278591375352566,1.1544777726848814,1.0640661474831674,1.2265045275442663,1.1677478965410408,0.6525625347598005,0.8775426218733529,-0.5783779512140974,-0.7702998633610907,-0.7237859353759646,1.1969317787248013,1.5857369890491366,1.771745474849462,0.5645715832473108,0.4838887752290155,0.4835675907339354,0.23393857218756509,1.486751027875794,0.14433326813897196,0.07802695029243978,0.5407702368661411,1.039582924236397,1.2252379742953785,0.1255259204036694,0.3395710253325124,1.444847999911568,0.3654059563539036,0.3479433588260257,0.7921934199965772,0.563946613903962,0.11572260204858154,0.48925185405575355,1.037834609128657,-0.5965064914017546,-0.5484706508562898,-0.576787145849373,-0.4931612782587127,1.86154632099292,1.8405369602420567,1.5251200785682393,1.4688321812436431,2.0331929435208433,1.9407781581113888,1.1633917075577926,0.2080680196508311,2.1002797193360276,2.036839044009213,1.3990022584072062,0.38628894417734116,1.2502125635452046,1.8956085131370841,1.5169789399329243,2.479153681992301,0.9049360469216374,1.7233609591047738,2.005005749729957,1.703219045423431,1.6430380170841623,1.4923523726136594,2.0178868370628376,0.48713107742050354,0.21103429948264285,1.7628674469970917,0.4208615986031585,2.285775020580523,1.0766899309867703,1.3018169144557952,0.5259381756977337,1.2230715991688133,1.5226720773214204,0.9131962503604782,1.4554976782824873,1.1237308234116004,1.5439192215377773,0.6973550551947909,1.4989147089455201,0.7985534718633911,-0.33529046044105115,0.9414938549532224,-0.0936937497121697,-0.5007992965941384,-0.4836386339273009,2.1659866995662025,-0.22615857422928798,-0.26527896340800083,0.23312585946639075,0.18501007930581714,0.05375620961730476,-0.7603341702974884,-0.09784054067784531,-0.06525353276645873,-0.17220738065785213,-0.4428439385843248,0.6431222812771953,-0.054941303865870594,0.4120482950101483,-0.2982245547135651,-0.3905361304748123,0.8603995304709713,0.003151612250839264,-0.0022379124846203524,0.28037787772346334,0.6280285699059203,0.5782444825388424,0.22524211357791302,0.08442678894821753,-0.8747232848108624,1.734704574603903,1.3454918820798198,0.5365890494441992,0.08721344955528032,0.36583331683290865,0.17730242873849633,0.46308824540374616,-0.15343074998085626,1.1976965034981646,1.7778083453059992,1.8449807756768273,-0.3820999537306111,1.4843063593788486,0.7012624019722882,-0.41182488909388937,-0.9567451856092593,0.8749408306480184,1.0886187075540388,2.513881161872691,1.2729984359917772,1.81292669949522,0.842578703113718,0.09614646789350623,-0.32361709034879205,1.909807229577586,0.6882455256061188,-0.08753716945924062,0.2850538842475032,0.6978922134926684,0.44342328635395845,-0.000407522352638523,0.7706470405419612,2.0791224627433067,1.8767724623937703,1.8124874746948691,1.9713534002232542,2.1240658911901527,2.06322249452049,1.8041003367355692,1.6467929123897882,2.3453777241193983,1.7803175943633711,2.011224521315466,1.632477967598561,1.4090273127610473,-0.3808937691790586,-0.14338331041326313,-0.15380977833977383,-0.059814506647946075,0.2860501812630609,0.10945820494286451,-0.38208058781711784,-0.49576241902152773,-0.47277995427592856,0.4960667437205828,-0.02941507432703716,0.5900202943664858,0.36823896161562786,0.13362983408061524,-0.15918451049492788,-0.9240753651910971,1.0344683766105796,-0.023226411022523763,0.5309553407189682,0.9113331028285447,0.9573563375098946,0.05581152317907012,-0.2915163261959428,-0.5608287357074246,-0.4065149309647964,1.1080010917596823,1.297681145841306,0.41586775952848143,-0.367049608172195,1.6540299158534406
Batch1_Sch_Br_x30_pos_1-18_42.mzXML,0.186288918397004,0.23094746630303398,0.11484324830495574,0.16544931988759615,0.18179538316882748,0.4071811014554889,0.09587303283574045,0.6453348415860329,0.2973200292171647,0.31321742634379923,0.10216293059197312,-0.26153601409895266,0.1531136020864956,-0.563011467540619,1.0397812702253688,0.14082086680307349,0.16412556264406852,0.21585941669203734,0.6273876689099929,0.4819835558079504,0.46145182008138796,-0.26157115593396796,-0.06308831015783412,-0.3362681319977554,-0.5467720809408974,0.2800281669015785,-0.5222128225968099,0.5420956494327012,-0.165421995110707,-0.1532698488419797,0.13304072145492185,-0.6754182689337771,0.3123779906092654,-1.057568254708677,0.2514375298867755,-0.3665715846231272,0.21641069480106445,0.22371323265272913,-0.5214411253194395,0.04705299148223041,-0.12260770831430534,0.40191400871185046,0.09951448150038011,-0.5921785905456787,0.4375798998001912,-0.15894881787262705,-0.061956147185386,-0.596926390799366,-0.2542879057296368,1.1551391559443385,0.3902887730620499,0.12597150315379224,-0.06561531387004216,0.013694949876139617,0.3488786631777767,0.43073274798642025,0.3387254215600599,0.396917540371879,-0.5329135240981451,-0.8399734656720135,-0.5454455899371666,-0.7308618971576291,-0.26803240601779876,0.39732342711198854,0.23906205017727977,0.2048047241578299,1.1045620527368083,0.24840122931612285,0.6437862673028469,0.718031790781966,0.6267325687379888,0.12010426523529638,0.272296401232623,-0.11411901931672652,0.01071100925677193,0.5178114089389609,0.6680119803515048,-0.6345671385532299,1.131167300426542,0.9861503753972514,-0.27804388906628574,-0.02792992442032549,-0.53291195189421,-0.36050783225081773,-0.5261033954098604,-0.09893991341065167,0.07966477924830961,-1.7982110263874578,-0.027004295530469236,0.08243621038606364,0.20109551360947897,-0.6455726472117416,0.26686051562889723,0.028163163513298173,-0.15874598909165272,-0.3182183208841831,-0.3967980930525279,-0.09605745650273789,0.10800746787227133,-0.42885888098786396,0.076814115167128,-0.08373528182470125,-0.3244615426977884,0.035316024178772665,0.08879269132778944,0.18664680717241922,0.3057086076187243,0.4093392355876748,0.32435582771314664,0.429077989215946,0.2799561016244514,-0.019195627779744484,-0.02729011106467283,-0.5860636982259422,0.13840879055487676,0.7585489849626956,0.1276576151180322,-0.5039994614359848,0.22127985237026948,0.3206180803252998,0.47848631651051576,0.23752194506822377,0.19231279255763312,0.006758498014672654,-0.004448160748463437,-0.042401657201640575,0.07515569260602106,0.26482856953494505,-0.024641428797064435,0.12415492637595449,0.3819723730883027,0.38383349637589603,0.18244275199048587,0.20778783194869987,-0.11056803727638531,0.24080770595073808,-0.033470995100902456,-0.20375685328443183,-0.05920523525218613,0.09524698252723596,-0.39759175559488114,0.41772193285980563,-0.16706874306698083,0.49163131085414413,0.07421652795332712,0.2145675993502465,0.0964503180160996,-1.481878078887064,-0.3365515204271965,-1.3463631966825353,0.0431833230158567,-0.3416762969587097,-0.046582776732382314,0.41184514365852465,-0.3491303061549864,0.1432975947843893,0.05144833868334686,0.4079274281865537,-0.08200072503637656,-0.12305767807039203,-0.026765119827601325,0.056995574466835563,0.0657463480908902,0.07060794990000119,0.19701744403674226,0.03678916272425603,0.05042865486583281,0.010646694155330039,-0.05165520415261682,0.1157886847077485,0.14598918892762924,0.14113029685419676,0.025308810898803102,0.03844581465542163,0.1531572358493598,-0.05172042640510455,-0.095512635379432,0.07141287740710922,0.04700708130470943,0.09860635809981488,-0.006166292296018838,0.10341598547016417,-0.14349063641032345,-0.05981021076313553,-1.690355919889324,-0.08961746946711102,0.32215310576698997,0.3468715308848722,-0.13496412342800745,0.11290041993999367,0.17052162630325185,0.07492793911210072,0.07668629508345148,0.018952405227157243,-0.6762626927007211,0.45346949629712086,0.4850580124063306,0.19031066789315076,0.6748247641695144,0.818895053585333,0.8289896985966312,0.7983533410175099,0.9068991062308971,0.5455759720007798,0.13619891311250498,0.09796781539005828,-0.37908997726926685,-0.3852686487928594,0.05652226285286055,-0.03998224428549868,0.10444192010498732,0.07556390894720977,0.44377751153397327,0.04489033580372315,0.026200390593341893,0.012521305230780655,0.5942817757281222,0.1869030768212614,-0.12483906828031976,0.12576581554386834,0.3750973866420715,0.23195737679604633,0.25314882854775433,0.1304010522568646,0.2468139151875839,0.49871845225541556,0.29223308990679797,0.31103970656529256,0.04358491361110772,0.8048271820348578,0.47896400869069744,0.04944201917571611,0.41774530910917385,-0.0922434259191558,0.30942910398276524,0.2455164999340269,-0.05075592526202577,0.09082146721820727,0.28460731303152187,0.23679583939216187,-0.014132242420743069,-0.8761950017864812,0.48570081320180947,0.29832169172838086,0.0794432249161332,-0.13314671414586599,0.1500761556738972,0.2185468473010701,0.03025491520106094,0.6522735641793247,-0.0965564464091706,0.5280862581715962,-0.2672392393418228,0.12623960513119137,-0.0043218838284246885,0.16497125769613774,-0.018759664413193988,0.16590244160672185,0.1809438755386079,-0.017418777515837647,0.13689523748534782,0.34849564826908974,0.23254882876155136,0.07108762613909647,-0.4117568243705545,-0.2604101412127342,-0.16624123460676543,-0.07392358276647037,0.11937036218336772,-0.21524683935696665,0.13211727747609103,-0.18529051250180828,0.39849979215085796,-0.2255211508160837,0.0037649112692452746,-0.2490638986032696,0.8303622418669008,-0.49147913482487304,-0.25526039035986514,-0.0310085416876138,0.2653097806017968,0.06279450691786082,0.24960921928566115,0.2488009855625286,0.09474052667446387,0.26917993562721065,0.3261567878484808,0.1653631834364333,0.061978786127024676,-0.10340177667169215,0.02692251059335149,0.22119302325595314,0.07029711280811668,0.4387844361858413,0.33329772627342535,0.09797560452140885,-0.23378417102377824,-0.27412859410205925,0.10338039617748151,0.18971525291616587,-0.0535585315684024,0.5417091552022981,0.38886443504124557,0.39790398756778345,0.31448838526973333,-0.1527562486432501,-0.47832864259582664,0.39662793536250796,0.16397059786680046,0.07955356473306097,-0.03374124631380937,0.0062296073668761665,0.1833200600992555,0.046305241552113685,0.18677622019043127,-0.05832233970521372,0.6335205209940078,-0.19618456690333552,-0.21857294169065788,-0.00640831908618722,-0.09385091138913282,0.3490081075217226,1.045032776625277,0.07709018064017314,0.2772996319385701,-0.48463728302984777,0.12691412584514872,0.39813240840581976,0.008263215333833784,0.13591952404493846,0.14277418048155432,-0.1805008311749674,-0.5659446355946081,-0.3090515046861597,0.02694212414899333,-0.22980491891427768,0.02915005830331374,-0.15120693027808052,0.03203081536291208,0.13915747937005563,0.17963273121419476,-0.021543156657893192,0.22727169483625076,0.1895850077335517,0.008340232898676803,-0.048321688264799434,0.287567025676438,0.3380674051268926,0.3439343197979241,0.2305683179444351,0.11004603815463199,-0.01998789744852658,0.10524507565706998,-0.0135011291510434,-0.10904185033830416,0.07386933342321811,0.21328023670470486,0.1537506713418466,-0.20753826418540555,0.22584073607449007,-0.007729409179013658,-0.14973073235098866,-0.18935173093893454,-0.14521632552813912,-0.2700438545658326,0.1133329094436526,0.1746351068116656,0.18403099527533584,0.01165431198904976,-0.1270958346046296,-0.13573470709859237,0.19846033336825286,0.3546879339053923,0.17000973270615383,0.03742859769500839,-0.06071517545898075,-0.0889877961626091,0.10266645743941893,0.2837911628863292
Batch1_Sch_Br_x30_pos_1-19_43.mzXML,1.1074101299085797,1.86983986997034,0.7663444456432433,0.8293100574699395,1.0300374752333727,1.4420183094064765,0.8677851416295361,1.9822882168756735,1.264226875724555,1.5380690593234458,-0.026646689949245683,-0.24302594801475053,-0.45102118004245995,-0.7441225579357749,1.541564409968501,1.143318913927546,1.2529545150555457,0.9894332322708621,0.776839972515674,1.198823731353258,2.09266845027231,-0.22033812718357382,-0.20893997779290174,-0.24453150067087037,-0.4796416844487812,-0.47344177192520753,-0.9571067107062756,0.23655295691908762,-1.322922859238858,-0.4934698736911649,0.25577627839440176,-0.2872853035063976,0.8147004115363163,0.6337267960990172,0.5767971527668401,0.3745097003232356,0.6167290372391285,0.607393998893043,-0.2387801993091827,-0.3492922003265484,0.11983140601254227,-0.22855134577438996,0.5293480025778532,-1.0637953809480933,0.38560274939864314,-0.4404151327619026,0.9168423339042011,1.3482379105803108,0.5443911257347693,1.8170580751434713,1.1391287893586348,1.0993157101030633,1.536250278829252,1.3116400475372938,0.996325555112227,1.1681700066193503,0.7128028184462725,-0.3484407806886569,0.15755093881653082,0.08489685341626796,-0.1525591744822261,-0.09078412826618099,0.11339764578174538,-0.2561723577771815,-0.9629512901338018,-0.4900341033126132,0.17402740551992046,0.5108226215502647,0.9280294722085838,1.2571674727313944,1.4534714052644713,0.6307619232266877,1.5933105491690984,-0.09406629908089492,0.5913993063470571,1.5975860019413872,0.70859719715056,1.0767646408048908,0.6610196290478605,0.28510427560092566,0.8407126456728307,0.7521379489449753,-1.8506368867928806,0.7269910478249724,0.7567212198227509,0.5887356369974501,-0.21115784233162138,1.0195519170901406,-0.02104039204271757,0.5675221996153716,0.00987536759170382,-0.5506070147506179,0.5192865205234707,0.7124156698940869,0.1341594406134714,0.3486248809420154,0.9019179771335324,0.20069294795739268,0.31818567769474626,0.33209425629520517,0.07182346587140387,0.2640207243243058,-0.19479623803101198,-0.19321320018988075,-0.15506174745454437,0.05737189618744942,0.16159243785651434,1.1445610528562646,-0.1453609465665675,-0.7355993696058505,-0.11760333834858372,0.7363367895796884,0.1279005397213986,0.046999460316776265,0.24291333918998426,0.4169579075336216,0.34103761100123364,-0.41953736069541847,-0.01746188687440764,-0.08564637605023329,0.4140339845550294,0.35567294141573846,0.21697459653996454,-0.48053687848490867,-0.2759630110607283,0.303177816291857,0.09559131612273575,-0.6162710881958589,-0.2980189247901954,-0.5538150579679275,-0.22987184278676054,-0.5739983864257674,0.32981917290745244,-0.11955368043393122,-0.36134230051738037,-0.30648416123766786,0.00109815902014887,-0.12443811245117686,-0.3849932101735689,-0.3787635967006562,0.39215955569921235,0.021170924265710767,-0.17293399721658886,1.37724160775549,-0.582335944107097,-0.10202031791355637,0.5705546884666042,0.2278257125933436,-0.6781159245470825,0.005505453881777811,-0.7938768276907631,0.05427268797089724,-0.054983372171953704,1.0279702166152944,-0.011655795454315054,-0.5349198612014767,0.3960879451605024,0.2966515675029324,0.10782164605468303,-0.1133395268786952,-0.33497160446864527,0.24463098034367192,-0.5470883056152793,-0.0402219486565869,0.08668254169738177,0.5501726541622229,0.2423545920319654,-0.9250781576913418,-0.13632154746443703,0.04514012619851826,0.26253431233665836,-0.3305945089696891,0.17425223760986697,0.6923337919417811,0.2800894861824048,-0.12388291554143649,0.2867284370301171,-0.14713320691819476,-0.0006083112363093335,0.6718545874719677,-0.1551337020180874,0.07171145725743955,0.2489541836913105,-0.38016254829099694,-0.05831210556564059,-0.1064407523227473,0.11618390495120323,0.13828562893000296,0.3359655112910733,-0.22554959046219025,-0.030352889401900285,0.1153866130291874,0.09401452209631955,-0.01058328269123976,0.19517458438030744,0.8810499075733205,1.2374397532784052,0.49978058626674127,0.7778926130641253,0.8635849312836221,1.1508620442381083,0.9082691257586006,1.0287995393268456,0.9025069475033938,-0.04004408417087291,-0.09789020516322644,0.13390502640364765,-0.14955497951761387,0.7387790593861876,0.9010077083956745,-0.1741882804411894,-0.11880599059882613,0.18005220479085438,-0.2541702852989616,0.49522492404384977,-0.4038406769764684,-0.2074362991404186,-0.4674374764966771,0.10099612246296985,0.4952067086561236,-0.13015554458131007,-0.30869032451636436,0.7739465313059792,-0.5121680965716173,-0.2916736615263176,-0.06004373522826256,-0.3974049382737235,-0.2007543166982657,-0.06192555086087026,2.4613955816826394,0.7179186689237707,0.23588202657067292,0.20205589065635365,0.619755263224242,0.878736310688307,0.8062676425657482,0.5554114813930191,0.7055556107820653,1.2357477742575487,1.1176316007034863,0.5292165786003302,-0.6642152604779703,1.4170130090361237,1.3271044628044102,0.6890604655864649,-0.37411895135531736,0.45992742584763135,1.121544884291314,0.7842083715593322,1.619948935296705,0.11432339042724493,1.0912468307823282,1.395753754486286,0.7518742584581837,0.6336614571050525,0.5017597374423453,1.1985091345258052,0.04768005080516602,-0.10600636167692734,0.9510479209127674,-0.06528562628314205,1.3105700497861967,0.5385655822759325,1.072639767500167,-0.4068749663844411,0.4588376418292146,0.7321702454293941,0.5967022936532373,1.0254738925897975,0.42773780084678314,1.1126019477316724,0.3988000460757952,0.810931051448943,0.38231999243952863,-0.8142504446210541,0.35233871810739714,0.04683967727797089,-1.2655645095627364,-1.1006812417682408,1.2880079952989085,-0.01391341001441937,-0.36640272235196747,0.41029978265734535,0.456100798640394,0.14891796550304903,-0.1734311166784881,0.07106281535617676,0.04341400833279252,-0.10974080426259292,-0.10370083346071368,0.5944673444533475,-0.09975748527821438,0.35201142323051826,0.22595679879468022,0.12949906647941312,0.40182786194690934,0.05687848807944107,-0.02231761029074164,-0.557964279311367,0.053828902082230456,0.008213861165330627,-0.07904354445004458,0.05119832625973331,-0.5133555036539956,-0.04235085673332506,1.122603439983532,-0.5245572361148163,-0.09304180714907773,-0.4205776216191808,-0.45959617348299275,0.039596879823131204,-0.25753148917491764,0.8852868351023417,0.532452783420867,0.43816861349589864,-0.7188243812454296,0.7545355645237173,-0.14805493179308016,-0.7411666628000031,-1.2737279078195538,0.3945133486046224,1.1244945597341793,2.0503821553796655,0.49060304097849716,0.8144414858393993,0.38339251128418006,0.04340172902564454,-0.508511943242036,0.9867527008760444,0.5406920524417913,0.5465438196550423,-0.030984224714920572,0.005176362620684216,0.14144217516889768,-0.06246176563015027,-0.10305619977041403,0.776261788701996,0.6518246373709271,1.4838812683599265,0.64026304050698,0.8098375303637226,1.461706612926351,0.5719141289358198,0.6402483881356922,0.7396201337193347,1.233064601133858,0.5666020672014724,0.7661479409620107,0.6897827597429433,0.08168452415060123,-0.30120150434713366,0.17527825079696058,-0.013392154327883432,0.7586127999686383,0.29182478768320763,0.2573910735781091,0.255195475413835,-0.41242089083327294,0.8459464874424292,-0.37339234169980173,0.44212733703032114,0.6722076026352859,0.37663590375947464,0.04787123488876688,-0.22198867831055225,0.9614672571901384,-0.2942050224094803,0.3691331070719439,1.4536018852364077,1.04491269532196,0.4562799481181159,0.04694660353673541,0.34381433025414765,0.09312742624604908,0.9519751611886509,1.246861240566357,0.4455553090876787,0.20655476174995258,0.9542338092676079
Batch1_Sch_Br_x30_pos_1-02_63.mzXML,-0.8482610506526385,-0.539769910160846,-0.6043078071967294,-0.474358335581579,-0.5644814974065007,-0.9443692623153019,-0.7025615950366237,-1.0396037408586594,-0.8830874037626,-1.0067940687514216,-0.6460159221987265,0.009091856871130233,-0.45098899122509195,0.16581282035684097,-1.0980092557486927,-1.5628206974907393,-1.657587243577316,-0.6490105681224811,-1.115566453351967,-1.0198646936736075,-1.9386188908526591,-0.30059335499012185,-0.12682981345011868,-0.20284470209412575,-0.06119742054461774,-1.1216838428185518,0.4606215157749922,0.13631017232512832,0.579190981718881,0.9840586679066732,-1.149564400784035,0.19951123266550574,-1.086589642121245,0.053950516910935775,-0.7128433872836233,-0.051495392585017896,-0.37477417047336736,-0.6226240438981421,-0.3460320812681399,-0.4063248945558673,0.44868032778226485,-0.16310948188207952,-3.6211126557504834,-1.6138870377783032,-0.5081121507425994,-0.5996964426604503,-1.8290465424913869,-0.881516799297394,-0.9798265625340647,-1.3864134567853288,-1.205836440209362,-0.8177192734724663,-0.5984755873617971,-0.41565788968426354,-0.672377148914002,-0.644057761745561,-0.15366042543970337,-0.3155082908213007,-0.6587111311685199,0.03515688461664013,-0.33534961724432044,-0.6452079457022037,0.525203885360618,-0.46730650745255353,0.14141111050612132,-0.3017255323311474,-0.9254564830599943,-1.240620369916563,-1.091286623759407,-0.22963085016585438,-0.7121714317661034,-0.2933514786321396,-0.9224168341917718,0.15907913838822552,-0.027808480077302633,-0.5514408412053875,-0.6802259661833965,-1.4793526726622321,-1.2621100551002051,-0.40834274535535187,-0.6111795717508102,0.2786789942658796,1.922680172013596,-1.0055678813897444,-0.5320716068861326,-0.3592503871366812,-0.06249991741215766,-0.4462200464254025,-0.3702217206751648,-0.42942624045025646,-0.5354714908615161,0.3873461698857703,-0.36511100574534083,0.24243354821067697,0.14405754724046815,0.3506889787585834,-0.00509995150690834,-0.5337616342807348,-0.3702661658472195,0.028514857000825344,-0.467263227590637,-0.43302313752316657,-0.6166973841660663,-0.14184742417243434,-0.12941382350606823,-0.7207936799832861,-0.19231398795669108,-0.10064916061783791,-0.8446906692219827,-0.6313047950650397,-0.02330216287152176,-0.3910351423093559,0.8017334614485083,0.5637614125159764,0.4825150682474906,0.5489312452642512,0.29361669232886456,0.136584610112644,0.3671075614618431,0.630096239411694,0.5924296120421246,1.0000186738135088,0.316827015599781,0.6165418609556959,0.3220469455983235,0.2877378854301149,0.40867094796155357,1.0832297167334346,0.5078163972310001,0.697358882396049,0.7665894100347543,1.3328752737221876,0.39138078423176026,0.6526116793914234,0.603170943616762,0.6655605157357574,0.4701028751013965,0.21940300090920672,0.4543403297348938,0.5351903464640468,0.7365622623639414,0.7905055340597364,0.2559877137521269,0.9532963026392896,0.7197232852952027,0.5617064353113292,-0.27401296395825625,0.5463778698483779,0.3549978626573882,-0.12406924376499262,0.8637459265545537,0.08625463676693457,0.36584404145451543,-0.37073966998801566,-0.023407099742708937,1.0948140980543748,0.12578062180552507,0.6376682039457418,-0.6666878063618604,0.16606799280556572,0.3841955731538569,-0.04902088289556872,0.7490254882454579,-6.478592674241668e-05,0.10704877919246769,-0.05695588403754037,-0.10087125987687884,1.0701954913096614,0.16154118499398962,0.21538523362826467,0.07120344549829127,0.21854377669792768,-0.023689887202937854,-0.32079732357174606,0.13617326434215293,0.08090581053740564,-0.056998778600704014,0.23063179139570522,-0.03902152878783838,-0.12205633990898157,0.20192263498802987,-0.1850283338136034,-0.1766346079593788,0.10990046479842519,0.07290537196754343,0.020142716235440616,0.36256044035269497,0.3494196369997873,-0.07547368374092045,0.19003826556969727,0.44647973157313814,0.25346946115231006,0.23606118038038915,0.25712139261521116,0.12617638392099195,-0.6365805083693274,-0.4096567410904264,-0.7401114707598797,-0.366690209161705,-0.5220636153537086,-0.612341618504388,-0.5282908951147185,-0.19201675529563111,-0.7244492120818862,0.07365127870308186,0.18383492011488123,0.5204347645442233,0.28063772716996915,-0.5128256480477784,-0.6281182430420778,0.49819515968248496,0.5332742926714431,0.4902663218426966,0.4658322749572257,0.45550483626401217,0.3776381520216532,0.6789031257764471,0.8297786978151507,0.010701446585599683,0.03870734727692593,0.6101311990258971,0.5436585593824041,0.019010279539084962,0.9396431086553605,0.8360874694868095,0.5312978241261899,0.8763635776997649,0.3757650430646784,0.7628416224147916,-0.04311215804157342,0.5965804310305369,0.4555967747941949,0.6038645985473341,0.709528545127359,-0.1659297991870492,0.03987529377898902,0.12561966681140113,-0.005188663778065816,-0.27848485780945254,-0.0600713313104535,0.08333556844562295,-0.08341764970679222,0.131402165513963,-0.21292351814436827,-0.03047337568393438,0.5298544785369721,-0.22105995735843997,-0.1966993801587691,-0.04281728812740049,-0.6051172807448726,0.43246937481599446,-0.2475173874228691,-0.31150654445712966,0.13353892168180614,-0.2406074366388964,-0.07731428079786795,-0.7731485715660327,0.49342533852059844,0.4939376263934321,-0.2757976385666918,1.0689307285958698,-0.36588729945393794,-0.34387560844790777,-0.1290618952027458,-0.2411576061093328,-1.6296351181315227,-0.9206006819435899,-0.6162207951585419,-0.7409196541137693,-0.6181206251405644,-0.8690490414657877,-0.47053728298093134,-0.42233175983218985,-0.40712519932299074,0.015163122975511811,-0.7248625580565946,-1.530024025338749,0.7267968935883928,0.5900631588100609,-0.6056257440217596,0.2865602080607417,0.6997557486042751,-0.17503517840338212,-0.027621078335501537,-0.1559040098562967,0.5393197225393802,-0.018961420123321915,0.17804006215565948,-0.1779892980627622,0.5415797526648376,-0.46641262959087726,0.2070126470893925,-0.33812219250411424,0.5689644082566581,0.3682222330195639,-0.3270082650175965,-0.10327446054172995,0.19340422622817144,0.6256844939971025,0.5164308170912015,0.21971510129279181,0.8741596192701202,0.584791398481471,-0.7403231308350158,-0.07968542341306062,0.16470831075282533,-0.10888449979119486,0.838245309117525,0.6092744473539007,0.5495023641219738,0.3659438053308044,0.9024371749397293,-0.8328317681981297,-0.5975451601931798,-1.1184018283148411,-0.031757793795213374,-0.4844684185854682,0.00549129579208163,0.640777715101045,1.2186537598981833,-0.5339207950491129,-0.4792344466973919,-1.2164978665349349,-0.9405744664329401,-1.3083575177768996,-0.8298669554488409,0.09694073195915642,-0.48419990480502584,-1.0371495898025795,-0.44377131466626807,-0.06160831404564071,1.3787323870615502,1.2502539734764575,0.9482598113563192,1.5188048511753234,0.9510525176729931,0.12901147057467277,0.035978962381882695,1.1416707817003662,-0.4479464039725869,-0.1319036869942174,1.6276574467311669,-0.040423849883229224,0.1980492214601135,0.3766844457402261,1.2447388512457387,-0.3373471151794263,1.0721163752079637,0.8312185431369379,-0.026939532295310542,0.21175513429299642,-0.3306090500872436,-0.015413319325674024,-0.4570462111765732,-0.4946990287913984,-0.12102476199103762,-0.15832396549348893,-0.6812505971703295,-0.43428162518884683,-0.025687224380847695,-0.1862328939929334,-0.5121905826274791,-0.6461233023402961,-0.3387863844254788,-0.6156795972296827,-0.8493321227111199,-0.03362827351604025,-0.0794577371440699,-0.8742456233451001,-0.824632416298579,-0.6108919185603376,0.18913269985666759,-0.04134339835495737,0.4551828711580672,-0.9595764790109218,-1.0448432612908096,-0.6787273985706239,-0.4936861559037844,-1.003063435574104
